tree
version=v3
num_class=1
num_tree_per_iteration=1
label_index=0
max_feature_idx=91
objective=regression
feature_names=Column_0 Column_1 Column_2 Column_3 Column_4 Column_5 Column_6 Column_7 Column_8 Column_9 Column_10 Column_11 Column_12 Column_13 Column_14 Column_15 Column_16 Column_17 Column_18 Column_19 Column_20 Column_21 Column_22 Column_23 Column_24 Column_25 Column_26 Column_27 Column_28 Column_29 Column_30 Column_31 Column_32 Column_33 Column_34 Column_35 Column_36 Column_37 Column_38 Column_39 Column_40 Column_41 Column_42 Column_43 Column_44 Column_45 Column_46 Column_47 Column_48 Column_49 Column_50 Column_51 Column_52 Column_53 Column_54 Column_55 Column_56 Column_57 Column_58 Column_59 Column_60 Column_61 Column_62 Column_63 Column_64 Column_65 Column_66 Column_67 Column_68 Column_69 Column_70 Column_71 Column_72 Column_73 Column_74 Column_75 Column_76 Column_77 Column_78 Column_79 Column_80 Column_81 Column_82 Column_83 Column_84 Column_85 Column_86 Column_87 Column_88 Column_89 Column_90 Column_91
feature_infos=[0:1] [0:1] [0:1] [0:1] [0:1] [0:1] [0:1] [0:1] [-5.1993375826055752:5.1993375827034196] [-5.1993375826055752:5.1993375827034196] [-5.1993375826055752:5.1993375827034196] [-5.1993375826055752:5.1993375827034196] [-5.1993375826055752:3.5821589815474879] [-5.1993375826055752:3.4224005296029785] [-5.1993375826055752:3.4209619478069517] [-5.1993375826055752:5.1993375827034196] [-5.1993375826055752:5.1993375827034196] [-5.1993375826055752:3.4174051645322474] [-5.1993375826055752:5.1993375827034196] [-5.1993375826055752:4.114818457606952] [-5.1993375826055752:5.1993375827034196] [-5.1993375826055752:5.1993375827034196] [-5.1993375826055752:5.1993375827034196] [-5.1993375826055752:5.1993375827034196] [-5.1993375826055752:5.1993375827034196] [-5.1993375826055752:5.1993375827034196] [-5.1993375826055752:3.5159975939520254] [-5.1993375826055752:3.4221247749540438] [-5.1993375826055752:5.1993375827034196] [-5.1993375826055752:3.1594198127537902] [-5.1993375826055752:5.1993375827034196] [-5.1993375826055752:5.1993375827034196] [-5.1993375826055752:5.1993375827034196] [-5.1993375826055752:5.1993375827034196] [-5.1993375826055752:3.3746110912319511] [-5.1993375826055752:3.4028907970335287] [-5.1993375826055752:5.1993375827034196] [-5.1993375826055752:5.1993375827034196] [-5.1993375826055752:5.1993375827034196] [-5.1993375826055752:5.1993375827034196] [-5.1993375826055752:3.2886359945210777] [-5.1993375826055752:3.3963725890382053] [-5.1993375826055752:5.1993375827034196] [-5.1993375826055752:3.2186015647026216] [-5.1993375826055752:3.8854441847942858] [-5.1993375826055752:3.5802996990829712] [-5.1993375826055752:3.3559549990177442] [-5.1993375826055752:3.4571106807573875] [-5.1993375826055752:5.1993375827034196] [-5.1993375826055752:5.1993375827034196] [-5.1993375826055752:5.1993375827034196] [-5.1993375826055752:5.1993375827034196] [-5.1993375826055752:3.40696026031419] [-5.1993375826055752:3.9489038306917941] [-5.1993375826055752:3.2227715070717298] [-5.1993375826055752:5.1993375827034196] [-5.1993375826055752:5.1993375827034196] [-5.1993375826055752:5.1993375827034196] [-5.1993375826055752:5.1993375827034196] [-5.1993375826055752:5.1993375827034196] [-5.1993375826055752:5.1993375827034196] [-5.1993375826055752:5.1993375827034196] [-5.1993375826055752:5.1993375827034196] [-5.1993375826055752:5.1993375827034196] [0:1] [0:1] [0:1] [0:1] [0:1] [0:1] [0:1] [0:1] [0:1] [0:1] [0:1] [0:1] [0:1] [0:1] [0:1] [0:1] [0:1] [0:1] [0:1] [0:1] [0:1] [0:1] [0:1] [0:1] [0:1] [0:1] [0:1] [0:1]
tree_sizes=2800 2811 2824 2842 2832 2844 2793 2839 2803 2811 2850 2810 2814 2834 2826 2804 2804 2780 2799 2796 2828 2798 2823 2795 2815 2766 2813 2797 2794 2837 2794 2810 2794 2781 2761 2820 2817 2785 2780 2793 2804 2796 2807 2784 2805 2797 2829 2840 2814 2805 2810 2801 2793 2857 2821 2786 2805 2829 2829 2799 2823 2804 2818 2807 2851 2822 2814 2835 2800 2786 2829 2813 2810 2862 2778 2820 2791 2830 2842 2817 2793 2826 2807 2838 2792 2791 2767 2788 2806 2799 2820 2835 2796 2817 2872 2797 2834 2854 2822 2817 2831 2809 2845 2853 2833 2807 2853 2813 2794 2864 2842 2765 2833 2853 2807 2797 2848 2879 2806 2845 2825 2864 2837 2833 2866 2812 2827 2845 2881 2858 2858 2862 2904 2907 2842 2856 2836 2840 2844 2845 2820 2825 2841 2824 2872 2867 2865 2802 2935 2843 2847 2858 2875 2873 2816 2852 2849 2889 2830 2822 2850 2889 2800 2857 2844 2887 2813 2838 2862 2822 2884 2804 2868 2840 2879 2841 2837 2829 2868 2885 2842 2888 2915 2912 2858 2911 2939 2915 2856 2920 2891 2915 2933 2905 2929 2847 2899 2866 2846 2899 2849 2950 2869 2875 2852 2871 2936 2870 2991 2982 2856 2878 2875 2872 2884 2939 2945 2839 2883 2900 2898 2872 2902 2866 2902 2870 2899 2871 2844 2930 2873 2918 2900 2813 2883 2896 2843 2923 2865 2881 2924 2852 2861 2881 2888 2866 2866 2863 2846 2882 2862 2861 2863 2858 2842 2849 2843 2933 2854 2821 2894 2885 2865 2865 2859 2833 2856 2854 2837 2946 2851 2842 2901 2872 2967 2824 2881 2827 2923 2892 2959 2883 2797 2816 2854 2879 2849 2987 2820 2859 2802 2942 2824 2858 2866 2832 2838 2870 2852 2934 2927 2906 2875 2869 2921 2857 2819 2814 2870 2816 2899 2954 2885 2857 2889 2902 2848 2849 2831 2897 2921 2854 2850 2933 2848 2893 2853 2844 2869 2815 2898 2934 2851 2911 2888 2822 2903 2903 2866 2863 2824 2821 2895 2848 2919 2830 2834 2871 2829 2869 2861 2877 2859 2829 2933 2965 2876 2837 2849 2845 2851 2818 2903 2864 2859 2823 2831 2864 2825 2880 2872 2875 2833 2892 2878 2851 2839 2852 2812 2900 2922 2840 2864 2883 2871 2912 2840 2909 2991 2833 2935 2880 2828 2866 2900 2817 2834 2862 2908 2884

Tree=0
num_leaves=31
num_cat=0
split_feature=27 31 59 15 31 59 59 50 31 59 31 27 50 59 59 50 35 29 50 26 59 56 31 27 15 31 26 18 17 30
split_gain=2.21789e+06 878217 654191 169909 137494 92751.2 76913.2 70024.3 42155.8 35896.1 31342.2 19778.5 18992.2 16228.8 15810.4 14179.9 14068.4 13322.7 13250.7 11890.8 11455.9 11338.4 10594.5 8912.03 8596.46 7806.84 7442.19 6739.01 7759.55 6205.53
threshold=2.678345019973412 3.1377922418083304 2.0766843351507336 3.228548311422399 3.0117732449889734 2.4610087271098697 1.7610641419582225 3.1037780132384811 3.1772486950064507 1.9249214094733793 3.1083227928064345 2.1345212919262475 2.2737456827431681 2.710365780614493 3.0786106895951248 2.4495431737579829 3.15931242731943 2.573710514268313 3.0923983330873717 1.0326249989513223 2.0289595674005403 2.5245453615206697 2.8978364020447351 1.9320504852847102 3.1458874454974852 1.7560558483990183 2.2484373187441551 2.5270702150562898 2.228072239530301 1.8465360068640242
decision_type=2 2 2 2 2 2 2 2 2 2 2 2 2 2 2 2 2 2 2 2 2 2 2 2 2 2 2 2 2 2
left_child=2 4 6 8 9 11 12 -5 17 26 20 18 21 -7 22 23 24 -3 -4 -14 -6 25 29 -8 -10 -1 -2 28 -12 -11
right_child=1 3 5 7 10 13 15 -9 16 14 27 -13 19 -15 -16 -17 -18 -19 -20 -21 -22 -23 -24 -25 -26 -27 -28 -29 -30 -31
leaf_value=0.24986092353492892 0.65386803890784972 2.4838295003786226 0.3676475721583406 2.7774062704798976 0.51474068058808187 0.51138588769096316 0.29784992945508348 4.863434030713095 2.199481352029041 1.2085405227556367 1.3851964175723981 0.45141133136798633 0.51017765010366189 0.63662052791613233 0.94295517813551544 0.54063611297550596 3.1427737790956636 1.6571656031089503 1.1406185318842073 0.30404969180660768 1.0313688721631982 0.31700690608826482 0.83566569499879184 0.36036376006739357 2.8931615754976412 0.26894214121220927 0.33750647686462476 1.2627514961561586 1.9363411225375424 0.6773382888173356
leaf_weight=1091602 90 20 9903 28 41 3687 19709 30 82 20 71 3586 380 1246 309 231 24 143 20 747 668 2291 518 2291 20 19645 261 185 34 1908
leaf_count=1091602 90 20 9903 28 41 3687 19709 30 82 20 71 3586 380 1246 309 231 24 143 20 747 668 2291 518 2291 20 19645 261 185 34 1908
internal_value=0.257013 0.925323 0.254437 2.37455 0.802818 0.431683 0.251562 3.85639 2.07716 0.704352 1.10896 0.391027 0.25046 0.543018 0.740755 0.306815 2.48926 1.7586 0.369206 0.373552 1.00149 0.250336 0.715211 0.30436 2.3355 0.250198 0.418625 1.3717 1.56366 0.682849
internal_weight=0 4452 1.15534e+06 347 4105 18442 1.1369e+06 58 289 3106 999 13509 1.11466e+06 4933 2755 22231 126 163 9923 1127 709 1.11354e+06 2446 22000 102 1.11125e+06 351 290 105 1928
internal_count=1159790 4452 1155338 347 4105 18442 1136896 58 289 3106 999 13509 1114665 4933 2755 22231 126 163 9923 1127 709 1113538 2446 22000 102 1111247 351 290 105 1928
is_linear=0
shrinkage=1


Tree=1
num_leaves=31
num_cat=0
split_feature=27 31 59 31 15 59 9 59 59 31 31 59 50 50 59 27 35 59 29 31 26 27 26 56 15 26 18 50 18 17
split_gain=2.08719e+06 917615 496972 176782 159868 76900.9 68260.3 48855.9 46091 39664.4 34307.4 20762.5 16633.2 15707.3 15194.2 14576.9 13236.9 13025.9 12535.4 11511.1 11219.5 8483.7 8226.02 8188.15 8088.41 7044.72 7031.25 6874.6 6602.45 9056.31
threshold=2.577355246106765 3.1377922418083304 2.0081359515137058 2.9812063676999307 3.228548311422399 2.3813189332928881 2.5935977031429105 1.7080967682751582 1.7563232580354531 3.1772486950064507 3.1083227928064345 2.9767624304306897 3.1037780132384811 2.2793273352349135 2.6122033424209063 1.8849322148563334 3.15931242731943 2.4463874054732702 2.573710514268313 2.8620505744646025 1.0326249989513223 1.7817564120978753 1.8007786877235483 2.5245453615206697 3.1458874454974852 2.1534773049367182 1.8993969652085265 3.1282208511821632 2.5022210474464219 2.228072239530301
decision_type=2 2 2 2 2 2 2 2 2 2 2 2 2 2 2 2 2 2 2 2 2 2 2 2 2 2 2 2 2 2
left_child=2 3 7 8 9 12 -6 13 25 18 17 19 15 23 -7 -4 24 -5 -3 22 -15 -9 -10 -1 -11 -2 -21 -24 29 -12
right_child=1 4 5 10 6 14 -8 21 11 16 28 -13 -14 20 -16 -17 -18 -19 -20 26 -22 -23 27 -25 -26 -27 -28 -29 -30 -31
leaf_value=-0.0067112475184536707 0.32996071150096562 2.1600122995376587 0.079476182431057307 0.39613777238028969 4.4856746292114256 0.20719449128102402 2.4260898723133972 0.029519666588183797 0.839389783591032 1.8841945988085211 1.0996996814182827 0.58275400387524712 0.95063896519797186 0.24180382698275049 0.31863220143975551 0.13907404008523974 2.7991882228851317 0.74551186516861301 1.3581483013729947 0.7152290688390317 0.036353546416313123 0.081034145455569806 0.35130039165656513 0.055392631696583483 2.5570644893646239 0.052806339539482723 0.45554604214079236 0.86122254729270931 0.9765959149814144 1.7464725091722275
leaf_weight=1105918 104 20 8381 110 30 4244 28 20803 32 82 70 566 21 373 1487 6604 24 757 143 115 667 3339 2783 1914 20 400 510 24 194 27
leaf_count=1105918 104 20 8381 110 30 4244 28 20803 32 82 70 566 21 373 1487 6604 24 757 143 115 667 3339 2783 1914 20 400 510 24 194 27
internal_value=0 0.556271 -0.00291165 0.464964 2.05401 0.142626 3.49139 -0.00557536 0.380471 1.76554 0.795787 0.414297 0.106924 -0.00649455 0.236109 0.105741 2.16528 0.701185 1.45654 0.386772 0.110039 0.0366445 0.361113 -0.00660395 2.01613 0.109997 0.503328 0.35566 1.07764 1.27973
internal_weight=0 6039 1.15375e+06 5692 347 20737 58 1.13301e+06 4534 289 1158 4030 15006 1.10887e+06 5731 14985 126 867 163 3464 1040 24142 2839 1.10783e+06 102 504 625 2807 291 97
internal_count=1159790 6039 1153751 5692 347 20737 58 1133014 4534 289 1158 4030 15006 1108872 5731 14985 126 867 163 3464 1040 24142 2839 1107832 102 504 625 2807 291 97
is_linear=0
shrinkage=0.03


Tree=2
num_leaves=31
num_cat=0
split_feature=27 31 59 15 31 59 59 49 31 59 31 27 50 59 59 50 35 29 50 18 59 56 31 27 15 27 26 18 17 26
split_gain=1.96591e+06 777036 579347 150420 121715 81004 69725.9 65192 37320.2 32090.5 27676.5 17310.9 16936.6 14527.1 14128.2 13171.2 12454.6 11794.5 11733.9 10783.3 10361.1 10098.8 9282.57 8013.7 7621.69 7365.87 6925.63 5996.64 8521.08 5828.02
threshold=2.678345019973412 3.1377922418083304 2.0790107593088138 3.228548311422399 3.0117732449889734 2.4610087271098697 1.7622821500716104 3.0935078380440948 3.1772486950064507 1.9596904371043615 3.1083227928064345 2.1425314753098426 2.2737456827431681 2.710365780614493 3.0786106895951248 2.4495431737579829 3.15931242731943 2.573710514268313 3.0923983330873717 0.99566774125624546 2.0289595674005403 2.5245453615206697 2.8978364020447351 2.0110803963320625 3.1393452367900667 1.6434002859067014 2.2484373187441551 2.5022210474464219 2.228072239530301 3.1019201789294102
decision_type=2 2 2 2 2 2 2 2 2 2 2 2 2 2 2 2 2 2 2 2 2 2 2 2 2 2 2 2 2 2
left_child=2 4 6 8 9 11 12 -5 17 26 20 18 21 -7 22 23 24 -3 -4 -14 -6 25 -11 -8 29 -1 -2 28 -12 -10
right_child=1 3 5 7 10 13 15 -9 16 14 27 -13 19 -15 -16 -17 -18 -19 -20 -21 -22 -23 -24 -25 -26 -27 -28 -29 -30 -31
leaf_value=-0.0067897667153039654 0.37687765620490338 2.0952119178771973 0.10496324341090899 2.6289227133344957 0.23811201660098824 0.23929010814530174 0.039575853486578196 4.7216949026925219 2.1363531248031125 0.40162153220151836 1.0667086797441754 0.18440068119790057 0.23230261799838681 0.35777703832470203 0.64739174676172939 0.26803362108612455 2.7152126407623287 1.3174038846175986 0.81486561809267311 0.039662607459665385 0.72943484149650184 0.056543728494202847 0.54474299475262977 0.10495931386818126 2.436259823674741 0.0093379575443266419 0.077454730695940208 0.95219621284020384 1.6940783119201659 1.6086450251936912
leaf_weight=1085329 94 20 9791 37 41 3687 20181 21 31 1918 70 3475 412 1246 309 241 24 143 21 716 668 2298 518 1841 23 26100 267 193 27 48
leaf_count=1085329 94 20 9791 37 41 3687 20181 21 31 1918 70 3475 412 1246 309 241 24 143 21 716 668 2298 518 1841 23 26100 267 193 27 48
internal_value=0 0.629202 -0.00242458 1.99239 0.51397 0.165404 -0.00511368 3.38665 1.71257 0.421326 0.802011 0.126861 -0.00616346 0.269218 0.456295 0.0474557 2.10033 1.41284 0.106483 0.110024 0.701023 -0.00628114 0.432055 0.0450418 1.95565 -0.00641103 0.155421 1.04891 1.24134 1.81572
internal_weight=0 4452 1.15534e+06 347 4105 18220 1.13712e+06 58 289 3106 999 13287 1.11486e+06 4933 2745 22263 126 163 9812 1128 709 1.11373e+06 2436 22022 102 1.11143e+06 361 290 97 79
internal_count=1159790 4452 1155338 347 4105 18220 1137118 58 289 3106 999 13287 1114855 4933 2745 22263 126 163 9812 1128 709 1113727 2436 22022 102 1111429 361 290 97 79
is_linear=0
shrinkage=0.03


Tree=3
num_leaves=31
num_cat=0
split_feature=27 31 59 31 15 59 50 59 59 31 31 59 50 50 59 27 59 35 31 29 26 27 26 32 56 50 26 18 62 18
split_gain=1.85087e+06 811853 440142 156218 141530 68139 62670.1 43274.1 40842.5 35114.6 30330.7 18555.9 15134.5 13673.4 13567.7 13035.5 11764.4 11718.5 11643.9 11097.5 10154.1 8108.87 7569.1 7414.8 7085.76 7046.54 6362.76 6275.84 5922.58 5862.78
threshold=2.577355246106765 3.1377922418083304 2.0081359515137058 2.9812063676999307 3.228548311422399 2.3813189332928881 3.1037780132384811 1.6946546914429417 1.7563232580354531 3.1772486950064507 3.1083227928064345 3.0786106895951248 3.1037780132384811 2.2793273352349135 2.6122033424209063 1.9019165260459101 2.4463874054732702 3.15931242731943 2.8620505744646025 2.573710514268313 1.0326249989513223 1.6022121435369348 1.8007786877235483 1.7031582848023412 2.5836327682320701 3.1282208511821632 2.1534773049367182 1.8993969652085265 1.9493910450099754 2.5270702150562898
decision_type=2 2 2 2 2 2 2 2 2 2 2 2 2 2 2 2 2 2 2 2 2 2 2 2 2 2 2 2 2 2
left_child=2 3 7 8 9 12 -6 13 26 19 16 18 15 24 -7 -4 -5 23 22 -3 -15 -9 -10 -11 28 -24 -2 -20 -1 -12
right_child=1 4 5 10 6 14 -8 21 11 17 29 -13 -14 20 -16 -17 -18 -19 27 -21 -22 -23 25 -25 -26 -27 -28 -29 -30 -31
leaf_value=-0.0065838860153023268 0.31295899352345324 2.0323555898666381 0.075620370943177473 0.37008600293051197 2.2643020963668823 0.19489532641146567 4.2377500610351566 0.02188191167703166 0.80512165211141107 2.2508713343484059 1.1931718953677586 0.61493514481712785 0.90542140637125279 0.22809193073025336 0.30019969230220872 0.13229066732813413 0.70211091162506467 2.6337562465667723 0.68004398189672899 1.2778817303530821 0.032214227526442311 0.058263518878995724 0.3369397576689962 1.7121061424710857 0.067518444188626334 0.83298741267277643 0.04956090986750205 0.44121835314419311 0.011764673723067507 0.91277797570211749
leaf_weight=1089302 104 20 8674 110 28 4244 30 17364 32 35 105 306 21 373 1487 6311 757 24 119 143 659 8079 2957 67 1171 26 400 590 16066 186
leaf_count=1089302 104 20 8674 110 28 4244 30 17364 32 35 105 306 21 373 1487 6311 757 24 119 143 659 8079 2957 67 1171 26 400 590 16066 186
internal_value=0 0.523833 -0.00274186 0.437949 1.93262 0.134222 3.28505 -0.00524865 0.358522 1.6612 0.748935 0.390364 0.100615 -0.00613727 0.222218 0.0994873 0.659985 2.03732 0.371911 1.37046 0.103011 0.0334343 0.346187 1.89698 -0.00623906 0.341263 0.103913 0.481303 -0.0063172 1.01395
internal_weight=0 6039 1.15375e+06 5692 347 20737 58 1.13301e+06 4534 289 1158 4030 15006 1.10757e+06 5731 14985 867 126 3724 163 1032 25443 3015 102 1.10654e+06 2983 504 709 1.10537e+06 291
internal_count=1159790 6039 1153751 5692 347 20737 58 1133014 4534 289 1158 4030 15006 1107571 5731 14985 867 126 3724 163 1032 25443 3015 102 1106539 2983 504 709 1105368 291
is_linear=0
shrinkage=0.03


Tree=4
num_leaves=31
num_cat=0
split_feature=27 31 59 15 31 59 59 9 31 59 31 27 50 50 59 35 29 47 59 59 56 50 31 27 15 31 26 15 56 56
split_gain=1.74254e+06 687515 513246 133165 107753 69736.9 64810.6 60841.3 33039.3 28681.8 24438.6 19463.2 15083.5 13361.6 12517.4 11026 10441.6 9741.87 9541.55 9427.14 9254.03 8629.71 8312.05 7843.93 7126.53 6835.26 6217.81 5737 5550.85 5423.63
threshold=2.678345019973412 3.1377922418083304 2.0879711701761567 3.228548311422399 3.0117732449889734 2.5166232060687688 1.7697522757826218 2.5935977031429105 3.1772486950064507 1.9596904371043615 3.1083227928064345 2.1522652982121842 2.2737456827431681 2.5427022657333542 3.0966468881196154 3.15931242731943 2.573710514268313 2.1744847208407125 2.7724161511968588 1.7395963643971872 2.503694159409485 2.4288522023715458 2.8620505744646025 1.860768128732621 3.1458874454974852 1.7703042912623663 2.2484373187441551 2.2334197061870715 2.5305049227242384 2.5564619861453997
decision_type=2 2 2 2 2 2 2 2 2 2 2 2 2 2 2 2 2 2 2 2 2 2 2 2 2 2 2 2 2 2
left_child=2 4 6 8 9 11 12 -5 16 26 19 21 20 23 22 24 -3 -14 -7 -6 25 29 -11 28 -10 -1 -2 -21 -8 -4
right_child=1 3 5 7 10 18 13 -9 15 14 -12 -13 17 -15 -16 -17 -18 -19 -20 27 -22 -23 -24 -25 -26 -27 -28 -29 -30 -31
leaf_value=-0.0063397462729390883 0.35526875169908112 1.9713849363327027 0.091817828508396829 4.1251953659057614 0.1649954841895537 0.24752978076824561 0.033347040557373933 2.180753947326115 1.7162251229402496 0.37379993956503044 0.98701265791777903 0.18089178425065144 0.20999029302022054 0.31267843949342411 0.66480344521371937 2.5547435855865475 1.2395452736807868 0.0309669904825795 0.36364392132776691 1.1499536431354025 0.050267829127362579 0.25798659064347229 0.48824276794759414 0.09022683199950074 2.347820016860962 0.01184129928956818 0.071559105990768479 0.66787644393046086 0.1069460917117051 0.17470056449258048
leaf_weight=1092856 94 20 8670 30 33 2941 18026 28 82 1693 290 4218 460 168 190 24 143 675 813 23 2634 316 862 2882 20 18933 267 653 972 774
leaf_count=1092856 94 20 8670 30 33 2941 18026 28 82 1693 290 4218 460 168 190 24 143 675 813 23 2634 316 862 2882 20 18933 267 653 972 774
internal_value=0 0.59238 -0.00228269 1.87464 0.483989 0.157875 -0.00477908 3.1865 1.61136 0.39682 0.755006 0.127043 -0.00578575 0.0461552 0.42988 1.9762 1.32934 0.103523 0.272677 0.660109 -0.00589707 0.103771 0.41241 0.0441087 1.84007 -0.00603014 0.145434 0.684278 0.0371126 0.0986106
internal_weight=0 4452 1.15534e+06 347 4105 17732 1.13761e+06 58 289 3106 999 13978 1.11556e+06 22048 2745 126 163 1135 3754 709 1.11442e+06 9760 2555 21880 102 1.11179e+06 361 676 18998 9444
internal_count=1159790 4452 1155338 347 4105 17732 1137606 58 289 3106 999 13978 1115558 22048 2745 126 163 1135 3754 709 1114423 9760 2555 21880 102 1111789 361 676 18998 9444
is_linear=0
shrinkage=0.03


Tree=5
num_leaves=31
num_cat=0
split_feature=27 31 59 31 15 49 59 59 59 31 31 59 59 50 50 27 35 59 25 47 26 56 50 50 32 27 59 26 62 56
split_gain=1.64115e+06 718305 389855 138202 125295 57872 52606.4 47719.4 33192.4 31497 31086.7 15637.4 14997.9 13354.1 13205.6 11113.2 10374.3 9968.14 9920.63 8888.09 8088.6 7904.99 7478.85 7195.44 6907.72 6102.63 5927.22 6192.55 5912.46 5833.4
threshold=2.577355246106765 3.1377922418083304 2.0506385718572617 2.945524727048443 3.228548311422399 3.0935078380440948 2.4152016028280894 1.7524818869534833 1.7563232580354531 3.1083227928064345 3.1772486950064507 2.9767624304306897 2.2909102834604225 3.1037780132384811 2.2737456827431681 2.0957686700707634 3.15931242731943 2.6122033424209063 2.9343856540540219 2.1744847208407125 1.8007786877235483 2.5245453615206697 2.3656741225147289 3.1420726211883276 1.7031582848023412 2.7267502911642585 3.1085885802768658 2.7966096709123316 1.9493910450099754 2.5775172388166929
decision_type=2 2 2 2 2 2 2 2 2 2 2 2 2 2 2 2 2 2 2 2 2 2 2 2 2 2 2 2 2 2
left_child=2 3 7 8 10 -6 13 14 -2 12 18 20 -5 15 21 29 24 -8 -3 -16 -10 28 -9 25 -12 -22 27 -14 -1 -4
right_child=1 4 6 9 5 -7 17 22 11 -11 16 -13 26 -15 19 -17 -18 -19 -20 -21 23 -23 -24 -25 -26 -27 -28 -29 -30 -31
leaf_value=-0.0061506798498264246 0.09614308572092127 1.6362947952046114 0.081057365681967544 0.27657735083252188 2.3769832493807814 4.3487658691406246 0.18980418711813926 0.037387468555182712 0.78917669248580924 0.9540226739364287 2.1264447923387801 0.51181294665081811 0.75104995409647624 0.87810402808338406 0.20120762117232052 0.15088490132460086 2.4781013107299805 0.28278627232408554 1.1315282230292047 0.027904376555693493 0.28892812629248371 0.050965515580505355 0.18676984273490732 0.87143705411390826 1.6064281884947818 0.37102554791037884 0.80360065552125493 0.55678069284163323 0.011855629477214994 0.16951769780186773
leaf_weight=1093781 485 51 9658 114 37 21 3434 21135 35 291 35 524 198 20 447 3235 24 1487 112 659 1754 2206 306 22 67 1522 166 581 16662 721
leaf_count=1093781 485 51 9658 114 37 21 3434 21135 35 291 35 524 198 20 447 3235 24 1487 112 659 1754 2206 306 22 67 1522 166 581 16662 721
internal_value=0 0.493264 -0.00258186 0.41248 1.8184 3.0909 0.133821 -0.00481138 0.330054 0.677589 1.56302 0.359467 0.601629 0.103473 -0.0056648 0.102335 1.91691 0.217901 1.28946 0.0979465 0.335516 -0.00576779 0.0395194 0.330701 1.78487 0.32707 0.640841 0.606159 -0.0058805 0.0872025
internal_weight=0 6039 1.15375e+06 5692 347 58 18555 1.1352e+06 4342 1350 289 3857 1059 13634 1.11376e+06 13614 126 4921 163 1106 3333 1.11265e+06 21441 3298 102 3276 945 779 1.11044e+06 10379
internal_count=1159790 6039 1153751 5692 347 58 18555 1135196 4342 1350 289 3857 1059 13634 1113755 13614 126 4921 163 1106 3333 1112649 21441 3298 102 3276 945 779 1110443 10379
is_linear=0
shrinkage=0.03


Tree=6
num_leaves=31
num_cat=0
split_feature=27 31 59 31 15 59 50 59 59 31 31 59 50 59 50 59 27 62 43 29 26 27 27 26 60 59 26 50 18 17
split_gain=1.54416e+06 675853 367208 130267 117890 57077.8 56097 36540.6 34068.2 29249.5 25147.9 15897.3 14060.6 12366.9 10628.6 10114.2 10054.1 10034.1 16349.8 9498.98 9403.39 8766.27 8363.45 7657.86 6104.55 5922.38 5786.32 5580.58 5513.26 8017.48
threshold=2.577355246106765 3.1377922418083304 2.0081359515137058 2.9812063676999307 3.228548311422399 2.3621189242055829 3.1037780132384811 1.653993607130732 1.7563232580354531 3.1772486950064507 3.1083227928064345 2.9767624304306897 3.0978275490026284 2.6122033424209063 2.2641449702448875 2.4463874054732702 1.8849322148563334 2.0704593806096931 1.6384284657082056 2.573710514268313 1.0326249989513223 2.8702333964299265 1.5387158685425706 1.8007786877235483 2.4928423556580537 3.1302694701581397 2.0754273547108806 3.1282208511821632 2.5022210474464219 2.228072239530301
decision_type=2 2 2 2 2 2 2 2 2 2 2 2 2 2 2 2 2 2 2 2 2 2 2 2 2 2 2 2 2 2
left_child=2 3 7 8 9 12 -6 14 26 19 15 21 16 -7 -1 -5 -4 -11 -19 -3 -16 23 -9 -10 -20 -13 -2 -25 29 -12
right_child=1 4 5 10 6 13 -8 22 11 17 28 25 -14 -15 20 -17 -18 18 24 -21 -22 -23 -24 27 -26 -27 -28 -29 -30 -31
leaf_value=-0.0057777192101949046 0.32072484234326021 1.8631545095443725 0.067458404525176333 0.33429472432014612 2.0324404825483051 0.17504976712642425 3.8995318222045898 0.01585736369258705 0.77155367419123644 1.534748124515309 0.94068119348798473 0.48151040439499154 0.83129460123570065 0.27430268127323398 0.20405337854379549 0.64215404818835953 0.1179395844905913 1.4537533195495604 2.7525296501491381 1.1651303218628142 0.020546832346764257 0.43389114815984597 0.048698961169149763 0.30064969111416456 2.0874293857150605 0.92165105753931498 0.049255178298374419 0.73404167069329151 0.83306747439903084 1.5492297342088486
leaf_weight=1101739 85 20 8339 110 28 4704 30 19249 32 51 70 537 23 1487 399 757 6184 25 23 143 679 629 10948 2776 27 29 419 27 194 27
leaf_count=1101739 85 20 8339 110 28 4704 30 19249 32 51 70 537 23 1487 399 757 6184 25 23 143 679 629 10948 2776 27 29 419 27 194 27
internal_value=0 0.478467 -0.0025044 0.400106 1.76385 0.122598 2.99818 -0.00479409 0.327576 1.51613 0.684089 0.356657 0.0901274 0.198889 -0.00568559 0.603095 0.0889537 1.8594 2.08017 1.25078 0.0884681 0.332572 0.0277642 0.310093 2.39338 0.504062 0.0950388 0.304824 0.925402 1.11007
internal_weight=0 6039 1.15375e+06 5692 347 20737 58 1.13301e+06 4534 289 1158 4030 14546 6191 1.10282e+06 867 14523 126 75 163 1078 3464 30197 2835 50 566 504 2803 291 97
internal_count=1159790 6039 1153751 5692 347 20737 58 1133014 4534 289 1158 4030 14546 6191 1102817 867 14523 126 75 163 1078 3464 30197 2835 50 566 504 2803 291 97
is_linear=0
shrinkage=0.03


Tree=7
num_leaves=31
num_cat=0
split_feature=27 31 59 15 31 59 9 59 31 59 31 50 27 50 50 35 59 50 18 59 59 56 31 50 31 14 15 27 56 26
split_gain=1.45398e+06 572227 428707 110923 90163.7 65525.9 54229.5 50037 27520.8 24292.3 20188.8 16904.9 12699.4 12676.7 11441.8 9680.22 9307.65 9121.35 8490.41 8321.95 8214.26 8173.15 7928.16 7191.32 7156.57 7084.64 6429.84 6237.01 5863.8 5554.66
threshold=2.678345019973412 3.1377922418083304 2.1366682211753969 3.228548311422399 3.0117732449889734 1.7715867292338767 2.5935977031429105 2.5166232060687688 3.1772486950064507 1.9596904371043615 3.1083227928064345 2.5427022657333542 2.1522652982121842 2.2793273352349135 3.1551852097630069 3.15931242731943 3.1302694701581397 2.2892695442290072 0.99566774125624546 2.7724161511968588 1.7395963643971872 2.503694159409485 1.8779088012507448 3.0998189051583918 2.8620505744646025 2.4701584695961532 3.1458874454974852 1.6434002859067014 2.5564619861453997 2.2484373187441551
decision_type=2 2 2 2 2 2 2 2 2 2 2 2 2 2 2 2 2 2 2 2 2 2 2 2 2 2 2 2 2 2
left_child=2 4 5 8 9 13 -5 12 17 29 20 22 -4 21 16 26 24 -3 -15 -9 -6 27 28 -13 -11 -19 -10 -1 -7 -2
right_child=1 3 7 6 10 11 -8 19 15 14 -12 23 -14 18 -16 -17 -18 25 -20 -21 -22 -23 -24 -25 -26 -27 -28 -29 -30 -31
leaf_value=-0.0058557190593990201 0.32946625837184329 1.7669318240621814 0.10164533369022064 3.7944557037353515 0.1417194586044008 0.031676134217859191 1.9587066880294255 0.22588685841026943 1.5584366896094346 0.34401978222779855 0.90100999299411111 0.2555271295641417 0.16723827639205033 0.20573371992206738 0.92422574122746781 2.345712924003601 0.88660535118796602 1.5588826073540583 0.03328733360194077 0.33432649844686918 0.62644753563157196 0.047341472922330874 0.084752377345106572 0.85343607857823367 0.44717776321978181 1.0179748760493457 2.1583651628494263 0.0089512632036168657 0.10551574487886205 0.061312467564463749
leaf_weight=1085760 94 23 7886 30 33 19312 28 2941 82 1751 290 191 4006 404 36 24 33 27 706 813 676 2640 3419 20 925 113 20 26221 1019 267
leaf_count=1085760 94 23 7886 30 33 19312 28 2941 82 1751 290 191 4006 404 36 24 33 27 706 813 676 2640 3419 20 925 113 20 26221 1019 267
internal_value=0 0.541112 -0.00208513 1.71093 0.442226 -0.00422632 2.90823 0.153884 1.47065 0.362488 0.690138 0.0448601 0.123741 -0.00528048 0.392914 1.80362 0.385853 1.21325 0.0960516 0.249372 0.603886 -0.00538139 0.042485 0.312201 0.379678 1.12229 1.67607 -0.00550656 0.035377 0.131136
internal_weight=0 4452 1.15534e+06 347 4105 1.13969e+06 58 15646 289 3106 999 23961 11892 1.11573e+06 2745 126 2709 163 1110 3754 709 1.11462e+06 23750 211 2676 140 102 1.11198e+06 20331 361
internal_count=1159790 4452 1155338 347 4105 1139692 58 15646 289 3106 999 23961 11892 1115731 2745 126 2709 163 1110 3754 709 1114621 23750 211 2676 140 102 1111981 20331 361
is_linear=0
shrinkage=0.03


Tree=8
num_leaves=31
num_cat=0
split_feature=27 31 59 31 15 59 50 59 59 31 31 59 50 59 59 50 62 43 25 26 50 27 26 27 50 60 31 59 26 55
split_gain=1.3692e+06 597976 325561 115444 104367 54203.8 51573.5 28932.3 27650.8 26084.9 25894.3 13499.2 13049.2 12763.1 11398.1 9447.53 9244.43 15223.7 8673.89 8408.18 8064.77 7929.07 7117.39 6732.22 6444.57 5822.43 5436.84 5402.52 5966.39 5563.35
threshold=2.577355246106765 3.1377922418083304 1.9896100911723658 2.945524727048443 3.228548311422399 2.3528949392868603 3.1037780132384811 1.653993607130732 1.7563232580354531 3.1083227928064345 3.1772486950064507 3.0187414527046816 2.5427022657333542 2.2909102834604225 2.6122033424209063 2.2377752608591162 2.0704593806096931 1.6384284657082056 2.9343856540540219 1.0326249989513223 3.0998189051583918 1.8849322148563334 1.8007786877235483 1.6113339316328583 3.1420726211883276 2.4928423556580537 2.7604753686846144 3.1085885802768658 2.7966096709123316 2.8498899744373536
decision_type=2 2 2 2 2 2 2 2 2 2 2 2 2 2 2 2 2 2 2 2 2 2 2 2 2 2 2 2 2 2
left_child=2 3 7 8 10 12 -6 15 -2 13 18 22 21 -5 -7 -1 -12 -18 -3 -17 -14 -4 -10 -9 26 -19 -24 28 -15 -30
right_child=1 4 5 9 6 14 -8 23 11 -11 16 -13 20 27 -16 19 17 25 -20 -21 -22 -23 24 -25 -26 -27 -28 -29 29 -31
leaf_value=-0.0054487429444108641 0.088009199886035519 1.5011650461309096 0.060198737109107607 0.25015156384214365 1.8950041386059353 0.16357104166904987 3.6852339401245118 0.016354233136369082 0.73494734039476939 0.87070158991309776 1.4378948559480553 0.49380522711193137 0.2202362294128585 0.69529155922658514 0.2583803285138272 0.18216305934958901 1.3569538867950439 2.6143980689670725 1.0291803122418268 0.019803892577641844 0.8245081930075373 0.10476113015483479 0.27378988622754546 0.04916222999717608 0.79483448565006254 1.9648479610019258 0.35343490747068884 0.74157099896166701 0.48182195606022854 0.88290118715979837
leaf_weight=1101556 485 51 9294 114 28 4908 30 21348 35 291 51 398 372 198 1487 442 25 23 112 819 21 5859 2217 7645 24 27 1183 166 548 33
leaf_count=1101556 485 51 9294 114 28 4908 30 21348 35 291 51 398 372 198 1487 442 25 23 112 819 21 5859 2217 7645 24 27 1183 166 548 33
internal_value=0 0.450545 -0.00235826 0.376837 1.65961 0.112098 2.82099 -0.00457708 0.301502 0.619136 1.42653 0.328348 0.0818555 0.550009 0.185617 -0.0053548 1.74951 1.96141 1.17686 0.0767133 0.252526 0.0774291 0.30931 0.0250052 0.30496 2.26364 0.301502 0.586183 0.55307 0.504603
internal_weight=0 6039 1.15375e+06 5692 347 21941 58 1.13181e+06 4342 1350 289 3857 15546 1059 6395 1.10282e+06 126 75 163 1261 393 15153 3459 28993 3424 50 3400 945 779 581
internal_count=1159790 6039 1153751 5692 347 21941 58 1131810 4342 1350 289 3857 15546 1059 6395 1102817 126 75 163 1261 393 15153 3459 28993 3424 50 3400 945 779 581
is_linear=0
shrinkage=0.03


Tree=9
num_leaves=31
num_cat=0
split_feature=27 31 59 31 15 59 31 59 59 31 35 29 59 50 59 15 59 50 30 27 26 50 26 50 27 26 30 18 17 27
split_gain=1.28828e+06 562635 306321 108621 98666.9 47765.6 39411.1 30567 26016.6 24543.3 16841 13431.7 12701.4 12371.8 12008.8 11645.3 9420.66 8889.18 8170.32 8122.79 7911.26 7268.45 6696.75 6063.7 5393.79 5229.31 5223.77 5197.42 6177.1 5182.67
threshold=2.577355246106765 3.1377922418083304 2.0081359515137058 2.945524727048443 3.3963673964318324 2.3813189332928881 3.1772486950064507 1.653993607130732 1.7563232580354531 3.1083227928064345 3.15931242731943 2.5536405397662301 3.0187414527046816 2.6596204263028214 2.2909102834604225 3.1492097285216576 2.6122033424209063 2.2377752608591162 1.7191646108201912 1.8962059203744679 1.0326249989513223 2.1707120614911553 1.8007786877235483 3.1420726211883276 1.5096576533292034 1.8357202431057409 2.412916601854509 2.5270702150562898 2.228072239530301 2.7267502911642585
decision_type=2 2 2 2 2 2 2 2 2 2 2 2 2 2 2 2 2 2 2 2 2 2 2 2 2 2 2 2 2 2
left_child=2 3 7 8 6 13 11 17 25 14 15 -3 22 19 26 -8 -7 -1 -15 -4 -19 24 -10 29 -9 -2 -5 28 -11 -24
right_child=1 4 5 9 -6 16 10 21 12 27 -12 -13 -14 18 -16 -17 -18 20 -20 -21 -22 -23 23 -25 -26 -27 -28 -29 -30 -31
leaf_value=-0.0052852806338184932 0.36660842022805845 1.8688809127807615 0.061490627090310793 0.61625453531742092 3.2542318744659422 0.16288157987830551 1.4549922278949192 0.012665586289363588 0.71289892200912752 0.85409382457464511 2.4192464321851728 1.0405649075959178 0.47899106859561785 0.88567148208618163 0.56859725311729636 2.1201020674272018 0.25062892028767547 0.17669816894840232 0.2495773684941045 0.1064999571725576 0.01920977592945863 0.10636378478371286 0.25732928823147949 0.77098945856094359 0.039234699165282896 0.050865005525427276 0.1322629813240333 0.74932138862148401 1.3458383025842553 0.33151123104540642
leaf_weight=1101556 53 20 8535 26 30 4244 84 18165 35 71 32 148 398 20 945 33 1487 442 199 6252 819 966 1790 24 11066 432 88 186 34 1610
leaf_count=1101556 53 20 8535 26 30 4244 84 18165 35 71 32 148 398 20 945 33 1487 442 199 6252 819 966 1790 24 11066 432 88 186 34 1610
internal_value=0 0.437029 -0.00228751 0.365532 1.60982 0.111973 1.4542 -0.00437877 0.292457 0.600562 1.80939 1.13917 0.318498 0.0838358 0.533509 1.64259 0.185649 -0.00519415 0.307668 0.0805207 0.0744119 0.0253995 0.300031 0.295811 0.0227239 0.0853689 0.242647 0.844581 1.01333 0.292457
internal_weight=0 6039 1.15375e+06 5692 347 20737 317 1.13301e+06 4342 1350 149 168 3857 15006 1059 117 5731 1.10282e+06 219 14787 1261 30197 3459 3424 29231 485 114 291 105 3400
internal_count=1159790 6039 1153751 5692 347 20737 317 1133014 4342 1350 149 168 3857 15006 1059 117 5731 1102817 219 14787 1261 30197 3459 3424 29231 485 114 291 105 3400
is_linear=0
shrinkage=0.03


Tree=10
num_leaves=31
num_cat=0
split_feature=27 31 59 15 31 59 27 31 59 31 19 50 29 50 50 59 47 18 50 59 24 56 59 56 59 72 27 62 27 15
split_gain=1.21277e+06 476350 358228 92835.7 75746.1 54672.5 42430.7 37081.9 20636.4 16617.2 15965.6 14688.3 12637.9 10849.5 10110.7 9482.75 9455.02 8713.87 8650.51 8383.72 8082.26 7486.1 7039.12 7000.08 6843.14 6546.83 5986.65 5758.11 5704.36 5334.1
threshold=2.678345019973412 3.1377922418083304 2.1366682211753969 3.3963673964318324 3.0117732449889734 1.7816235895495793 2.3428684161235451 3.1772486950064507 1.9792566571283829 3.1083227928064345 3.152107836616334 2.5427022657333542 2.5536405397662301 2.1347346384637409 3.1551852097630069 2.4152016028280894 1.8728457725493051 2.9455606157501708 3.1156380106980159 3.1302694701581397 3.0886497359449758 2.5184953105416166 1.7395963643971872 2.5564619861453997 2.710365780614493 1.0000000180025095e-35 2.8702333964299265 1.9493910450099754 2.0025373705737439 2.2334197061870715
decision_type=2 2 2 2 2 2 2 2 2 2 2 2 2 2 2 2 2 2 2 2 2 2 2 2 2 2 2 2 2 2
left_child=2 4 5 7 8 13 15 12 -2 22 17 23 -3 21 19 -4 -15 20 24 26 -9 27 -6 28 -8 -13 -10 -1 -7 -24
right_child=1 3 6 -5 9 11 18 10 14 -11 -12 25 -14 16 -16 -17 -18 -19 -20 -21 -22 -23 29 -25 -26 -27 -28 -29 -30 -31
leaf_value=-0.0053312074395261465 0.12188807156111268 1.8128144874572751 0.09441234798149048 3.1566050071716307 0.12511545234783128 0.030606506974136617 0.19425430874020852 2.1427918356657027 0.31376992575731938 0.8225113703259106 2.285856180442007 0.21972921285746352 1.00934795447298 0.15178508975254523 0.85893475055694579 0.16035725300800144 0.022376479136982607 1.2798136304855345 0.81215522354299374 0.82806299036199393 1.4513133844836006 0.048446691972587164 1.0228586243546527 0.10676716425157941 0.27999634866740042 0.68040198840878219 0.40793776736394172 0.012357023808630194 0.084472069715873482 0.55801746325381962
leaf_weight=1094796 374 20 8632 30 33 19599 3333 32 1725 290 38 175 148 685 36 2540 1968 50 22 33 29 2358 23 1315 1119 33 938 16818 1945 653
leaf_count=1094796 374 20 8632 30 33 19599 3333 32 1725 290 38 175 148 685 36 2540 1968 50 22 33 29 2358 23 1315 1119 33 938 16818 1945 653
internal_value=0 0.494193 -0.00190433 1.56152 0.403971 -0.00386162 0.140669 1.41057 0.330886 0.631199 1.7551 0.0418546 1.105 -0.00480602 0.359497 0.109405 0.0557896 1.57341 0.218738 0.352828 1.81406 -0.00495033 0.552948 0.039571 0.215805 0.292817 0.346939 -0.0050636 0.0354695 0.573833
internal_weight=0 4452 1.15534e+06 347 4105 1.13969e+06 15646 317 3106 999 149 23067 168 1.11662e+06 2732 11172 2653 111 4474 2696 61 1.11397e+06 709 22859 4452 208 2663 1.11161e+06 21544 676
internal_count=1159790 4452 1155338 347 4105 1139692 15646 317 3106 999 149 23067 168 1116625 2732 11172 2653 111 4474 2696 61 1113972 709 22859 4452 208 2663 1111614 21544 676
is_linear=0
shrinkage=0.03


Tree=11
num_leaves=31
num_cat=0
split_feature=27 31 59 31 35 59 31 59 59 11 31 27 29 50 59 50 31 50 38 35 22 26 14 26 59 56 26 50 59 59
split_gain=1.14181e+06 497885 271716 96339.2 88930.3 45286.8 36654.6 25863.4 24210.2 17698.3 15293.9 14840.3 12038 11554.9 9849.68 8888.69 8115.69 8037.41 8019.96 6910.97 6663.4 6627.9 6446.26 6116.16 6539.76 5975.58 5943.18 5884.8 5429.51 5055.19
threshold=2.577355246106765 3.1377922418083304 1.9896100911723658 3.0117732449889734 3.2199469219669004 2.3461489935165996 3.1772486950064507 1.7563232580354531 1.653993607130732 3.0635762592481988 3.1083227928064345 2.8702333964299265 2.4876508626327967 3.0998189051583918 2.6122033424209063 3.1420726211883276 2.1148097222345323 2.3113697069462549 1.0000000180025095e-35 2.9561759160440828 2.4327271725317061 1.049865878107628 3.0166435848608528 1.8007786877235483 2.8455811306564631 2.5761580365394603 2.1133249888845405 2.0453692520731273 3.1302694701581397 3.0786106895951248
decision_type=2 2 2 2 2 2 2 2 2 2 2 2 2 2 2 2 2 2 2 2 2 2 2 2 2 2 2 2 2 2
left_child=2 3 8 7 6 13 12 26 17 18 20 15 -3 16 -7 23 25 -1 -8 -20 -5 -19 -21 -9 -25 -4 -2 -10 -13 -14
right_child=1 4 5 10 -6 14 9 11 27 -11 -12 28 29 -15 -16 -17 -18 21 19 22 -22 -23 -24 24 -26 -27 -28 -29 -30 -31
leaf_value=-0.0049619686780653718 0.29421986395977434 1.7561241703033448 0.058408660406702798 0.58880913276622227 3.1357328249726977 0.1485558589696177 1.0933926567077636 0.6882161309570074 0.019436864874365831 2.4963776415044614 0.79465129540599488 0.40026565256088603 0.62421474027633661 0.77753685253007065 0.23638375606485557 0.84350541343688956 0.12379929137602216 0.19263461483297784 1.4260488224029539 2.3485533971786499 0.37509125958277101 0.01893842756940901 1.6800608245746509 0.2437844062706884 0.33995342088387148 0.13912773046819135 0.036581597396688738 0.07593360203159906 0.81679715025013888 1.0607255956454154
leaf_weight=1101995 100 20 12070 535 28 5059 25 32 27226 22 291 978 30 21 1487 25 2418 331 48 20 174 491 37 2221 892 886 415 1767 29 117
leaf_count=1101995 100 20 12070 535 28 5059 25 32 27226 22 291 978 30 21 1487 25 2418 331 48 20 174 491 37 2221 892 886 415 1767 29 117
internal_value=0 0.411436 -0.00215355 0.344179 1.51468 0.10241 1.37239 0.2872 -0.0041806 1.70947 0.611522 0.311932 1.06559 0.0743056 0.168507 0.280061 0.073345 -0.00489202 1.5763 1.69127 0.536359 0.0888818 1.91462 0.275582 0.271341 0.0639287 0.0866084 0.0228801 0.412261 0.971642
internal_weight=0 6039 1.15375e+06 5692 347 21941 319 4692 1.13181e+06 152 1000 4177 167 15395 6546 3170 15374 1.10282e+06 130 105 709 822 57 3145 3113 12956 515 28993 1007 147
internal_count=1159790 6039 1153751 5692 347 21941 319 4692 1131810 152 1000 4177 167 15395 6546 3170 15374 1102817 130 105 709 822 57 3145 3113 12956 515 28993 1007 147
is_linear=0
shrinkage=0.03


Tree=12
num_leaves=31
num_cat=0
split_feature=27 31 59 31 35 59 27 59 27 27 11 50 25 50 47 50 59 38 56 11 59 26 50 11 9 50 59 26 56 59
split_gain=1.07474e+06 422754 317906 122509 76171.1 50454.8 36443.5 26236.1 22324.6 20300.7 16652.4 13573.7 12160.2 10281 8736.17 7987.83 7850.8 7545.98 7425.77 6881.29 6747.48 6860.58 6623.38 6608.96 8109.46 6231.99 6198.51 7067.22 6149.94 6066.07
threshold=2.678345019973412 3.1772486950064507 2.1458147152274685 3.0998495659606973 3.2199469219669004 1.8013359826124382 2.3428684161235451 2.0198038209208962 3.102424313986182 2.9138323217672815 3.0635762592481988 2.5427022657333542 2.9343856540540219 2.1347346384637409 1.8728457725493051 3.1156380106980159 2.4152016028280894 1.0000000180025095e-35 2.5184953105416166 2.6448249920257658 3.1085885802768658 2.7966096709123316 3.0923983330873717 2.5553229807129241 2.2120541496151054 3.1097161224863199 2.9210329704003786 3.0116240240944814 2.5564619861453997 2.7724161511968588
decision_type=2 2 2 2 2 2 2 2 2 2 2 2 2 2 2 2 2 2 2 2 2 2 2 2 2 2 2 2 2 2
left_child=2 3 5 7 10 13 16 -2 26 25 17 28 19 18 -15 29 -4 -3 -1 -10 21 -11 -13 -19 -25 -9 27 -5 -7 -8
right_child=1 4 6 8 -6 11 15 9 12 20 -12 22 -14 14 -16 -17 -18 23 -20 -21 -22 -23 -24 24 -26 -27 -28 -29 -30 -31
leaf_value=-0.0047387986953443548 0.12035378507641736 1.0605908615112303 0.090368739247160434 0.70043636075381577 3.4768150675296785 0.035559238772660942 0.18827171211766755 0.30300531790943347 1.1635662486336449 0.56910887620782347 2.4214863317663022 0.22524768194818012 0.93933827790347002 0.14411493074572165 0.021721703052312288 0.77696720448407253 0.15072367932101874 1.3039393656594411 0.047589928443485641 1.9139094146815214 0.66185026024127824 0.39384176987144309 0.77586415789344088 2.3020704650878905 1.5974447880959024 0.57804316817940049 0.7669552970286293 0.26836063634072027 0.10344707419046424 0.28280324423899417
leaf_weight=1113580 433 25 8207 87 24 19923 3694 2000 22 279 22 185 99 712 1997 22 2540 35 2446 22 145 719 22 21 49 77 337 56 1278 732
leaf_count=1113580 433 25 8207 87 24 19923 3694 2000 22 279 22 185 99 712 1997 22 2540 35 2446 22 145 719 22 21 49 77 337 56 1278 732
internal_value=0 0.465223 -0.0017927 0.405913 1.90618 -0.00360941 0.134523 0.339599 0.79475 0.369081 1.65818 0.042012 1.12377 -0.00448242 0.05389 0.20674 0.104633 1.52901 -0.00462411 1.53874 0.470623 0.442839 0.283767 1.64053 1.80883 0.313202 0.696729 0.531232 0.0396515 0.203906
internal_weight=0 4452 1.15534e+06 4276 176 1.14014e+06 15195 3653 623 3220 152 21408 143 1.11874e+06 2709 4448 10747 130 1.11603e+06 44 1143 998 207 105 70 2077 480 143 21201 4426
internal_count=1159790 4452 1155338 4276 176 1140143 15195 3653 623 3220 152 21408 143 1118735 2709 4448 10747 130 1116026 44 1143 998 207 105 70 2077 480 143 21201 4426
is_linear=0
shrinkage=0.03


Tree=13
num_leaves=31
num_cat=0
split_feature=27 31 59 31 15 59 59 31 59 31 19 59 29 59 50 50 24 56 27 47 59 56 26 50 27 18 17 50 56 30
split_gain=1.01216e+06 440718 241182 85573 80627.7 31689 30888.2 30334.5 20388.4 19246.8 14193.4 10828 10821.3 9979.78 9654.54 8554.96 7766.96 7597.09 7305.67 6440.02 6125.59 6108.97 6044.97 5701.48 5216.6 4917.73 7181.57 4843.09 4762.79 4735.41
threshold=2.577355246106765 3.1377922418083304 2.0601403238163432 2.945524727048443 3.3963673964318324 2.421662486840209 1.7524818869534833 3.1772486950064507 1.7538977316154287 3.1083227928064345 3.152107836616334 3.0187414527046816 2.5536405397662301 2.2909102834604225 3.0998189051583918 2.2737456827431681 2.7823614727337911 2.8842551890893442 2.0957686700707634 2.424330305613998 2.6570455500032248 2.5865111696942962 1.8007786877235483 2.302394335993339 1.6434002859067014 2.5022210474464219 2.228072239530301 3.1420726211883276 2.5621419815516102 2.412916601854509
decision_type=2 2 2 2 2 2 2 2 2 2 2 2 2 2 2 2 2 2 2 2 2 2 2 2 2 2 2 2 2 2
left_child=2 3 6 8 7 14 15 12 -2 13 16 22 -3 29 18 21 -9 -18 28 -17 -7 24 -10 -8 -1 26 -11 -24 -4 -5
right_child=1 4 5 9 -6 20 23 10 11 25 -12 -13 -14 -15 -16 19 17 -19 -20 -21 -22 -23 27 -25 -26 -27 -28 -29 -30 -31
leaf_value=-0.0049303212643654528 0.075696639181879619 1.6632663488388062 0.063081262426545312 0.56388804509089541 2.9118574538230897 0.15461399153082755 0.02925294688984327 1.8787100050999568 0.6574766515067646 0.76288939731461658 2.0967142920745045 0.43044791767944646 0.91978462201517985 0.50531300763815401 0.69707406147666595 0.15719891639338696 1.1031022772789001 1.7255585592269898 0.12054139265382036 0.011976359035037871 0.23566949439771248 0.06008702377397071 0.25820919581204926 0.13466137993926874 0.0086679931232575766 0.66159041531115159 1.3388410009278191 0.6858742028474808 0.1398307219351394 0.10307518898594109
leaf_weight=1085336 484 20 9228 26 30 3657 21427 26 35 70 38 398 148 945 23 510 60 25 3310 596 1089 1315 3401 472 25998 194 27 24 790 88
leaf_count=1085336 484 20 9228 26 30 3657 21427 26 35 70 38 398 148 945 23 510 60 25 3310 596 1089 1315 3401 472 25998 194 27 24 790 88
internal_value=0 0.387373 -0.0020276 0.324095 1.42535 0.106629 -0.00375908 1.28467 0.259235 0.532705 1.59629 0.28226 1.00829 0.473326 0.0829604 -0.00445285 1.42497 1.28618 0.0819007 0.0789416 0.173213 -0.00453574 0.265214 0.0315249 -0.00461221 0.748796 0.923206 0.261206 0.0691336 0.208173
internal_weight=0 6039 1.15375e+06 5692 347 18097 1.13565e+06 317 4342 1350 149 3858 168 1059 13351 1.11376e+06 111 85 13328 1106 4746 1.11265e+06 3460 21899 1.11133e+06 291 97 3425 10018 114
internal_count=1159790 6039 1153751 5692 347 18097 1135654 317 4342 1350 149 3858 168 1059 13351 1113755 111 85 13328 1106 4746 1112649 3460 21899 1111334 291 97 3425 10018 114
is_linear=0
shrinkage=0.03


Tree=14
num_leaves=31
num_cat=0
split_feature=27 31 59 31 35 59 59 59 27 27 11 50 25 50 18 31 38 56 50 35 11 14 59 26 15 50 56 50 62 26
split_gain=953128 374893 281875 108452 70172.4 47076.5 30724 23534.3 20155.3 17831.6 15154.9 12262.6 11087 9562.05 8172.24 7937.37 6903.41 6843.07 6551.23 6498.57 6406.8 6367.28 6237.95 6590.74 6211.04 6078.1 5870.28 5691.93 5660.66 5654.64
threshold=2.678345019973412 3.1772486950064507 2.1583089417679586 3.0998495659606973 3.2199469219669004 1.8123106410151213 2.5166232060687688 2.0506385718572617 3.102424313986182 2.9138323217672815 3.0635762592481988 2.5427022657333542 2.9343856540540219 2.1306697378316715 0.99566774125624546 2.3011619655696571 1.0000000180025095e-35 2.503694159409485 3.1156380106980159 2.9561759160440828 2.6448249920257658 3.0166435848608528 3.1085885802768658 2.7966096709123316 3.228548311422399 3.0923983330873717 2.5027936866755831 3.1097161224863199 2.1447738867258441 2.1534773049367182
decision_type=2 2 2 2 2 2 2 2 2 2 2 2 2 2 2 2 2 2 2 2 2 2 2 2 2 2 2 2 2 2
left_child=2 3 5 7 10 13 15 29 24 27 16 26 20 17 -15 -4 -3 28 -8 -18 -10 -21 23 -11 -5 -13 -7 -9 -1 -2
right_child=1 4 6 8 -6 11 18 9 12 22 -12 25 -14 14 -16 -17 19 -19 -20 21 -22 -23 -24 -25 -26 -27 -28 -29 -30 -31
leaf_value=-0.0046577467775350068 0.31599045063510084 0.98575991477966307 0.091589732496369938 0.67747471976377394 3.3025732168555262 0.034193795158118226 0.20027559494927519 0.28586378142829172 1.0949627819928254 0.54072221222326911 2.2851944134452125 0.21342028814632641 0.88463050928982823 0.13423981955004963 0.01963440327916555 0.15813922900746219 1.2832732695341109 0.042788315267170016 0.7316382585253034 2.1883099279403688 1.8189741448922589 1.523924780922967 0.62726907388095199 0.36871402084309302 0.1374293564558029 0.74014673043381074 0.094238954577819598 0.54874619411183634 0.018327399075696731 0.059027548294899784
leaf_weight=1104359 99 25 8880 460 24 19265 3733 1987 22 278 22 190 99 771 2046 1971 48 2766 21 20 22 37 145 719 20 22 1586 77 9728 348
leaf_count=1104359 99 25 8880 460 24 19265 3733 1987 22 278 22 190 99 771 2046 1971 48 2766 21 20 22 37 145 719 20 22 1586 77 9728 348
internal_value=0 0.438111 -0.00168822 0.382259 1.79505 -0.00336492 0.129271 0.319866 0.748109 0.348298 1.55702 0.0410692 1.06073 -0.0042008 0.0510014 0.103678 1.43379 -0.00434004 0.203248 1.54046 1.45697 1.75704 0.443415 0.416676 0.654973 0.268081 0.038761 0.295671 -0.00445704 0.115939
internal_weight=0 4452 1.15534e+06 4276 176 1.14073e+06 14605 3653 623 3206 152 21063 143 1.11967e+06 2817 10851 130 1.11685e+06 3754 105 44 57 1142 997 480 212 20851 2064 1.11409e+06 447
internal_count=1159790 4452 1155338 4276 176 1140733 14605 3653 623 3206 152 21063 143 1119670 2817 10851 130 1116853 3754 105 44 57 1142 997 480 212 20851 2064 1114087 447
is_linear=0
shrinkage=0.03


Tree=15
num_leaves=31
num_cat=0
split_feature=27 31 59 31 15 59 31 59 50 35 31 27 50 29 15 59 50 56 27 42 50 22 30 50 26 59 31 59 18 17
split_gain=897693 390075 214132 76284.4 72995.5 41714.4 26467.2 20250.6 14537.7 13075.7 12100 11811.2 10569.2 9766.15 9655.87 9440.56 7826.46 6731.27 6727.25 6167.56 5971.88 5747.03 5743.98 5819.31 5356.31 5248.05 4831.05 4677.1 4592.64 7624.14
threshold=2.577355246106765 3.1377922418083304 1.9372242020025274 3.0117732449889734 3.3963673964318324 2.3073705186525184 3.1772486950064507 1.7538977316154287 1.487819708374539 3.15931242731943 3.1083227928064345 2.8240076898439948 2.6011754148439947 2.5536405397662301 3.1492097285216576 2.5714857855706827 2.3113697069462549 2.5761580365394603 1.6767441660156359 1.7528134216667672 3.1551852097630069 2.4327271725317061 1.8465360068640242 3.1156380106980159 2.1133249888845405 3.1302694701581397 2.1052388420720409 2.8455811306564631 2.4835165598127378 2.228072239530301
decision_type=2 2 2 2 2 2 2 2 2 2 2 2 2 2 2 2 2 2 2 2 2 2 2 2 2 2 2 2 2 2
left_child=2 3 8 7 6 12 13 24 -1 14 21 22 17 -3 -8 -7 -10 26 -14 -18 25 -5 -9 27 -2 -13 -4 -24 29 -12
right_child=1 4 5 10 -6 15 9 11 16 -11 28 20 18 -15 -16 -17 19 -19 -20 -21 -22 -23 23 -25 -26 -27 -28 -29 -30 -31
leaf_value=-0.0045636778301799911 0.27393626819998024 1.5715380227565765 0.04513105677579908 0.52503033637721963 2.7557347074449061 0.12345480318810201 1.1807548826081411 0.61356043348441258 0.010312483963316204 2.035928199291229 0.7223934248312196 0.33270821474365819 0.76565796375274653 0.86523385511862261 1.7863931543176823 0.19939630809187889 0.16125009132005894 0.12505034096291806 0.20503713107288138 0.019294603308269015 0.80999177398681643 0.32655133847018769 0.20907186373883732 0.63337645313956514 0.029291716012833775 0.74088369665474718 0.094939119275119693 0.29664743987920278 0.62631496010876408 1.3554414711309515
leaf_weight=1079533 100 20 14069 535 30 5594 84 37 47999 32 67 1264 21 148 33 2000 558 1198 233 544 25 174 2039 33 414 29 2002 751 201 23
leaf_count=1079533 100 20 14069 535 30 5594 84 37 47999 32 67 1264 21 148 33 2000 558 1198 233 544 25 174 2039 33 414 29 2002 751 201 23
internal_value=0 0.364812 -0.00190951 0.305281 1.34133 0.0847266 1.20747 0.254578 -0.00383754 1.49855 0.543176 0.276439 0.0592752 0.949318 1.35158 0.143455 0.0121273 0.0564495 0.251388 0.0911741 0.350742 0.47632 0.242197 0.23733 0.0768879 0.341863 0.0513358 0.232645 0.706065 0.884172
internal_weight=0 6039 1.15375e+06 5692 347 25117 317 4692 1.12863e+06 149 1000 4178 17523 168 117 7594 49101 17269 254 1102 1318 709 2860 2823 514 1293 16071 2790 291 90
internal_count=1159790 6039 1153751 5692 347 25117 317 4692 1128634 149 1000 4178 17523 168 117 7594 49101 17269 254 1102 1318 709 2860 2823 514 1293 16071 2790 291 90
is_linear=0
shrinkage=0.03


Tree=16
num_leaves=31
num_cat=0
split_feature=59 27 59 27 15 48 31 59 31 27 26 19 59 11 9 50 59 18 50 14 62 53 50 38 56 59 26 23 31 35
split_gain=846225 432262 146237 105664 95794.9 34585.8 31663.5 18907.9 15817.9 15412.6 16373.2 14325.2 12336.1 10899.2 24532.8 10804.9 8390.04 7694.25 6900.57 6746.65 9472.25 6205.5 5286.53 5178.48 4940.92 4749.51 6388.9 4598.72 4429.62 4125.85
threshold=2.4683254992909114 3.102424313986182 1.8984311491159194 2.9138323217672815 3.2748733330670157 2.1723502798641312 2.4049370429036965 2.7536633026604704 3.0952097069287938 2.23545334461217 1.7288634807397889 2.9124515871954437 2.2236601314640008 2.5932195792513038 2.2120541496151054 3.0923983330873717 1.0000000180025095e-35 2.9248467402842206 3.1097161224863199 1.7199458468135815 3.0963343657230795 2.9952345235773943 2.7554459933217648 1.0000000180025095e-35 2.5761580365394603 3.1085885802768658 2.7966096709123316 1.7338875167761334 2.544367319434945 2.9319543707283162
decision_type=2 2 2 2 2 2 2 2 2 2 2 2 2 2 2 2 2 2 2 2 2 2 2 2 2 2 2 2 2 2
left_child=2 3 9 7 11 -6 12 23 25 16 28 29 15 27 -15 24 22 -16 -9 20 -8 -20 -1 -2 -4 26 -5 -13 -11 -3
right_child=1 4 6 8 5 -7 19 18 -10 10 -12 13 -14 14 17 -17 -18 -19 21 -21 -22 -23 -24 -25 -26 -27 -28 -29 -30 -31
leaf_value=-0.0043477806074315182 0.15724036187380144 0.68529366800979685 0.041851185880624024 0.54825489166028363 1.8837101520810808 3.6268714427947994 0.25284971829276537 0.27140555088839879 0.61475491891116707 0.1946762691869065 0.03676166606927344 1.4070389620463053 0.096074571867200184 2.4016287355837616 1.6266220844813755 0.68300684154033653 0.014016224931787153 1.0363748300593831 0.37616839871406549 0.15205192982207097 0.88787648592482904 0.96302891433238968 0.24107157015394939 0.24606682326686991 0.11012015509793138 0.58472052627994164 0.3409042575035654 0.93558231747150411 0.4502922734806809 1.0904998181547436
leaf_weight=1099945 3670 49 15666 170 21 20 541 1968 555 268 3478 27 6340 23 35 24 22901 46 50 1216 22 24 79 704 1016 124 627 60 79 42
leaf_count=1099945 3670 49 15666 170 21 20 541 1968 555 268 3478 27 6340 23 35 24 22901 46 50 1216 22 24 79 704 1016 124 627 60 79 42
internal_value=0 0.303401 -0.00216437 0.259376 1.37908 2.73403 0.0698589 0.206725 0.488242 -0.00375122 0.0563669 1.18208 0.0604455 1.32967 1.53695 0.0469242 -0.003956 1.29142 0.2821 0.191804 0.277664 0.566502 -0.00433016 0.171537 0.046009 0.412004 0.385132 1.0819 0.252871 0.872312
internal_weight=0 8215 1.15158e+06 7892 323 41 24825 6416 1476 1.12675e+06 3825 282 23046 191 104 16706 1.12292e+06 81 2042 1779 563 74 1.10002e+06 4374 16682 921 797 87 347 91
internal_count=1159790 8215 1151575 7892 323 41 24825 6416 1476 1126750 3825 282 23046 191 104 16706 1122925 81 2042 1779 563 74 1100024 4374 16682 921 797 87 347 91
is_linear=0
shrinkage=0.03


Tree=17
num_leaves=31
num_cat=0
split_feature=27 31 59 31 35 59 31 59 31 11 50 59 50 29 59 59 50 31 38 35 14 14 30 26 59 56 53 11 18 17
split_gain=797148 351963 180704 71974.6 65439.8 34232 25049.9 16564.8 15503.4 13482.4 13034.1 10244.2 9320 9011.11 8049.92 7684.31 6950.27 6202.27 6004.05 5761.19 6218.56 5605.36 5188.96 5138.27 4689.25 4652.08 4604.68 4590 4318.17 5265.26
threshold=2.549252812551964 3.1377922418083304 1.9372242020025274 2.945524727048443 3.2199469219669004 2.3073705186525184 3.1772486950064507 1.7538977316154287 3.1083227928064345 3.0635762592481988 1.487819708374539 2.9441016831542552 3.0998189051583918 2.4876508626327967 2.2909102834604225 2.5714857855706827 2.3113697069462549 2.0908590799904831 1.0000000180025095e-35 2.9561759160440828 3.0166435848608528 1.3778111216368794 1.8465360068640242 1.7401566144773108 3.0786106895951248 2.5761580365394603 3.1302218206808328 2.8713947721128181 2.5270702150562898 2.228072239530301
decision_type=2 2 2 2 2 2 2 2 2 2 2 2 2 2 2 2 2 2 2 2 2 2 2 2 2 2 2 2 2 2
left_child=2 3 10 7 6 12 13 23 14 18 -1 22 17 -3 -5 -7 -12 25 -8 -20 -21 -18 -9 -2 -15 -4 -16 -26 29 -10
right_child=1 4 5 8 -6 15 9 11 28 -11 16 -13 -14 24 26 -17 21 -19 19 20 -22 -23 -24 -25 27 -27 -28 -29 -30 -31
leaf_value=-0.0043072677621005225 0.33601512430077896 1.4837087337970734 0.043014889052364461 0.18160574971257071 2.6525215019498551 0.11515731194404422 0.88448815011978144 0.52483066246790044 0.67378001856132286 2.1053663531216706 0.0098027346590525387 0.35081991820190472 0.67253826271403916 0.47036614923179149 0.43733511544431641 0.18649302733314538 0.1554438651747502 0.09841455818085372 1.1596392861008644 2.0319213094711301 1.3753414442732528 0.019487197727837104 0.21999966034002669 0.039961430648125275 0.8003570112931101 0.11171765578302939 0.84218356682704043 1.2812488421526822 0.58015062954156627 1.1277815194866234
leaf_weight=1079513 59 20 14009 114 28 5510 25 51 71 22 47942 691 22 30 919 1804 537 2500 48 20 37 555 3454 499 95 947 26 22 186 34
leaf_count=1079513 59 20 14009 114 28 5510 25 51 71 22 47942 691 22 30 919 1804 537 2500 48 20 37 555 3454 499 95 947 26 22 186 34
internal_value=0 0.332557 -0.0018601 0.279723 1.26195 0.0782581 1.13989 0.224827 0.473038 1.41855 -0.00362014 0.245248 0.055454 0.886267 0.419746 0.132752 0.0115074 0.0546762 1.30231 1.4018 1.60572 0.086345 0.224435 0.0712646 0.804982 0.0473651 0.448474 0.890781 0.666979 0.82079
internal_weight=0 6451 1.15334e+06 6104 347 24792 319 4754 1350 152 1.12855e+06 4196 17478 167 1059 7314 49034 17456 130 105 57 1092 3505 558 147 14956 945 117 291 105
internal_count=1159790 6451 1153339 6104 347 24792 319 4754 1350 152 1128547 4196 17478 167 1059 7314 49034 17456 130 105 57 1092 3505 558 147 14956 945 117 291 105
is_linear=0
shrinkage=0.03


Tree=18
num_leaves=31
num_cat=0
split_feature=27 31 59 31 15 59 27 59 27 59 50 25 38 50 26 27 26 24 11 50 50 29 56 15 11 50 50 21 62 30
split_gain=751407 295212 221698 84981.7 58671.8 34262.6 26633.4 19746.9 16123 14225.6 10200.1 9434.42 8000.71 8276.51 9102.95 7460.11 9452.55 7339.13 7191.9 10242 6734.94 6523.78 6423.19 5958.66 5723.76 5614.25 5612.11 5536.29 5904.08 6791.38
threshold=2.678345019973412 3.1772486950064507 2.1366682211753969 3.0998495659606973 3.2748733330670157 1.7715867292338767 2.3428684161235451 3.0786106895951248 3.102424313986182 1.9596904371043615 2.4495431737579829 2.9343856540540219 1.0000000180025095e-35 3.1097161224863199 2.7966096709123316 2.216007741360682 1.6113351413512975 2.6560064166151323 2.5177620749773815 3.0165251976604135 3.1156380106980159 3.0928666220534606 2.551716861058698 3.228548311422399 2.6448249920257658 2.7554459933217648 2.6189041962198796 1.9668440248221191 2.8841393810257387 2.5032597911177259
decision_type=2 2 2 2 2 2 2 2 2 2 2 2 2 2 2 2 2 2 2 2 2 2 2 2 2 2 2 2 2 2
left_child=2 3 5 7 17 15 22 9 23 -2 -7 24 -11 27 -15 25 -17 -3 -19 21 -8 -20 26 -5 -10 -1 -4 28 -14 -30
right_child=1 4 6 8 -6 10 20 -9 11 12 -12 -13 13 14 -16 16 -18 18 19 -21 -22 -23 -24 -25 -26 -27 -28 -29 29 -31
leaf_value=-0.0039545531233425579 0.087671228534904597 1.8028985530679875 0.075506466854151341 0.60202598647449335 2.6197412923666143 0.030207848802796766 0.1699255492700944 0.46017531126737593 0.96624329762025318 0.23247271351737628 0.20286765401184451 0.78044598715097613 0.34132462454789403 1.1878282294954572 0.37887503385543819 0.23419887924514396 0.02771618519473076 0.86712713354512261 1.5300048037937708 1.8560849629915677 0.69612118916078036 0.84058195662498469 0.15738648929405583 0.073066509246826172 1.6505736016143451 0.24131509078400473 0.23680552709283251 0.24186982569014112 1.0917788999676703 0.45601437527325844
leaf_weight=1112277 393 22 9947 460 39 23649 4452 496 22 1464 312 99 667 21 31 213 3157 38 21 26 22 30 1027 20 22 84 198 499 20 62
leaf_count=1112277 393 22 9947 460 39 23649 4452 496 22 1464 312 99 667 21 31 213 3157 38 21 26 22 30 1027 20 22 84 198 499 20 62
internal_value=0 0.388997 -0.00149897 0.339435 1.59313 -0.00303874 0.110661 0.284204 0.663286 0.256557 0.0324561 0.942896 0.28057 0.334734 0.705568 -0.00380101 0.0407669 1.30088 1.20484 1.3715 0.172513 1.12446 0.0858921 0.579986 1.30841 -0.00393603 0.0786545 0.319283 0.370857 0.611079
internal_weight=0 4452 1.15534e+06 4276 176 1.13969e+06 15646 3653 623 3157 23961 143 2764 1300 52 1.11573e+06 3370 137 115 77 4474 51 11172 480 44 1.11236e+06 10145 1248 749 82
internal_count=1159790 4452 1155338 4276 176 1139692 15646 3653 623 3157 23961 143 2764 1300 52 1115731 3370 137 115 77 4474 51 11172 480 44 1112361 10145 1248 749 82
is_linear=0
shrinkage=0.03


Tree=19
num_leaves=31
num_cat=0
split_feature=59 27 59 15 27 27 48 27 26 31 31 59 59 31 59 50 14 62 50 38 24 61 11 50 29 26 59 44 50 31
split_gain=709873 321821 161187 83039 67616.5 37303.5 32019.8 14189.5 14371.1 13763.1 13111.8 11605.2 10787.9 9987.12 9439.64 8278.77 7585.7 8601.17 7348.2 7165.97 6492.65 5835 5500.7 9636.7 6138.22 4875.26 5994.48 4850.68 4523.4 4360.98
threshold=2.5714857855706827 3.102424313986182 1.9320845221647724 3.2748733330670157 2.9753164593178529 2.3065186593146838 2.1723502798641312 2.23545334461217 1.7288634807397889 2.7291776185177499 3.1772486950064507 2.9441016831542552 2.2344599428118221 3.1083227928064345 1.0000000180025095e-35 3.0637185195098771 1.7199458468135815 2.7754797453573921 2.2266108144587955 1.0000000180025095e-35 2.6560064166151323 3.0936142017171013 2.5177620749773815 3.0165251976604135 3.0928666220534606 2.9015348215204697 3.0786106895951248 3.0668955830824367 2.7554459933217648 2.945524727048443
decision_type=2 2 2 2 2 2 2 2 2 2 2 2 2 2 2 2 2 2 2 2 2 2 2 2 2 2 2 2 2 2
left_child=2 4 7 10 11 12 -5 14 -9 -7 18 19 15 25 28 -4 17 -11 -3 -2 -12 -15 -22 24 -24 -6 -27 -13 -1 -18
right_child=1 3 5 6 13 9 -8 8 -10 16 20 27 -14 21 -16 -17 29 -19 -20 -21 22 -23 23 -25 -26 26 -28 -29 -30 -31
leaf_value=-0.0039846501181133639 0.18394669189982302 1.3828306400775907 0.042850082736210077 1.6945152214595249 0.57408185048017668 0.1334584887891937 3.3717647838592528 0.23617295407128147 0.035530947013500416 0.38142467801438434 1.7488116164640948 0.3193637595585414 0.090961922497707154 0.58799722078770511 0.014646705064359304 0.6124687412769898 0.16787248151945891 1.0480532885491847 0.77490048964161518 0.29763225706506058 0.8852800851093755 1.0299544047117233 1.4841046687534876 1.8004023929742665 0.8153644937872887 0.30175120921052517 0.48190375796386176 0.79319625020027162 0.22303090644410892 0.36082618429595115
leaf_weight=1099945 3266 21 14514 21 167 3338 20 353 3576 135 22 700 6220 259 25076 23 344 20 121 589 37 30 21 26 30 329 336 20 79 152
leaf_count=1099945 3266 21 14514 21 167 3338 20 353 3576 135 22 700 6220 259 25076 23 344 20 121 589 37 30 21 26 30 329 336 20 79 152
internal_value=0 0.325061 -0.00169465 1.25232 0.27313 0.0740454 2.51269 -0.00335471 0.0535576 0.158068 1.06644 0.221966 0.0578983 0.481942 -0.00355346 0.0437513 0.284251 0.467441 0.864806 0.201317 1.27696 0.633875 1.1859 1.33036 1.09073 0.429168 0.392776 0.332526 -0.00396835 0.227003
internal_weight=0 6015 1.15378e+06 319 5696 24746 41 1.12903e+06 3929 3989 278 4575 20757 1121 1.1251e+06 14537 651 155 142 3855 136 289 114 77 51 832 665 720 1.10002e+06 496
internal_count=1159790 6015 1153775 319 5696 24746 41 1129029 3929 3989 278 4575 20757 1121 1125100 14537 651 155 142 3855 136 289 114 77 51 832 665 720 1100024 496
is_linear=0
shrinkage=0.03


Tree=20
num_leaves=31
num_cat=0
split_feature=59 27 59 27 15 48 31 59 31 15 27 26 50 57 59 11 50 50 31 14 61 56 50 50 50 50 19 56 30 26
split_gain=667990 340212 114772 83408.4 76830.7 30127.4 26624.4 15619.8 12498.6 11606.7 11358.8 12429.9 9391.04 9297.49 8217.88 7130.62 13696.4 7259.62 7126.03 7468.61 8595.8 6982.53 6193.72 6062.38 5541.04 5079.63 4897.1 4576.95 4200.45 4180.97
threshold=2.4683254992909114 3.102424313986182 1.8778336717175621 2.9138323217672815 3.2748733330670157 2.1723502798641312 2.3061111613397696 2.7724161511968588 3.0952097069287938 2.8940338305304345 2.216007741360682 1.5932205815550835 2.5462785244475952 2.1826208447474302 2.2172168398726231 2.5932195792513038 3.0165251976604135 2.5523123143511648 2.7291776185177499 1.7199458468135815 2.4909639905229457 2.5865111696942962 3.1097161224863199 2.7554459933217648 3.1420726211883276 1.3668538317356371 0.97101835509027423 2.5761580365394603 2.237883379835647 2.7154130571419652
decision_type=2 2 2 2 2 2 2 2 2 2 2 2 2 2 2 2 2 2 2 2 2 2 2 2 2 2 2 2 2 2
left_child=2 3 10 7 9 -6 12 22 29 -3 21 -12 14 -11 -4 -15 17 -17 28 20 -20 23 27 25 -9 -1 -14 -2 -8 -5
right_child=1 4 6 8 5 -7 18 24 -10 13 11 -13 26 15 -16 16 -18 -19 19 -21 -22 -23 -24 -25 -26 -27 -28 -29 -30 -31
leaf_value=-0.0041562035500869133 0.13970167991487828 0.74160692851245402 0.037209654945973891 0.537865451035489 1.6436797809600829 3.2706120014190674 0.19942654514337943 0.25199312359374376 0.54630286473529155 1.7825322260856626 0.24779519767432306 0.033004799087935223 0.65569729532514298 0.9112348645081122 0.078276628627657233 1.471215165578402 1.9208199517623237 0.83620338165000896 0.34627117286221337 0.18214565033285091 1.0253865631520749 0.060049060508527749 0.57003510095179077 0.24394019785496729 0.73098426948894157 0.0047004629429578167 0.18127821044572467 0.22992083782676992 0.10405832785270135 0.34229352066733115
leaf_weight=1057609 3971 80 17718 112 21 20 547 1811 555 20 259 3802 21 90 5828 26 23 43 104 325 20 1551 32 89 22 61681 290 580 1731 809
leaf_count=1057609 3971 80 17718 112 21 20 547 1811 555 20 259 3802 21 90 5828 26 23 43 104 325 20 1551 32 89 22 61681 290 580 1731 809
internal_value=0 0.269562 -0.00192298 0.230505 1.22386 2.43731 0.059688 0.183727 0.433844 1.04744 -0.00337887 0.0467036 0.0495375 1.16856 0.0473744 1.10109 1.28682 1.07548 0.148489 0.257722 0.455806 -0.00356031 0.154124 -0.00364845 0.257742 -0.00366814 0.213313 0.1512 0.126958 0.366076
internal_weight=0 8215 1.15158e+06 7892 323 41 26584 6416 1476 282 1.12499e+06 4061 23857 202 23546 182 92 69 2727 449 124 1.12093e+06 4583 1.11938e+06 1833 1.11929e+06 311 4551 2278 921
internal_count=1159790 8215 1151575 7892 323 41 26584 6416 1476 282 1124991 4061 23857 202 23546 182 92 69 2727 449 124 1120930 4583 1119379 1833 1119290 311 4551 2278 921
is_linear=0
shrinkage=0.03


Tree=21
num_leaves=31
num_cat=0
split_feature=27 31 59 31 35 59 31 22 31 11 50 50 50 29 31 59 59 50 59 35 23 62 52 42 30 56 57 24 53 56
split_gain=630282 286499 127378 64178.8 53659.2 23080.2 18927.6 16552.2 12395.6 11479.5 10083.5 8716.29 8259.65 7830.37 7256.18 6397.06 6384.22 6074.41 5984.88 5820.56 5484.37 5123.51 8869.92 5120.47 4843.32 4271.75 4211.22 6036.94 4199.7 4156.66
threshold=2.493417819417628 3.1377922418083304 1.9282905852274392 2.945524727048443 3.2199469219669004 2.2465827391348197 3.1772486950064507 2.234973120977235 3.1083227928064345 3.0635762592481988 1.4092587776543135 3.0978275490026284 3.1420726211883276 2.4876508626327967 2.7291776185177499 2.3969303441442031 2.3528949392868603 2.3113697069462549 2.5362856041374733 3.15931242731943 2.7300868214414202 3.0963343657230795 1.6636705693532514 1.7528134216667672 2.3030294028720086 2.5063224294037361 2.5885370501481653 3.051004664996706 3.1302218206808328 2.5063224294037361
decision_type=2 2 2 2 2 2 2 2 2 2 2 2 2 2 2 2 2 2 2 2 2 2 2 2 2 2 2 2 2 2
left_child=2 3 10 7 6 11 13 12 16 19 -1 25 14 -3 -2 -9 24 29 -7 20 -8 -16 -23 -19 -5 -4 -15 -28 -18 -12
right_child=1 4 5 8 -6 18 9 15 -10 -11 17 -13 -14 26 21 -17 28 23 -20 -21 -22 22 -24 -25 -26 -27 27 -29 -30 -31
leaf_value=-0.0039258626987771191 0.18934625635772664 1.3437600835561752 0.038464987835192109 0.59218968101910174 2.3770241980893272 0.091577381608681729 0.9568138932784398 0.064446010145166363 0.59416511900646174 1.8832731921022587 0.0060721560953986451 0.6698802763223648 0.66739026198516027 0.38003627708980015 0.26280826078680153 0.20072991910746152 0.38971789141132007 0.14609943142559279 0.1515914026726336 1.6130419571399688 1.5060318925380705 1.0598347220420838 0.21948807202207926 0.013663325871617305 0.094261947002054911 0.094648673966299404 1.0836708916687383 0.63403185615172741 0.77644177762648225 0.056775379302824384
leaf_weight=1066257 2786 20 14456 21 28 6931 90 1049 291 22 58963 20 37 28 1328 440 904 527 1907 20 20 20 26 524 108 1330 41 78 26 1492
leaf_count=1066257 2786 20 14456 21 28 6931 90 1049 291 22 58963 20 37 28 1328 440 904 527 1907 20 20 20 26 524 108 1330 41 78 26 1492
internal_value=0 0.276303 -0.00177016 0.234801 1.11782 0.0657011 1.0073 0.190652 0.420749 1.24952 -0.00324455 0.0439915 0.22114 0.786834 0.217171 0.104718 0.373096 0.00856657 0.104527 1.14227 1.05667 0.27359 0.584856 0.0800704 0.17532 0.0431986 0.711061 0.78895 0.40053 0.00732349
internal_weight=0 7383 1.15241e+06 7036 347 24644 319 5686 1350 152 1.12776e+06 15806 4197 167 4160 1489 1059 61506 8838 130 110 1374 46 1051 129 15786 147 119 930 60455
internal_count=1159790 7383 1152407 7036 347 24644 319 5686 1350 152 1127763 15806 4197 167 4160 1489 1059 61506 8838 130 110 1374 46 1051 129 15786 147 119 930 60455
is_linear=0
shrinkage=0.03


Tree=22
num_leaves=31
num_cat=0
split_feature=59 27 59 15 27 27 48 50 31 31 59 50 50 31 59 14 62 38 50 24 30 61 56 48 57 23 26 59 22 50
split_gain=593333 268823 134319 70773.8 56619.6 29682.1 28006.6 13799.9 10851.1 10583.8 10239.6 9439.43 8523.37 8321.7 7881.38 6713.66 7326.58 6472.52 6465.41 5800.91 5627.02 5500.25 5452.72 5374.3 5085.66 7451 4515.18 5583.93 4442.47 4399.63
threshold=2.5714857855706827 3.102424313986182 1.9659107029734237 3.2748733330670157 2.9753164593178529 2.3428684161235451 2.1723502798641312 1.6767441660156359 3.1772486950064507 2.7291776185177499 2.9441016831542552 2.6189041962198796 2.5427022657333542 3.1083227928064345 2.2344599428118221 1.7199458468135815 2.7754797453573921 1.0000000180025095e-35 2.2266108144587955 2.6560064166151323 1.7401566144773108 3.0936142017171013 2.5790311147672398 2.1723502798641312 2.9826358275845983 2.2494377961022667 2.9015348215204697 3.0786106895951248 1.0000000180025095e-35 2.0730998416848174
decision_type=2 2 2 2 2 2 2 2 2 2 2 2 2 2 2 2 2 2 2 2 2 2 2 2 2 2 2 2 2 2
left_child=2 4 7 8 10 11 -5 22 18 -7 17 14 28 26 -4 16 -11 -2 -3 -10 -13 -15 -1 -14 -21 -26 -6 -28 29 -9
right_child=1 3 5 6 13 9 -8 12 19 15 -12 20 23 21 -16 -17 -18 -19 -20 24 -22 -23 -24 -25 25 -27 27 -29 -30 -31
leaf_value=-0.0036100326869814513 0.16699669891807539 1.2755365160533361 0.040108325854694531 1.543043701648712 0.53208543919874518 0.12713853096647951 3.1116680159568784 0.026902565591300085 1.6105751151388341 0.35576057057489047 0.30675253820419307 0.72159932059049603 0.24896738270378629 0.53494437080322543 0.080814612280168605 0.20839433018899992 0.97191791456937782 0.27504159448880239 0.70529188079282268 0.80595879873074583 0.19715201205060143 0.96403699016571032 0.053589035530532125 0.037449025877765101 0.96305375499384738 1.5706913937628268 0.26975111159181797 0.44362508558801239 0.0095460258242911732 0.095637456896695713
leaf_weight=1101076 3266 21 12583 21 167 2738 20 4679 22 132 720 20 230 259 6488 486 20 589 121 40 232 30 1502 204 42 32 329 336 22364 1021
leaf_count=1101076 3266 21 12583 21 167 2738 20 4679 22 132 720 20 230 259 6488 486 20 589 121 40 232 30 1502 204 42 32 329 336 22364 1021
internal_value=0 0.297183 -0.00154931 1.14466 0.249721 0.0707063 2.30823 -0.00299937 0.97305 0.15278 0.202901 0.056367 0.0176122 0.440799 0.0539567 0.262819 0.436834 0.183505 0.789624 1.16457 0.238775 0.579487 -0.00353211 0.149544 1.0785 1.22582 0.392625 0.357603 0.0155719 0.0392146
internal_weight=0 6015 1.15378e+06 319 5696 22699 41 1.13108e+06 278 3376 4575 19323 28498 1121 19071 638 152 3855 142 136 252 289 1.10258e+06 434 114 74 832 665 28064 5700
internal_count=1159790 6015 1153775 319 5696 22699 41 1131076 278 3376 4575 19323 28498 1121 19071 638 152 3855 142 136 252 289 1102578 434 114 74 832 665 28064 5700
is_linear=0
shrinkage=0.03


Tree=23
num_leaves=31
num_cat=0
split_feature=27 31 59 31 35 59 31 22 31 11 50 50 50 29 31 56 59 59 35 50 23 47 62 52 30 56 50 26 61 26
split_gain=559914 253665 112874 56993.5 48055 22031.9 16428.3 14861.2 10940.2 10506.1 8009.37 7991.05 7705.62 7326.9 6395.98 5883.16 5659 5637.16 5489.29 5318.79 4981.31 4783.88 4708.51 8119.69 4470.61 4391.98 4297.14 4134.71 5794.84 4352.78
threshold=2.493417819417628 3.1377922418083304 1.901494680324326 2.945524727048443 3.2199469219669004 2.2465827391348197 3.1772486950064507 2.234973120977235 3.1083227928064345 3.0635762592481988 1.3668538317356371 3.0978275490026284 3.1420726211883276 2.4876508626327967 2.7291776185177499 2.5403188997908241 2.3969303441442031 2.3528949392868603 3.15931242731943 2.3113697069462549 2.7300868214414202 2.424330305613998 3.0963343657230795 1.6636705693532514 2.3030294028720086 2.5761580365394603 2.7871215442628663 2.822894323773399 2.9385387061188224 3.0951942840120559
decision_type=2 2 2 2 2 2 2 2 2 2 2 2 2 2 2 2 2 2 2 2 2 2 2 2 2 2 2 2 2 2
left_child=2 3 10 7 6 11 13 12 17 18 -1 25 14 -3 -2 26 -9 24 20 -12 -8 -21 -16 -24 -5 -4 -7 -10 -29 -30
right_child=1 4 5 8 -6 15 9 16 27 -11 19 -13 -14 -15 22 -17 -18 -19 -20 21 -22 -23 23 -25 -26 -27 -28 28 29 -31
leaf_value=-0.0037425290176762364 0.17869856886462723 1.2809928454309703 0.035626125189231021 0.56649710944720677 2.2438874653407508 0.086739544956004166 0.89242823984225583 0.060463049991035904 0.89941677701884293 1.7796148127317428 0.0059160621062084289 0.63952115106582641 0.63967950331198198 0.6689723056007405 0.24745555276041342 0.16820632460577359 0.18864427242614326 0.37761157531856049 1.5279020397663117 0.14057094413857205 1.4158518365621566 0.010246480564956877 1.0106329457759857 0.20661038094988238 0.088111750370719361 0.097331101758176927 0.25623664714341615 0.46025011509436775 1.1502111332757132 0.53939583505902966
leaf_weight=1059155 2786 20 16469 21 28 7737 90 1049 29 22 65803 20 37 147 1328 964 440 930 20 505 20 509 20 26 108 1108 137 220 21 21
leaf_count=1059155 2786 20 16469 21 28 7737 90 1049 29 22 65803 20 37 147 1328 964 440 930 20 505 20 509 20 26 108 1108 137 220 21 21
internal_value=0 0.260423 -0.00166842 0.221371 1.05226 0.0596073 0.947661 0.179767 0.396601 1.17332 -0.00310702 0.0401978 0.208656 0.742268 0.204822 0.0982529 0.0983406 0.351833 1.07072 0.00696677 0.987596 0.0751517 0.257791 0.556185 0.165988 0.0395158 0.0896886 0.559518 0.521896 0.844803
internal_weight=0 7383 1.15241e+06 7036 347 26435 319 5686 1350 152 1.12597e+06 17597 4197 167 4160 8838 1489 1059 130 66817 110 1014 1374 46 129 17577 7874 291 262 42
internal_count=1159790 7383 1152407 7036 347 26435 319 5686 1350 152 1125972 17597 4197 167 4160 8838 1489 1059 130 66817 110 1014 1374 46 129 17577 7874 291 262 42
is_linear=0
shrinkage=0.03


Tree=24
num_leaves=31
num_cat=0
split_feature=59 27 59 15 27 48 27 59 31 31 59 50 31 31 56 50 26 62 50 24 30 38 61 59 57 23 14 50 26 26
split_gain=527461 238853 118695 64078.3 50088.8 26042.6 25649.5 13951.2 9372.37 9360.71 9335.87 8499.38 7259.92 6998.08 6600.58 5950.52 5632.12 6029.94 5479.03 5394.18 5234.27 5096.88 4992.32 4948.04 4794.64 6909.66 4566.83 4280.39 4248.4 4236.34
threshold=2.5714857855706827 3.102424313986182 1.9792566571283829 3.2748733330670157 2.9753164593178529 2.1723502798641312 2.3428684161235451 1.653993607130732 3.1772486950064507 2.8978364020447351 2.8779821076786352 2.6189041962198796 3.1083227928064345 2.1388951227884814 2.5294920900223001 2.2266108144587955 2.2809143355317949 2.8841393810257387 2.558440481810146 2.6560064166151323 1.7401566144773108 1.0000000180025095e-35 3.0936142017171013 2.2236601314640008 2.9826358275845983 2.2494377961022667 1.1705104710713377 3.1551852097630069 2.822894323773399 2.9015348215204697
decision_type=2 2 2 2 2 2 2 2 2 2 2 2 2 2 2 2 2 2 2 2 2 2 2 2 2 2 2 2 2 2
left_child=2 4 7 8 10 -5 11 18 15 16 21 14 29 -9 23 -3 17 -8 -1 -10 -13 -2 -14 -4 -21 -26 -20 -12 -11 -6
right_child=1 3 6 5 12 -7 9 13 19 28 27 20 22 -15 -16 -17 -18 -19 26 24 -22 -23 -24 -25 25 -27 -28 -29 -30 -31
leaf_value=-0.0033689142131889511 0.14897416854069404 1.2114432811737059 0.033519969085822443 1.4483359020828668 0.50527311228527994 2.9609597954750062 0.19126434828307579 0.014502735342547618 1.52382851598615 0.37740487822683516 0.25364257109337957 0.69294734627008436 0.50228575259332031 0.082933292351603669 0.11049755612941914 0.66437637129105809 0.1105612542523924 0.60943820414218031 0.24341030211867515 0.74611699283123012 0.18704658849285793 0.25159251409517813 0.91108590650558463 0.067340915993954101 0.90074701922280442 1.4858951479755342 0.010411613015097475 0.68555353948048181 0.081070930399677957 0.33626438274089931
leaf_weight=1103021 2796 21 10498 21 167 20 521 27187 22 209 1242 20 259 1415 1565 121 2529 33 148 40 231 516 30 6188 42 32 155 21 55 665
leaf_count=1103021 2796 21 10498 21 167 20 521 27187 22 209 1242 20 259 1415 1565 121 2529 33 148 40 231 516 30 6188 42 32 155 21 55 665
internal_value=0 0.280201 -0.00146078 1.07904 0.235463 2.1862 0.0677971 -0.00279763 0.915751 0.144221 0.191426 0.0539722 0.415184 0.0178881 0.0515877 0.745281 0.129539 0.216174 -0.00333388 1.09374 0.227357 0.164962 0.544722 0.0460625 1.01074 1.15378 0.12422 0.260824 0.315669 0.370188
internal_weight=0 6015 1.15378e+06 319 5696 41 21849 1.13193e+06 278 3347 4575 18502 1121 28602 18251 142 3083 554 1.10332e+06 136 251 3312 289 16686 114 74 303 1263 264 832
internal_count=1159790 6015 1153775 319 5696 41 21849 1131926 278 3347 4575 18502 1121 28602 18251 142 3083 554 1103324 136 251 3312 289 16686 114 74 303 1263 264 832
is_linear=0
shrinkage=0.03


Tree=25
num_leaves=31
num_cat=0
split_feature=31 27 59 15 27 48 59 59 19 22 59 26 18 35 35 50 59 50 26 58 15 52 59 31 56 59 30 50 31 23
split_gain=497689 228309 110540 61839.8 45789.8 24503.5 16500.8 14346.7 12584.7 11336.5 10078.9 11110.9 8855.05 8846.72 7002.87 6687.93 6676.36 6118.9 6062.63 6026.59 8702.79 5878.58 5243.2 4805.3 4790.6 4690.12 4658.77 4513.23 4464.25 4183.56
threshold=2.5310545667906923 3.102424313986182 2.0601403238163432 3.2748733330670157 2.9753164593178529 2.1723502798641312 1.653993607130732 2.421662486840209 2.9124515871954437 2.234973120977235 3.0786106895951248 3.0901311089905001 2.9676228381169314 3.1292741659782268 2.3079801450995419 3.1420726211883276 2.3813189332928881 3.0978275490026284 2.8580133529615983 3.192866552159098 3.1361238579243049 1.6636705693532514 2.1366682211753969 1.9076898376677069 2.5775172388166929 3.1302694701581397 1.8465360068640242 2.7948449652747867 2.8413581443477578 3.1207199392339073
decision_type=2 2 2 2 2 2 2 2 2 2 2 2 2 2 2 2 2 2 2 2 2 2 2 2 2 2 2 2 2 2
left_child=2 4 6 8 9 -5 -1 17 14 15 18 -12 13 21 -3 26 -11 24 29 -14 -21 -10 -20 -8 -4 -13 -2 -9 -28 -6
right_child=1 3 7 5 10 -7 23 27 12 16 11 25 19 -15 -16 -17 -18 -19 22 20 -22 -23 -24 -25 -26 -27 28 -29 -30 -31
leaf_value=-0.0032692306780880325 0.40378512429445979 0.17583753842573899 0.050776936156083877 1.4048858642578124 0.44978291589280833 2.87213106572628 0.01462955620360048 0.1140877184527358 1.3223353039134633 0.059972834103904443 0.95981486892700185 0.37637874157134305 0.59640655383467667 1.6838199762503305 0.75131626523716355 0.59208873394131667 0.20031182203912681 0.53559938434511423 -0.2091884635253386 0.70589694665028502 1.538288747549057 0.75607598174702029 0.26489284680133851 0.053946633400295568 0.11684894038820855 0.57758657831894722 0.17982427470763676 0.30527531177393702 0.26890032756176918 0.064927566455943234
leaf_weight=1102687 100 26 12153 21 276 20 29667 4406 33 943 40 332 52 27 71 40 451 24 22 26 20 33 460 3089 1075 152 2783 114 619 28
leaf_count=1102687 100 26 12153 21 276 20 29667 4406 33 943 40 332 52 27 71 40 451 24 22 26 20 33 460 3089 1075 152 2783 114 619 28
internal_value=0 0.260266 -0.0014839 1.03053 0.219694 2.12062 -0.00264591 0.0727566 0.875341 0.177848 0.377367 0.479281 1.01666 1.22635 0.597064 0.20637 0.105377 0.0570147 0.309423 0.817676 1.06781 1.03921 0.243254 0.0183373 0.0561464 0.439568 0.201964 0.11891 0.196032 0.414336
internal_weight=0 6575 1.15322e+06 329 6246 41 1.13544e+06 17772 288 4936 1310 524 191 93 97 3542 1394 13252 786 98 46 66 482 32756 13228 484 3502 4520 3402 304
internal_count=1159790 6575 1153215 329 6246 41 1135443 17772 288 4936 1310 524 191 93 97 3542 1394 13252 786 98 46 66 482 32756 13228 484 3502 4520 3402 304
is_linear=0
shrinkage=0.03


Tree=26
num_leaves=31
num_cat=0
split_feature=27 31 59 31 35 59 27 11 22 31 10 59 56 19 50 59 50 22 56 56 59 59 56 30 18 17 53 62 55 9
split_gain=468516 211346 94359.3 47580 40721.4 19286 13699.2 12815.7 12635.1 9435.77 9399.61 7725.94 7247.94 7079.15 7044.27 6692.24 5967.2 6934.5 5564.69 5026.26 4791.03 4687.42 4175.51 4029.41 4023.65 4911.88 3987.74 3892.41 3885.37 6537.62
threshold=2.493417819417628 3.1377922418083304 1.8884747591614062 2.945524727048443 3.2199469219669004 2.2599289184680948 3.102424313986182 2.8121634646408853 2.234973120977235 3.1083227928064345 2.7342766802414737 3.164328747237779 2.503694159409485 3.152107836616334 3.0998189051583918 3.0786106895951248 1.9681680410474691 1.0000000180025095e-35 2.734673332997176 2.5768410156467931 2.3528949392868603 2.3969303441442031 2.5761580365394603 2.3030294028720086 2.5270702150562898 2.228072239530301 3.1368926736533758 2.2665625419644928 2.8498899744373536 2.2743114595225271
decision_type=2 2 2 2 2 2 2 2 2 2 2 2 2 2 2 2 2 2 2 2 2 2 2 2 2 2 2 2 2 2
left_child=2 3 12 8 6 14 -3 13 15 20 -9 -12 16 18 22 -2 27 -18 -8 -7 23 -10 -4 -5 25 -11 28 -1 -22 -30
right_child=1 4 5 9 -6 19 7 10 21 24 11 -13 -14 -15 -16 -17 17 -19 -20 -21 26 -23 -24 -25 -26 -27 -28 -29 29 -31
leaf_value=-0.0032982868856251653 0.18114899568532294 0.39176405488493593 0.032582500687319653 0.5300079378059932 2.0579336888449529 0.083961856841074503 0.64142590286493306 1.6980642671297703 0.055008647779011773 0.52046531139125285 0.68042049591397424 1.3616486494002802 0.042176032826675341 1.3368748877495527 0.58597312007631575 0.33398428429727967 0.085235956601026799 0.0095752617521436996 1.0518909498361442 0.1634049709299297 0.32015067160318089 0.17166852287190373 0.090367993228668675 0.075841131799129977 0.43016827228929727 0.95896667803035052 0.75358125107628959 0.020079889096864211 0.32129067080095408 1.012711912035942
leaf_weight=1108779 3921 47 17883 21 28 7545 125 28 1049 71 29 31 3206 20 21 276 1383 5150 39 792 857 440 1201 108 186 34 21 6447 32 20
leaf_count=1108779 3921 47 17883 21 28 7545 125 28 1049 71 29 31 3206 20 21 276 1383 5150 39 792 857 440 1201 108 186 34 21 6447 32 20
internal_value=0 0.238221 -0.00152619 0.202576 0.96099 0.053437 0.864707 0.946429 0.164563 0.362682 1.24419 1.03239 -0.00286694 0.804019 0.0368234 0.1912 -0.00299567 0.0255922 0.739036 0.0915088 0.321106 0.0894817 0.0362191 0.149775 0.513984 0.662456 0.344871 -0.00316314 0.335429 0.587222
internal_weight=0 7383 1.15241e+06 7036 347 27442 319 272 5686 1350 88 60 1.12496e+06 184 19105 4197 1.12176e+06 6533 164 8337 1059 1489 19084 129 291 105 930 1.11523e+06 909 52
internal_count=1159790 7383 1152407 7036 347 27442 319 272 5686 1350 88 60 1124965 184 19105 4197 1121759 6533 164 8337 1059 1489 19084 129 291 105 930 1115226 909 52
is_linear=0
shrinkage=0.03


Tree=27
num_leaves=31
num_cat=0
split_feature=59 27 59 15 27 27 48 31 31 26 59 50 31 59 31 14 62 56 50 38 24 18 17 50 11 50 29 31 44 26
split_gain=442455 198788 98976 54703.7 41730.4 27306 22667.5 9030.46 8550.87 10622.1 8298.56 8063.11 7851.4 6388.31 6268.25 6127.46 6742.34 5708.88 5401.32 5344.1 4987.38 4785.01 7433.56 4714.04 4340.93 7160.22 4081.81 4041.15 3958.32 3891.67
threshold=2.5714857855706827 3.102424313986182 1.8778336717175621 3.2748733330670157 2.9753164593178529 2.2724143607056346 2.1723502798641312 2.7291776185177499 2.1331158591693993 1.5865626343984673 2.9441016831542552 2.592607575415824 3.1772486950064507 2.1783698067944575 3.1083227928064345 1.7199458468135815 2.7754797453573921 2.5865111696942962 2.2266108144587955 1.0000000180025095e-35 2.6560064166151323 2.4835165598127378 2.228072239530301 2.7554459933217648 2.3584985901111759 3.0165251976604135 3.0928666220534606 1.6318905388235863 3.0668955830824367 2.9015348215204697
decision_type=2 2 2 2 2 2 2 2 2 2 2 2 2 2 2 2 2 2 2 2 2 2 2 2 2 2 2 2 2 2
left_child=2 4 8 12 10 11 -5 -7 17 -10 19 13 18 -4 29 16 -9 23 -3 -2 -14 22 -16 -1 -22 26 -26 -13 -12 -6
right_child=1 3 5 6 14 7 -8 15 9 -11 28 27 20 -15 21 -17 -18 -19 -20 -21 24 -23 -24 -25 25 -27 -28 -29 -30 -31
leaf_value=-0.0030333192195797568 0.14316052531881687 1.1226303144863674 0.028127131794669458 1.3199774394716535 0.46752235349556315 0.10279459772583953 2.7311840819120405 0.31076078052139461 0.18750241061861822 0.022517220418184578 0.25722404464653559 0.61760844039916996 1.4109871374477039 0.061295546647163648 0.51383532759390382 0.17178013629574798 0.9006960991546511 0.054728168419165273 0.60141974368371254 0.2413364634270731 0.53906097097830341 0.42470098473951579 1.1527799282903257 0.2258378767967224 1.091702481508255 1.3382456437746684 0.57414230401162059 0.17346541384984818 0.6852584767341614 0.30553474625045979
leaf_weight=1117230 3266 21 16095 21 167 4023 20 136 374 5763 700 20 22 7739 57 515 20 1543 121 589 22 209 23 81 24 36 32 236 20 665
leaf_count=1117230 3266 21 16095 21 167 4023 20 136 374 5763 700 20 22 7739 57 515 20 1543 121 589 22 209 23 81 24 36 32 236 20 665
internal_value=0 0.256631 -0.0013379 0.985397 0.215817 0.053594 2.00837 0.119788 -0.00274339 0.0325717 0.175622 0.0406958 0.834526 0.0388971 0.379859 0.221675 0.386394 -0.00293709 0.6785 0.158161 0.997436 0.500225 0.697532 -0.00301673 0.917628 1.00815 0.795954 0.208164 0.269114 0.338049
internal_weight=0 6015 1.15378e+06 319 5696 28784 41 4694 1.12499e+06 6137 4575 24090 278 23834 1121 671 156 1.11885e+06 142 3855 136 289 80 1.11731e+06 114 92 56 256 720 832
internal_count=1159790 6015 1153775 319 5696 28784 41 4694 1124991 6137 4575 24090 278 23834 1121 671 156 1118854 142 3855 136 289 80 1117311 114 92 56 256 720 832
is_linear=0
shrinkage=0.03


Tree=28
num_leaves=31
num_cat=0
split_feature=27 31 59 31 35 59 31 59 27 11 50 25 59 19 50 26 50 18 15 11 31 50 26 58 15 44 50 50 56 59
split_gain=416481 161101 121766 47917.7 38419.1 20878.1 14433.9 11795.3 10180.1 8975.56 8111.24 7528.59 7376.69 5977.78 5867.05 5719.68 8802.38 5371.45 7501.97 4967.95 4604.83 4526.69 5776.21 4510.41 4790.59 4450.43 4417.27 3853.73 3802.14 3722.02
threshold=2.678345019973412 3.1772486950064507 2.148849499431043 3.0952097069287938 3.2199469219669004 1.7080967682751582 2.2759176135750576 3.0786106895951248 3.102424313986182 3.0635762592481988 2.4495431737579829 2.9343856540540219 1.9930817091492299 3.2192773594641308 3.1156380106980159 2.744656955521493 3.1097161224863199 2.9455606157501708 3.0616406770088935 2.6448249920257658 1.9076898376677069 2.1347346384637409 1.2193466252505003 3.192866552159098 3.1492097285216576 3.0668955830824367 2.5379839449830457 3.0637185195098771 2.5208127929854984 2.7724161511968588
decision_type=2 2 2 2 2 2 2 2 2 2 2 2 2 2 2 2 2 2 2 2 2 2 2 2 2 2 2 2 2 2
left_child=2 3 5 7 9 21 26 12 13 17 20 19 -2 -5 29 16 -14 18 -3 -10 -7 -1 -23 -19 -25 -9 28 -12 -4 -8
right_child=1 4 6 8 -6 10 14 25 11 -11 27 -13 15 -15 -16 -17 -18 23 -20 -21 -22 22 -24 24 -26 -27 -28 -29 -30 -31
leaf_value=-0.0030067033377394084 0.067078541268510317 0.82635906508990686 0.052038162212886159 0.43427280081687142 2.2945863822102548 0.016077128523655306 0.1108536270159958 0.32887670890508824 0.70572255329652256 1.5633889428052035 0.13703929489530692 0.55359233459830282 0.24538955484689204 -0.093156067505478862 0.60115402489900582 0.17051430144485544 0.7591282832189914 0.53045082085579631 1.5666520722887733 1.3432715375856921 0.051831727139645657 0.10575717952837804 0.0069915462573877235 0.65265941548347473 1.3092822259068488 0.76641931252046058 0.18420103438508553 0.5102182194921705 0.11578665531597991 0.18267564410255069
leaf_weight=1106589 409 28 8469 586 24 27173 4605 427 22 22 321 100 946 20 23 1691 31 40 22 22 3681 770 1731 20 20 22 258 27 935 756
leaf_count=1106589 409 28 8469 586 24 27173 4605 427 22 22 321 100 946 20 23 1691 31 40 22 22 3681 770 1731 20 20 22 258 27 935 756
internal_value=0 0.289605 -0.00111597 0.252992 1.17912 -0.00223471 0.0836705 0.206676 0.470744 1.003 0.0219672 0.69748 0.185715 0.416866 0.123033 0.203902 0.26169 0.908164 1.15209 1.0245 0.0203428 -0.00291559 0.0373992 0.755711 0.980971 0.350315 0.0617362 0.165993 0.0583764 0.120982
internal_weight=0 4452 1.15534e+06 4276 176 1.14029e+06 15046 3526 750 152 31202 144 3077 606 5384 2668 977 130 50 44 30854 1.10909e+06 2501 80 40 449 9662 348 9404 5361
internal_count=1159790 4452 1155338 4276 176 1140292 15046 3526 750 152 31202 144 3077 606 5384 2668 977 130 50 44 30854 1109090 2501 80 40 449 9662 348 9404 5361
is_linear=0
shrinkage=0.03


Tree=29
num_leaves=31
num_cat=0
split_feature=59 27 59 15 27 31 48 27 26 31 59 50 19 14 33 59 20 56 56 62 26 18 50 23 50 38 27 54 13 59
split_gain=393141 175807 87683.5 49394.2 37191.5 22294.4 20907.3 8855.45 11595.8 7843.86 7464.74 7287.72 6943.43 6996.04 7234.92 6075.79 6049.35 5879.8 5690.65 5447.33 5255.86 5114.48 4342.21 5088.93 4222.3 4187.55 4026.51 3884.02 6424.23 4167.41
threshold=2.5714857855706827 3.102424313986182 1.9049065498812066 3.2748733330670157 2.9753164593178529 2.2759176135750576 2.1723502798641312 2.2610768814781532 1.7288634807397889 2.8978364020447351 2.8779821076786352 2.5379839449830457 2.9428291276261613 3.1010540645634599 1.5862191088926834 3.1302694701581397 1.4702507300178191 2.503694159409485 2.5027936866755831 2.5720742520020381 2.9015348215204697 1.5697473165350158 1.9681680410474691 1.2592749029064525 3.1037780132384811 1.0000000180025095e-35 1.8408950685986403 3.0155835227247612 2.5935977031429105 3.0786106895951248
decision_type=2 2 2 2 2 2 2 2 2 2 2 2 2 2 2 2 2 2 2 2 2 2 2 2 2 2 2 2 2 2
left_child=2 4 7 12 10 11 -5 17 -9 21 25 18 -3 14 -14 20 19 22 26 -16 -6 -7 -1 -24 -13 -2 -4 29 -29 -22
right_child=1 3 5 6 15 9 -8 8 -10 -11 -12 24 13 -15 16 -17 -18 -19 -20 -21 27 -23 23 -25 -26 -27 -28 28 -30 -31
leaf_value=-0.0029312280193515019 0.12742303542644906 0.59290914229064617 0.022626009782824946 1.238192400932312 0.46943292327569081 0.18119358823677667 2.5934991130828857 0.22047492261543389 0.028166761380664224 0.27025176157763997 0.22763355398333834 0.15135296511772339 1.5574815477244555 0.63680594734279283 0.85133501453059057 0.53209723798128272 0.65001361085101961 0.038573536158384249 0.087226944969079637 1.4605939773559569 0.20658058783059588 0.089531040912549514 0.069347528563738159 0.0064191858256558865 0.60053935611248022 0.22043806105952299 0.050293076899488962 0.27939022669737984 0.95060611090489788 0.3514151139712402
leaf_weight=1114533 2796 106 12156 21 195 650 20 310 3146 272 1263 323 20 59 28 156 40 3101 1940 25 370 3486 1553 4531 20 516 7754 33 21 346
leaf_count=1114533 2796 106 12156 21 195 650 20 310 3146 272 1263 323 20 59 28 156 40 3101 1940 25 370 3486 1553 4531 20 516 7754 33 21 346
internal_value=0 0.241907 -0.00126114 0.927255 0.203525 0.052574 1.89932 -0.00253163 0.0454166 0.114199 0.165579 0.040334 0.783893 0.901593 1.03984 0.358389 0.928524 -0.0026791 0.0381801 1.13872 0.330307 0.103936 -0.00279325 0.0224823 0.177545 0.141915 0.033401 0.295074 0.540419 0.27657
internal_weight=0 6015 1.15378e+06 319 5696 26601 41 1.12717e+06 3456 4408 4575 22193 278 172 113 1121 93 1.12372e+06 21850 53 965 4136 1.12062e+06 6084 343 3312 19910 770 54 716
internal_count=1159790 6015 1153775 319 5696 26601 41 1127174 3456 4408 4575 22193 278 172 113 1121 93 1123718 21850 53 965 4136 1120617 6084 343 3312 19910 770 54 716
is_linear=0
shrinkage=0.03


Tree=30
num_leaves=31
num_cat=0
split_feature=31 27 59 15 59 48 59 27 59 19 22 18 35 26 35 15 18 58 15 59 30 50 59 50 52 30 56 27 50 50
split_gain=370776 168382 81677.6 47582.1 34460.4 19671.7 12891.5 12795 10988.9 9758.37 7919.7 7566.98 7675.91 6934.96 6080.09 5550.49 6037.86 5392.02 7399.6 5330.28 5312.79 5146.19 5102.56 4891.43 4885.31 4577.88 4085.2 3902.08 3432.97 3364.69
threshold=2.5310545667906923 3.102424313986182 2.0601403238163432 3.2748733330670157 3.0786106895951248 2.1723502798641312 1.0000000180025095e-35 2.8702333964299265 2.3813189332928881 2.9124515871954437 2.234973120977235 2.9676228381169314 3.1292741659782268 2.8580133529615983 2.3079801450995419 2.5218449448514906 2.4656431245546222 3.192866552159098 3.1361238579243049 2.3813189332928881 2.3752491955425721 3.1097161224863199 2.7299981698255844 3.0978275490026284 1.6636705693532514 1.8465360068640242 2.5621419815516102 1.7655223559455078 2.7948449652747867 2.1810064182102633
decision_type=2 2 2 2 2 2 2 2 2 2 2 2 2 2 2 2 2 2 2 2 2 2 2 2 2 2 2 2 2 2
left_child=2 4 6 9 7 -5 29 10 23 14 25 12 24 19 -3 -6 -17 -13 -19 20 -9 -21 -15 -4 -11 -2 28 -8 -10 -1
right_child=1 3 8 5 15 -7 27 13 26 11 -12 17 -14 22 -16 16 -18 18 -20 21 -22 -23 -24 -25 -26 -27 -28 -29 -30 -31
leaf_value=-0.002899148931130701 0.38046226039395797 0.11247218177868769 0.045923931181854366 1.2010466539008275 0.31781939747685101 2.5156941318511961 0.011987789643418173 0.37029425545393124 0.084474282699053937 1.1520754026867108 0.069109107876720366 0.48121297584703332 1.4944169749153984 0.04177072762536841 0.64869614451389079 0.95070438592330264 0.44259466229720157 0.59339045707996074 1.3609331507384776 0.34324690348440495 0.075114441092180864 0.72784856221255134 0.22173965379333391 0.47462873138487338 0.63586679754270747 0.15566809623358782 0.16899270013027043 0.041477379712539467 0.25036363142080931 0.038473270124723999
leaf_weight=1100678 84 26 12257 21 512 20 28282 92 4735 33 1152 52 27 185 71 23 248 26 20 396 136 34 607 24 33 2777 641 4711 115 1772
leaf_count=1100678 84 26 12257 21 512 20 28282 92 4735 33 1152 52 27 185 71 23 248 26 20 396 136 34 607 24 33 2777 641 4711 115 1772
internal_value=0 0.224644 -0.0012808 0.886136 0.189801 1.84234 -0.00227965 0.163123 0.0625356 0.75001 0.135525 0.874457 1.06829 0.239503 0.504966 0.37593 0.485718 0.690509 0.927105 0.311482 0.194222 0.373657 0.179701 0.0467617 0.893971 0.162268 0.0978149 0.0161985 0.0884077 -0.00283265
internal_weight=0 6575 1.15322e+06 329 6246 41 1.13544e+06 5463 17772 288 4013 191 93 1450 97 783 271 98 46 658 228 430 792 12281 66 2861 5491 32993 4850 1.10245e+06
internal_count=1159790 6575 1153215 329 6246 41 1135443 5463 17772 288 4013 191 93 1450 97 783 271 98 46 658 228 430 792 12281 66 2861 5491 32993 4850 1102450
is_linear=0
shrinkage=0.03


Tree=31
num_leaves=31
num_cat=0
split_feature=59 27 59 15 31 27 48 31 59 31 26 50 35 22 15 14 62 41 56 38 59 56 58 18 15 18 26 50 50 29
split_gain=349286 155446 77912.5 43728.2 33276.2 21575 18509.1 8976.53 7679.74 7195.64 9418.14 7030.5 6441.07 11992.3 5728.26 5554.64 6379.56 5245.22 5139.76 5070.16 4378.05 4374.59 4267.37 8723.54 4511.31 4294.75 4261.9 4198.08 4006.32 3672.54
threshold=2.5714857855706827 3.102424313986182 1.8749753667414419 3.2748733330670157 3.0117732449889734 2.1345212919262475 2.1723502798641312 2.7291776185177499 2.8779821076786352 2.2194667134605957 1.5865626343984673 2.411563486569118 3.1098119371256367 1.9630827763407077 3.1492097285216576 1.7199458468135815 2.7754797453573921 3.1004680744094317 2.5865111696942962 1.0000000180025095e-35 3.1302694701581397 2.5027936866755831 3.0171013060189096 2.3456100523770886 2.5218449448514906 2.6694855310953511 2.822894323773399 3.0978275490026284 2.7554459933217648 3.0880466452401838
decision_type=2 2 2 2 2 2 2 2 2 2 2 2 2 2 2 2 2 2 2 2 2 2 2 2 2 2 2 2 2 2
left_child=2 4 9 12 8 11 -5 -7 19 18 -11 21 14 -14 -3 16 -9 20 28 -2 -10 -4 26 29 -25 -26 -6 -13 -1 -24
right_child=1 3 5 6 22 7 -8 15 17 10 -12 27 13 -15 -16 -17 -18 -19 -20 -21 -22 -23 23 24 25 -27 -28 -29 -30 -31
leaf_value=-0.0026799400548205656 0.11998133597612638 0.58244151214758555 0.026178928528439532 1.1650152497632162 0.4924407888495404 0.081920745165656325 2.4402232840061187 0.28049650236516971 0.2039171187808467 0.21362058852029245 0.025241368704726683 0.12945652254417331 1.3513227723146739 0.6275297960937023 1.0773741229623557 0.1497304157096965 0.85434120268374669 0.70151780783012507 0.051792683652808209 0.21866067731219696 0.54365114675249371 0.0761969509149346 0.57231806731224055 0.25657431435988359 0.74067633926868437 0.40317945602795352 0.2671875526794707 0.56381070349897655 0.20575520046145082 1.1472343965768812
leaf_weight=1118865 2820 171 19746 21 92 6424 20 136 1387 254 4007 432 38 45 24 515 20 20 1562 562 35 1710 20 133 45 138 424 21 83 20
leaf_count=1118865 2820 171 19746 21 92 6424 20 136 1387 254 4007 432 38 45 24 515 20 20 1562 562 35 1710 20 133 45 138 424 21 83 20
internal_value=0 0.228016 -0.00118872 0.872456 0.191925 0.0473588 1.78707 0.0928266 0.161096 -0.0024406 0.0364707 0.0326346 0.737567 0.958905 0.643356 0.197236 0.354066 0.219065 -0.00258857 0.136379 0.212279 0.0301653 0.362473 0.442373 0.389537 0.48617 0.307349 0.149592 -0.00266448 0.859776
internal_weight=0 6015 1.15378e+06 319 5696 29004 41 7095 4824 1.12477e+06 4261 21909 278 83 195 671 156 1442 1.12051e+06 3382 1422 21456 872 356 316 183 516 453 1.11895e+06 40
internal_count=1159790 6015 1153775 319 5696 29004 41 7095 4824 1124771 4261 21909 278 83 195 671 156 1442 1120510 3382 1422 21456 872 356 316 183 516 453 1118948 40
is_linear=0
shrinkage=0.03


Tree=32
num_leaves=31
num_cat=0
split_feature=31 27 59 15 59 48 59 27 59 26 59 22 26 38 63 15 18 59 30 50 14 19 30 59 50 58 50 50 56 62
split_gain=329204 149107 72531.5 42087.5 30846.5 17415.2 11574.1 11361.6 9746.47 8913.08 10935.4 7201.56 6550.58 5456.94 6116.52 4961.63 5552.49 4806.52 4915.14 4784.49 4711.85 8215.81 4700.93 4653.78 4339.93 3881.31 3691.71 3650.7 3546.96 3387.6
threshold=2.5310545667906923 3.102424313986182 2.0601403238163432 3.2748733330670157 3.0786106895951248 2.1723502798641312 1.0000000180025095e-35 2.8702333964299265 2.4152016028280894 2.9428360972894905 3.0786106895951248 1.9630827763407077 2.8580133529615983 1.0000000180025095e-35 -1.0743846132014199 2.5218449448514906 2.4656431245546222 2.3813189332928881 2.3752491955425721 3.1097161224863199 3.0441687129147366 2.9428291276261613 1.8465360068640242 2.7299981698255844 3.0998189051583918 2.9720515161245902 2.7948449652747867 2.1707120614911553 2.513654124101564 1.6164983375051587
decision_type=2 2 2 2 2 2 2 2 2 2 2 2 2 2 2 2 2 2 2 2 2 2 2 2 2 2 2 2 2 2
left_child=2 4 6 9 7 -5 -1 11 24 -3 -11 22 17 -12 -15 -6 -17 18 -9 -19 21 -16 29 -14 28 -23 -10 -8 -4 -2
right_child=1 3 8 5 15 -7 27 12 26 10 13 -13 23 14 20 16 -18 19 -20 -21 -22 25 -24 -25 -26 -27 -28 -29 -30 -31
leaf_value=-0.0026721100849984472 0.20557272186130285 1.2864520714499732 0.039673052926884785 1.1300647852250507 0.30004529584490225 2.3670166075229644 0.013427545353696864 0.35358268421791172 0.091768753510640289 0.14701834250580179 0.48119910577091118 0.07831362009424829 0.035775968259452159 1.2394343288128193 0.57342320425169813 0.90469342815811216 0.41743418449175451 0.32529721170356041 0.069664538079044117 0.69613712447531084 0.53261432911379869 0.83405293893814081 0.15288085995378886 0.2076484899749424 0.45735799359238666 1.3854475103484258 0.26242640186196714 0.066882308068133306 0.091681982839366391 0.60971442148728028
leaf_weight=1102450 40 22 11745 21 512 20 31800 92 4575 33 59 1601 185 26 42 23 248 396 136 34 59 20 2337 607 23 27 117 1193 1312 35
leaf_count=1102450 40 22 11745 21 512 20 31800 92 4575 33 59 1601 185 26 42 23 248 396 136 34 59 20 2337 607 23 27 117 1193 1312 35
internal_value=0 0.211676 -0.00120686 0.834156 0.178888 1.73346 -0.00214813 0.153648 0.0589304 0.706131 0.658135 0.127642 0.225622 0.730524 0.815066 0.354987 0.458788 0.295578 0.184228 0.354619 0.740515 0.878336 0.160384 0.167501 0.0456243 1.15081 0.0960243 0.0153604 0.044899 0.394172
internal_weight=0 6575 1.15322e+06 329 6246 41 1.13544e+06 5463 17772 288 266 4013 1450 233 174 783 271 658 228 430 148 89 2412 792 13080 47 4692 32993 13057 75
internal_count=1159790 6575 1153215 329 6246 41 1135443 5463 17772 288 266 4013 1450 233 174 783 271 658 228 430 148 89 2412 792 13080 47 4692 32993 13057 75
is_linear=0
shrinkage=0.03


Tree=33
num_leaves=31
num_cat=0
split_feature=59 27 59 15 31 48 31 59 31 31 38 27 59 50 54 12 50 24 30 62 59 30 57 29 15 31 50 22 31 50
split_gain=310407 129398 76102.1 39001 26129.7 16386 15201.2 13200.7 6306.11 6236.99 6085.15 6051.86 5063.36 4873.81 4847.38 4932.56 4720.68 4511.18 4454.11 5250.78 4355.66 11697.3 4177.75 6435.73 7375.23 4122.77 4071.24 3888.8 3831.4 3795.8
threshold=2.6122033424209063 3.102424313986182 2.0766843351507336 3.2748733330670157 3.0117732449889734 2.1723502798641312 2.6885869563705387 1.653993607130732 2.1331158591693993 3.1772486950064507 1.0000000180025095e-35 2.1345212919262475 2.9441016831542552 2.2266108144587955 3.0155835227247612 2.33642717789761 2.411563486569118 2.6560064166151323 2.6033576282411732 3.0963343657230795 3.0786106895951248 2.9976153447164209 2.9826358275845983 3.1247534543222222 3.0969534552590585 3.1083227928064345 3.1097161224863199 1.6539376754787249 2.6294353743934118 2.558440481810146
decision_type=2 2 2 2 2 2 2 2 2 2 2 2 2 2 2 2 2 2 2 2 2 2 2 2 2 2 2 2 2 2
left_child=2 4 7 9 10 -5 11 29 -9 13 12 16 -2 -3 20 -16 -4 -11 19 -8 -6 -22 -19 24 -24 -20 -12 28 -10 -1
right_child=1 3 6 5 14 -7 18 8 27 17 26 -13 -14 -15 15 -17 -18 22 25 -21 21 -23 23 -25 -26 -27 -28 -29 -30 -31
