tree
version=v3
num_class=1
num_tree_per_iteration=1
label_index=0
max_feature_idx=91
objective=regression
feature_names=Column_0 Column_1 Column_2 Column_3 Column_4 Column_5 Column_6 Column_7 Column_8 Column_9 Column_10 Column_11 Column_12 Column_13 Column_14 Column_15 Column_16 Column_17 Column_18 Column_19 Column_20 Column_21 Column_22 Column_23 Column_24 Column_25 Column_26 Column_27 Column_28 Column_29 Column_30 Column_31 Column_32 Column_33 Column_34 Column_35 Column_36 Column_37 Column_38 Column_39 Column_40 Column_41 Column_42 Column_43 Column_44 Column_45 Column_46 Column_47 Column_48 Column_49 Column_50 Column_51 Column_52 Column_53 Column_54 Column_55 Column_56 Column_57 Column_58 Column_59 Column_60 Column_61 Column_62 Column_63 Column_64 Column_65 Column_66 Column_67 Column_68 Column_69 Column_70 Column_71 Column_72 Column_73 Column_74 Column_75 Column_76 Column_77 Column_78 Column_79 Column_80 Column_81 Column_82 Column_83 Column_84 Column_85 Column_86 Column_87 Column_88 Column_89 Column_90 Column_91
feature_infos=[0:1] [0:1] [0:1] [0:1] [0:1] [0:1] [0:1] [0:1] [-5.1993375826055752:5.1993375827034196] [-5.1993375826055752:5.1993375827034196] [-5.1993375826055752:5.1993375827034196] [-5.1993375826055752:5.1993375827034196] [-5.1993375826055752:3.7593092157982486] [-5.1993375826055752:3.582016458900259] [-5.1993375826055752:3.4887229919139982] [-5.1993375826055752:5.1993375827034196] [-5.1993375826055752:5.1993375827034196] [-5.1993375826055752:3.8402083272274097] [-5.1993375826055752:5.1993375827034196] [-5.1993375826055752:5.1993375827034196] [-5.1993375826055752:5.1993375827034196] [-5.1993375826055752:5.1993375827034196] [-5.1993375826055752:5.1993375827034196] [-5.1993375826055752:5.1993375827034196] [-5.1993375826055752:5.1993375827034196] [-5.1993375826055752:5.1993375827034196] [-5.1993375826055752:5.1993375827034196] [-5.1993375826055752:3.6849207916529316] [-5.1993375826055752:3.6314855854642429] [-5.1993375826055752:3.1888291278888667] [-5.1993375826055752:5.1993375827034196] [-5.1993375826055752:5.1993375827034196] [-5.1993375826055752:5.1993375827034196] [-5.1993375826055752:5.1993375827034196] [-5.1993375826055752:5.1993375827034196] [-5.1993375826055752:5.1993375827034196] [-5.1993375826055752:5.1993375827034196] [-5.1993375826055752:5.1993375827034196] [-5.1993375826055752:5.1993375827034196] [-5.1993375826055752:5.1993375827034196] [-5.1993375826055752:3.3032336688012705] [-5.1993375826055752:3.4825725403811258] [-5.1993375826055752:5.1993375827034196] [-5.1993375826055752:3.2393750911243879] [-5.1993375826055752:5.1993375827034196] [-5.1993375826055752:5.1993375827034196] [-5.1993375826055752:3.7554757424241814] [-5.1993375826055752:3.8264583558043928] [-5.1993375826055752:5.1993375827034196] [-5.1993375826055752:5.1993375827034196] [-5.1993375826055752:5.1993375827034196] [-5.1993375826055752:5.1993375827034196] [-5.1993375826055752:3.4804883979654733] [-5.1993375826055752:5.1993375827034196] [-5.1993375826055752:3.2218813617693147] [-5.1993375826055752:5.1993375827034196] [-5.1993375826055752:5.1993375827034196] [-5.1993375826055752:5.1993375827034196] [-5.1993375826055752:5.1993375827034196] [-5.1993375826055752:5.1993375827034196] [-5.1993375826055752:4.5848179660264341] [-5.1993375826055752:5.1993375827034196] [-5.1993375826055752:5.1993375827034196] [-5.1993375826055752:5.1993375827034196] [0:1] [0:1] [0:1] [0:1] [0:1] [0:1] [0:1] [0:1] [0:1] [0:1] [0:1] [0:1] [0:1] [0:1] [0:1] [0:1] [0:1] [0:1] [0:1] [0:1] [0:1] [0:1] [0:1] [0:1] [0:1] [0:1] [0:1] [0:1]
tree_sizes=2802 2818 2814 2809 2838 2801 2844 2826 2827 2825 2821 2832 2803 2803 2819 2809 2804 2810 2787 2835 2801 2803 2830 2817 2831 2795 2832 2819 2818 2798 2843 2792 2822 2778 2826 2780 2827 2802 2836 2816 2838 2807 2797 2826 2784 2818 2791 2790 2806 2841 2844 2792 2809 2820 2811 2799 2788 2806 2812 2790 2817 2820 2837 2803 2793 2838 2753 2835 2810 2802 2810 2826 2807 2791 2836 2821 2834 2823 2784 2833 2795 2804 2795 2836 2830 2832 2814 2855 2823 2845 2785 2834 2797 2827 2806 2814 2853 2848 2802 2821 2818 2864 2877 2867 2807 2827 2864 2855 2798 2826 2873 2828 2817 2796 2907 2839 2864 2825 2836 2853 2843 2817 2839 2820 2884 2849 2834 2832 2863 2840 2848 2874 2870 2889 2926 2818 2865 2860 2820 2820 2866 2845 2872 2847 2926 2924 2827 2823 2834 2866 2870 2841 2849 2939 2827 2854 2815 2933 2915 2877 2888 2855 2832 2859 2876 2901 2914 2848 2949 2881 2919 2902 2865 2914 2853 2951 2919 2818 2881 2898 2907 2946 2893 2877 2898 2894 2873 2899 2906 2886 2944 2935 2972 2944 2892 2889 2888 2850 2825 2902 2894 2882 2908 2867 2882 2901 2881 2930 2881 2901 2882 2887 2956 2827 2909 2849 2858 2862 2928 2924 2929 2925 2910 2926 2880 2852 2891 2850 2916 2834 2927 2851 2831 2867 2850 2898 2880 2841 2914 2949 2840 2899 2826 2829 2903 2880 2867 2930 2897 2867 2826 2857 2859 2885 2861 2849 2841 2895 2869 2908 2883 2917 2903 2881 2928 2942 2894 2834 2833 2848 2934 2839 2908 2898 2891 2869 2820 2857 2867 2902 2851 2894 2871 2831 2872 2796 2888 2875 2922 2847 2914 2891 2888 2861 2836 2889 2832 2911 2864 2836 2912 2870 2861 2918 2923 2870 2864 2879 2893 2832 2872 2854 2822 2937 2846 2809 2850 2829 2910 2945 2868 2880 2875 2886 2962 2867 2923 2954 2892 2803 2875 2851 2878 2891 2911 2892 2951 2832 2998 2997 2866 2863 2911 2889 2917 2885 2855 2873 2874 2824 2835 2900 2909 2881 2966 2923 2835 2907 2832 2870 2905 2898 2941 2857 2836 2862 2845 2842 2872 2843 2848 2836 2870 2867 2870 2882 2896 2844 2853 2847 2825 2797 2882 2895 2849 2845 2840 2768 2875 2884 2870 2932 2793 2834 2977 2846 2845 2856 2881 2871

Tree=0
num_leaves=31
num_cat=0
split_feature=27 31 59 19 31 59 59 40 31 31 59 59 50 50 50 59 27 50 35 15 26 56 59 18 27 31 26 9 31 26
split_gain=2.20778e+06 893598 642837 191895 162878 89187.1 78054 39276.3 38716.6 37303.1 36374.8 19416.4 18895.8 18491.5 17959.3 17149.2 16984.8 13241.3 13125.7 12843.4 12061.7 11351.1 11054.2 10728.4 8845.48 7542.53 7022.12 7872.35 6652.72 6585.29
threshold=2.6706253287683466 3.1458704559304942 2.0780529142578845 3.2038272593500001 2.9924530114066923 2.4292361480144571 1.7614062611217014 2.1775689544315386 3.1868598978563032 3.1140126319261161 1.9251717471442618 2.6464168728789237 3.1005461647686214 2.2907084908076967 2.2641449702448875 3.0894842861087097 2.1361123931241246 2.4455831653098694 3.1561775034381498 3.1492097285216576 1.0326249989513223 2.5244448441108993 1.7712305117209501 2.8069446774919995 1.7835122088735473 1.7082635068862102 3.0908657449859867 1.8260038259872899 2.8565526635089973 2.2514405131411404
decision_type=2 2 2 2 2 2 2 2 2 2 2 2 2 2 2 2 2 2 2 2 2 2 2 2 2 2 2 2 2 2
left_child=2 4 6 8 10 12 14 -5 13 22 29 -7 16 -3 21 28 -4 24 19 23 -16 25 -6 -10 -8 -1 27 -11 -12 -2
right_child=1 3 5 7 9 11 17 -9 18 26 15 -13 -14 -15 20 -17 -18 -19 -20 -21 -22 -23 -24 -25 -26 -27 -28 -29 -30 -31
leaf_value=0.24938271235341919 0.62480862073927712 2.6803626966793566 0.36582599246590519 3.4737680205253563 0.49988528759196921 0.49199614799970537 0.29600726205496874 5.3538930109886129 2.6421775403128489 2.1613386924243345 0.66873723798976303 0.61180305385965839 1.2281183115390739 1.7182649040321312 0.50518378488250204 0.94897969760827339 0.44650680561502959 0.52882769775262806 3.1936588602928127 2.9646463782763854 0.30062241660168654 0.31677121271340569 1.0365070500725146 1.8843249057678184 0.34780754685139748 0.26705982038743076 1.324069450454487 1.476800745170759 0.77603999534169787 0.33634567488448974
leaf_weight=1089107 96 21 9608 20 36 3665 18488 20 29 21 1701 1823 24 125 383 281 3108 239 25 28 804 2278 857 40 3534 22166 184 54 749 276
leaf_count=1089107 96 21 9608 20 36 3665 18488 20 29 21 1701 1823 24 125 383 281 3108 239 25 28 804 2278 857 40 3534 22166 184 54 749 276
internal_value=0.256542 0.915137 0.253941 2.47556 0.802185 0.430687 0.251108 4.41383 2.18626 1.10681 0.689092 0.531794 0.387133 1.85665 0.249997 0.727001 0.385546 0.30673 2.58072 2.42274 0.366627 0.249872 1.01487 2.20284 0.30432 0.249735 1.4238 1.66847 0.701541 0.410788
internal_weight=0 4563 1.15523e+06 308 4255 18228 1.137e+06 40 268 1152 3103 5488 12740 146 1.11474e+06 2731 12716 22261 122 97 1187 1.11355e+06 893 69 22022 1.11127e+06 259 75 2450 372
internal_count=1159790 4563 1155227 308 4255 18228 1136999 40 268 1152 3103 5488 12740 146 1114738 2731 12716 22261 122 97 1187 1113551 893 69 22022 1111273 259 75 2450 372
is_linear=0
shrinkage=1


Tree=1
num_leaves=31
num_cat=0
split_feature=27 31 59 31 15 59 59 59 48 31 31 59 50 50 50 59 35 31 27 26 21 56 15 18 26 14 61 27 59 22
split_gain=2.0808e+06 934272 475040 211008 180565 64878.6 56038.6 49921.1 42652.3 34515.4 32792.1 24251.6 19758.5 17398.7 15731.7 14247.6 14139.1 12275.1 11756 10852.5 10541.2 9853.81 8660.84 10094.4 8402.26 8193.21 7696.04 7257.26 7238.73 6838.23
threshold=2.5557746584264551 3.1458704559304942 2.0347489031500099 2.9924530114066923 3.2554978946713615 2.3798770747242739 1.7517826759659108 1.7569298107166955 2.2111364869107888 3.1140126319261161 3.1868598978563032 2.9673156192244474 3.1005461647686214 2.2907084908076967 2.2641449702448875 2.6123434328153543 3.1561775034381498 2.7230974043212322 2.088308093454271 1.0326249989513223 2.3381638439926724 2.5244448441108993 3.1492097285216576 2.8069446774919995 1.7849214812861649 1.7199458468135815 2.4193907692570567 1.7835122088735473 2.4677492733905102 1.0000000180025095e-35
decision_type=2 2 2 2 2 2 2 2 2 2 2 2 2 2 2 2 2 2 2 2 2 2 2 2 2 2 2 2 2 2
left_child=2 3 6 7 10 12 14 24 -6 20 13 17 18 -3 21 -7 22 -9 -4 -16 -5 -1 23 -12 -2 26 -19 -8 -22 -11
right_child=1 4 5 9 8 15 27 11 -10 29 16 -13 -14 -15 19 -17 -18 25 -20 -21 28 -23 -24 -25 -26 -27 -28 -29 -30 -31
leaf_value=-0.0066321392355483044 0.42944889908799755 2.3511057472229004 0.094087244279946788 0.78898771516120281 3.0823890747070308 0.20439316357170773 0.035857016992003166 0.33131467022701866 4.9411080265045166 1.5708701583317348 2.3140661884176321 0.57760353009771226 0.95263200931549064 1.4178708048820494 0.23665289043825358 0.31594205478623533 2.8753821992874147 0.56429354943481147 0.16313086247001848 0.040359767807994287 0.22751749444082378 0.05710993301791531 2.5495374917984011 1.578949071407318 0.066994988318286444 0.41769392973150227 1.1900672843456268 0.085250748357416473 0.64763859789422218 1.0745560135229908
leaf_weight=1110284 65 21 10662 703 25 4196 17582 2139 20 28 29 643 25 125 376 1366 24 153 2803 778 50 2187 24 40 503 1388 20 3158 141 232
leaf_count=1110284 65 21 10662 703 25 4196 17582 2139 20 28 29 643 25 125 376 1366 24 153 2803 778 50 2187 24 40 503 1388 20 3158 141 232
internal_value=0 0.540589 -0.00298693 0.458734 2.15244 0.145572 -0.00548203 0.372957 3.90849 0.823772 1.85198 0.407547 0.110024 1.5521 -0.00639199 0.231789 2.22619 0.377994 0.10846 0.104317 0.735292 -0.00650683 2.05865 1.88791 0.108473 0.441959 0.636637 0.043378 0.537659 1.12801
internal_weight=0 6373 1.15342e+06 6065 308 19052 1.13436e+06 4911 45 1154 263 4343 13490 146 1.11362e+06 5562 117 3700 13465 1154 894 1.11247e+06 93 69 568 1561 173 20740 191 260
internal_count=1159790 6373 1153417 6065 308 19052 1134365 4911 45 1154 263 4343 13490 146 1113625 5562 117 3700 13465 1154 894 1112471 93 69 568 1561 173 20740 191 260
is_linear=0
shrinkage=0.03


Tree=2
num_leaves=31
num_cat=0
split_feature=27 31 59 31 19 59 59 59 40 31 31 27 50 50 27 50 59 35 15 26 59 21 18 27 50 26 56 15 59 26
split_gain=1.95782e+06 879056 447353 198537 170259 68932.1 46970.8 43455.1 35500.8 34208.9 32580.9 22914.8 18817.2 16370.4 13985.2 13678.9 13405.6 11604.8 11308.2 10762.7 10369.8 9906.05 9497.79 8076.84 7955.53 7905.69 7345.5 6826.68 6825.31 7522.81
threshold=2.5557746584264551 3.1458704559304942 1.9994307496879526 2.9924530114066923 3.2038272593500001 2.3798770747242739 1.7569298107166955 1.6896499012987183 2.1775689544315386 3.1868598978563032 3.1037055498559676 2.7989223907527161 3.1005461647686214 2.2907084908076967 1.9000061002323756 2.2641449702448875 2.6123434328153543 3.1561775034381498 3.1492097285216576 1.0326249989513223 3.0894842861087097 2.3381638439926724 2.8069446774919995 1.6052383127622802 3.1105283007795936 1.7849214812861649 2.5069288353575372 2.2334197061870715 2.8483901672245566 1.8147125765269887
decision_type=2 2 2 2 2 2 2 2 2 2 2 2 2 2 2 2 2 2 2 2 2 2 2 2 2 2 2 2 2 2
left_child=2 3 7 6 9 12 25 15 -6 13 21 24 14 -3 -4 26 -7 18 22 -17 -13 27 -11 -9 28 -2 -1 -5 29 -8
right_child=1 4 5 10 8 16 11 23 -10 17 -12 20 -14 -15 -16 19 -18 -19 -20 -21 -22 -23 -24 -25 -26 -27 -28 -29 -30 -31
leaf_value=-0.0065416332990892671 0.41656543479515956 2.2805725519997733 0.076656477849297328 1.210164743570181 3.019872974395752 0.19826137384763776 0.76612824786793099 0.02231537927950614 4.8073492240905757 2.2446440999261266 1.0082184416746263 0.46044777775045687 0.924053082704544 1.3753346867752074 0.13480865634714354 0.22955330844750704 0.30646379529469886 2.76249317779541 2.5460996123722621 0.031898908710186878 0.68964596890486196 0.46558967546631508 1.5315806007385253 0.059276825241718054 0.8597116650475396 0.064985138722234839 0.050395970701032473 0.71265103452723388 0.42483113923738169 0.30974144696447364
leaf_weight=1103924 65 21 9142 26 20 4196 33 17738 20 29 424 1218 25 125 6278 376 1366 25 28 728 208 156 40 7601 27 503 2043 548 688 2169
leaf_count=1103924 65 21 9142 26 20 4196 33 17738 20 29 424 1218 25 125 6278 376 1366 25 28 728 208 156 40 7601 27 503 2043 548 688 2169
internal_value=0 0.524372 -0.00289732 0.444972 2.08787 0.134277 0.361768 -0.005442 3.91361 1.81537 0.799059 0.395321 0.101665 1.50554 0.100332 -0.0063311 0.224835 2.18616 2.03762 0.099216 0.493879 0.677574 1.83127 0.0334028 0.34714 0.105219 -0.00643646 0.735186 0.342351 0.316581
internal_weight=0 6373 1.15342e+06 6065 308 21007 4911 1.13241e+06 40 268 1154 4343 15445 146 15420 1.10707e+06 5562 122 97 1104 1426 730 69 25339 2917 568 1.10597e+06 574 2890 2202
internal_count=1159790 6373 1153417 6065 308 21007 4911 1132410 40 268 1154 4343 15445 146 15420 1107071 5562 122 97 1104 1426 730 69 25339 2917 568 1105967 574 2890 2202
is_linear=0
shrinkage=0.03


Tree=3
num_leaves=31
num_cat=0
split_feature=27 31 59 31 19 59 59 59 40 31 31 59 50 50 27 50 59 31 35 15 26 59 18 14 26 27 61 56 30 25
split_gain=1.84211e+06 827104 420914 186804 160197 64858.2 44194.8 40915.4 33402.7 32187.2 31109.2 21780.1 17705.1 15402.9 13174.7 13030 12613.3 11069.1 10919 10639.9 10042.4 9883.12 8936.48 7699.14 7442.09 7298.87 7196.15 7043.72 6711.32 6282.24
threshold=2.5557746584264551 3.1458704559304942 1.9994307496879526 2.9924530114066923 3.2038272593500001 2.3798770747242739 1.7569298107166955 1.6976084423237512 2.1775689544315386 3.1868598978563032 3.1140126319261161 2.9673156192244474 3.1005461647686214 2.2907084908076967 1.8830758526249889 2.2641449702448875 2.6123434328153543 2.7230974043212322 3.1561775034381498 3.1492097285216576 1.0326249989513223 1.7399575317040388 2.8069446774919995 1.7199458468135815 1.7923779166457361 1.7173287508958597 2.4193907692570567 2.5037325230230447 3.1027126479068166 2.87248727773382
decision_type=2 2 2 2 2 2 2 2 2 2 2 2 2 2 2 2 2 2 2 2 2 2 2 2 2 2 2 2 2 2
left_child=2 3 7 6 9 12 24 15 -6 13 21 17 14 -3 -4 27 -7 -8 19 22 -17 -5 -11 26 -2 -9 -19 -1 -12 -15
right_child=1 4 5 10 8 16 11 25 -10 18 28 -13 -14 29 -16 20 -18 23 -20 -21 -22 -23 -24 -25 -26 -27 -28 -29 -30 -31
leaf_value=-0.0063348478479171039 0.40154674597761847 2.212155316216605 0.073379031578177961 0.18158665562217885 2.9292767829895019 0.19231353595838646 0.31112741429332597 0.025465566674554563 4.6631286106109613 2.1773047749749543 1.2826181960526635 0.54461924457994992 0.89633147091865528 1.7703680229187011 0.12943793461437178 0.22266671088147669 0.29726987666301813 0.53495838716918342 2.6796183654785155 2.4697166674477713 0.032050993317315278 0.71061448367319036 1.4856331343650817 0.39267374510917091 0.062687777707304992 0.068283575750801948 1.1400676817893982 0.04798058346639901 0.95769295486041472 1.230400966700941
leaf_weight=1104681 66 21 8834 33 20 4196 2139 20105 20 29 85 643 25 24 6586 376 1366 153 25 28 735 861 40 1388 502 4360 20 2153 175 101
leaf_count=1104681 66 21 8834 33 20 4196 2139 20105 20 29 85 643 25 24 6586 376 1366 153 25 28 735 861 40 1388 502 4360 20 2153 175 101
internal_value=0 0.508641 -0.0028104 0.431623 2.02524 0.130249 0.350915 -0.00527874 3.7962 1.76091 0.775087 0.383461 0.0986155 1.46037 0.0973222 -0.00612612 0.21809 0.355455 2.12057 1.97649 0.0965618 0.691087 1.77634 0.416195 0.102062 0.0330963 0.604913 -0.00622919 1.06392 1.33407
internal_weight=0 6373 1.15342e+06 6065 308 21007 4911 1.13241e+06 40 268 1154 4343 15445 146 15420 1.10794e+06 5562 3700 122 97 1111 894 69 1561 568 24465 173 1.10683e+06 260 125
internal_count=1159790 6373 1153417 6065 308 21007 4911 1132410 40 268 1154 4343 15445 146 15420 1107945 5562 3700 122 97 1111 894 69 1561 568 24465 173 1106834 260 125
is_linear=0
shrinkage=0.03


Tree=4
num_leaves=31
num_cat=0
split_feature=27 31 59 19 31 59 59 40 31 31 59 50 27 26 50 59 59 50 35 15 47 59 56 18 56 62 22 59 26 26
split_gain=1.73427e+06 699680 505037 150729 127066 70388.3 61280.7 31428.6 30284.9 29814.9 29099.6 17654.7 17493.6 14868.7 14206.1 13992.2 12135.3 11643.7 10273.7 10011.1 9684.02 9309.89 9191.12 8408.33 7116.68 7100.83 6281.99 5922.35 7631.52 7253.26
threshold=2.6706253287683466 3.1458704559304942 2.0780529142578845 3.2038272593500001 2.9924530114066923 2.4859588124387688 1.7668627940659598 2.1775689544315386 3.1868598978563032 3.1140126319261161 1.9791819590618136 3.1005461647686214 2.1361123931241246 3.0450399997170798 2.2641449702448875 3.0894842861087097 2.7579346219997718 2.4455831653098694 3.1561775034381498 3.1492097285216576 2.1744847208407125 1.7399575317040388 2.5244448441108993 2.8069446774919995 2.5074813958161886 1.946271605811801 1.0000000180025095e-35 3.0894842861087097 2.7778385151643441 3.0450399997170798
decision_type=2 2 2 2 2 2 2 2 2 2 2 2 2 2 2 2 2 2 2 2 2 2 2 2 2 2 2 2 2 2
left_child=2 4 6 8 10 11 14 -5 13 21 -2 12 -4 -3 22 -12 -7 24 19 23 -16 -6 25 -10 -8 -1 -11 28 -23 -29
right_child=1 3 5 7 9 16 17 -9 18 26 15 -13 -14 -15 20 -17 -18 -19 -20 -21 -22 27 -24 -25 -26 -27 -28 29 -30 -31
leaf_value=-0.0063218976536283077 0.14297791726192574 2.0991461610794069 0.098962133880525008 2.8413984146118163 0.17613906138661231 0.23480034732342187 0.038318463844212364 4.523234939575195 2.1119857288229054 1.4605890829222543 0.39571587978271516 0.90265294845287614 0.17352655704392514 1.2822839969885154 0.20426557231441189 0.61932550678049547 0.35927904068954347 0.25426734246219257 2.5992297637939452 2.395625177110944 0.029095576283642378 0.8001748880081706 0.054036437633694916 1.4410641446113586 0.10903733863642341 0.013185834477001739 0.98477777350645557 1.2712268851353572 0.55357561356899876 0.74882181850165419
leaf_weight=1094779 394 24 9952 20 33 3403 20070 20 29 28 2428 26 3958 122 467 281 889 237 25 28 725 162 2298 40 1368 17055 231 26 373 299
leaf_count=1094779 394 24 9952 20 33 3403 20070 20 29 28 2428 26 3958 122 467 281 889 237 25 28 725 162 2298 40 1368 17055 231 26 373 299
internal_value=0 0.583711 -0.00230559 1.96448 0.483764 0.154355 -0.00481712 3.68232 1.70808 0.752825 0.383874 0.121639 0.120179 1.41656 -0.00578803 0.418911 0.260584 0.0451431 2.05695 1.91719 0.0977234 0.670632 -0.00589878 1.72305 0.0428312 -0.00602266 1.03622 0.689607 0.628247 0.790614
internal_weight=0 4563 1.15523e+06 308 4255 18228 1.137e+06 40 268 1152 3103 13936 13910 146 1.11532e+06 2709 4292 21675 122 97 1192 893 1.11413e+06 69 21438 1.11183e+06 259 860 535 325
internal_count=1159790 4563 1155227 308 4255 18228 1136999 40 268 1152 3103 13936 13910 146 1115324 2709 4292 21675 122 97 1192 893 1114132 69 21438 1111834 259 860 535 325
is_linear=0
shrinkage=0.03


Tree=5
num_leaves=31
num_cat=0
split_feature=27 31 59 31 15 59 59 48 59 31 31 27 50 50 59 35 27 50 26 59 59 27 50 26 32 18 15 26 59 15
split_gain=1.63357e+06 731814 372949 164941 141911 59578.7 39196.9 35648 34407.4 28078.2 25629 19902.7 16872.8 14374.7 12913.2 11203.5 10990 10471.5 9698.4 9095.55 8848.16 7645.08 7362.54 6963.44 6892.75 6423.27 8123.91 6254.19 6511.6 5889.37
threshold=2.5557746584264551 3.1458704559304942 1.9898455517337668 2.9924530114066923 3.2554978946713615 2.3485133552090818 1.7569298107166955 2.2111364869107888 1.6539756057230057 3.1037055498559676 3.1868598978563032 2.7989223907527161 3.1005461647686214 2.2907084908076967 2.5992571811379155 3.1561775034381498 1.8830758526249889 2.2641449702448875 1.0326249989513223 2.4507100612421016 3.0894842861087097 1.5473117168162316 3.1105283007795936 1.7923779166457361 1.7031582848023412 2.5270702150562898 2.7385643119251095 1.8147125765269887 2.8483901672245566 2.2334197061870715
decision_type=2 2 2 2 2 2 2 2 2 2 2 2 2 2 2 2 2 2 2 2 2 2 2 2 2 2 2 2 2 2
left_child=2 3 8 6 10 12 23 -6 17 19 13 22 16 -3 -7 24 -4 -1 -19 -5 -13 -10 27 -2 -12 26 -11 -8 -29 -21
right_child=1 4 5 9 7 14 11 -9 21 25 15 20 -14 -15 -16 -17 -18 18 -20 29 -22 -23 -24 -25 -26 -27 -28 28 -30 -31
leaf_value=-0.0059425819532298446 0.38603516025976697 2.1003205272129604 0.067288353381779548 0.32672112528321351 2.7070896423339841 0.17461385060513587 0.72247744343497533 4.4063511142730709 0.016566696679208633 0.96649402176461574 2.1610870776456941 0.42232298231330412 0.90088854638130766 1.2520550553131105 0.2756703018759149 2.5478805065155026 0.1192917633060597 0.21083708165798018 0.020967703724636091 1.0807222248826709 0.63403823719574859 0.049463592529524758 0.80954794883728032 0.058254376477367094 1.6248047175649869 0.83481361309835012 1.5030832940340042 0.28159133941986253 0.38751583099365233 0.63585616803014433
leaf_weight=1101781 66 21 9305 86 25 4776 33 20 19529 123 34 1218 23 125 1494 24 6026 376 680 28 208 9427 27 502 59 269 32 2169 688 616
leaf_count=1101781 66 21 9305 86 25 4776 33 20 19529 123 34 1218 23 125 1494 24 6026 376 680 28 208 9427 27 502 59 269 32 2169 688 616
internal_value=0 0.478985 -0.00264654 0.406539 1.90554 0.120768 0.330701 3.46232 -0.00500451 0.729279 1.63918 0.361352 0.0889469 1.37407 0.198693 1.97 0.0877288 -0.00585208 0.0885727 0.616501 0.453204 0.0272767 0.316449 0.0963416 1.82086 0.923449 1.07727 0.311842 0.307099 0.655198
internal_weight=0 6373 1.15342e+06 6065 308 21624 4911 45 1.13179e+06 1154 263 4343 15354 146 6270 117 15331 1.10284e+06 1056 730 1426 28956 2917 568 93 424 155 2890 2857 644
internal_count=1159790 6373 1153417 6065 308 21624 4911 45 1131793 1154 263 4343 15354 146 6270 117 15331 1102837 1056 730 1426 28956 2917 568 93 424 155 2890 2857 644
is_linear=0
shrinkage=0.03


Tree=6
num_leaves=31
num_cat=0
split_feature=27 31 59 31 19 59 59 59 40 31 31 27 50 26 50 27 35 15 21 47 59 59 56 18 50 26 27 50 56 15
split_gain=1.53703e+06 688564 351117 155193 133725 48238.1 41675.4 36880.3 28382.1 26760.6 26418.8 18726.4 14490.1 13876 11779 11088.2 9080.13 9160.4 8767.85 8643.36 8603.98 8325.23 8112.95 7860.9 6927.42 6568.31 6358.59 6261.78 6242.78 6077.68
threshold=2.5557746584264551 3.1458704559304942 2.0347489031500099 2.9924530114066923 3.2038272593500001 2.4146182818961939 1.7614062611217014 1.7569298107166955 2.1775689544315386 3.1868598978563032 3.1037055498559676 2.7989223907527161 3.1005461647686214 3.0450399997170798 2.2793273352349135 2.0973288422494956 3.1561775034381498 3.1492097285216576 2.3381638439926724 2.424330305613998 2.6123434328153543 3.0894842861087097 2.537203327201365 2.8069446774919995 3.1105283007795936 2.1577468690720987 1.6224615815337489 2.1707120614911553 2.5763241865320441 2.2334197061870715
decision_type=2 2 2 2 2 2 2 2 2 2 2 2 2 2 2 2 2 2 2 2 2 2 2 2 2 2 2 2 2 2
left_child=2 3 6 7 9 12 14 25 -6 13 18 24 15 -3 22 28 17 23 29 -16 -7 -13 26 -11 -9 -2 -1 -8 -4 -5
right_child=1 4 5 10 8 20 27 11 -10 16 -12 21 -14 -15 19 -17 -18 -19 -20 -21 -22 -23 -24 -25 -26 -27 -28 -29 -30 -31
leaf_value=-0.0060503611097309359 0.28649455089392445 1.9922481253743172 0.076145204863568614 1.1003722770397479 2.6672971572875976 0.18253202951970121 0.034644421659093601 0.30248703827364787 4.265542751312255 1.9937794363087622 0.89574534187620536 0.40965329788515131 0.8194125105857849 1.2031249696700299 0.18964084878142426 0.14538801478827545 2.4446254188537595 2.2610835824693951 0.39857150870160413 0.017863568961743802 0.27188400120546669 0.61501709392437565 0.052603387598316433 1.3450659656524657 0.78526151339213057 0.039538362799731483 0.0085465568549549804 0.11512052493623311 0.16512776107299984 0.63094421448933813
leaf_weight=1083717 124 24 10318 26 20 3345 18974 2890 20 29 424 1218 25 122 474 3236 25 28 156 594 1366 208 2153 40 27 444 27541 912 762 548
leaf_count=1083717 124 24 10318 26 20 3345 18974 2890 20 29 424 1218 25 122 474 3236 25 28 156 594 1366 208 2153 40 27 444 27541 912 762 548
internal_value=0 0.464615 -0.00256715 0.394343 1.84838 0.125153 -0.00471225 0.32078 3.46642 1.60688 0.707401 0.350511 0.0977934 1.33284 -0.00548036 0.0965332 1.93482 1.80343 0.598006 0.0941018 0.20844 0.439608 -0.00557588 1.61771 0.306956 0.0934513 -0.0056886 0.0383352 0.0822648 0.652208
internal_weight=0 6373 1.15342e+06 6065 308 19052 1.13436e+06 4911 40 268 1154 4343 14341 146 1.11448e+06 14316 122 97 730 1068 4711 1426 1.11341e+06 69 2917 568 1.11126e+06 19886 11080 574
internal_count=1159790 6373 1153417 6065 308 19052 1134365 4911 40 268 1154 4343 14341 146 1114479 14316 122 97 730 1068 4711 1426 1113411 69 2917 568 1111258 19886 11080 574
is_linear=0
shrinkage=0.03


Tree=7
num_leaves=31
num_cat=0
split_feature=27 31 59 19 31 59 59 48 31 59 31 50 31 50 50 50 31 59 59 59 35 15 47 56 29 56 31 56 26 9
split_gain=1.4474e+06 567400 441864 125822 97315.5 65916.9 52959.4 27146.7 25179.1 24068.6 22841.1 18366.3 13483.4 13415 12151.2 11259.3 10349.6 10047 9112.59 8567.02 8543.49 8619.02 8411.1 8233.9 7536.96 7152.26 6594.24 6319.13 5973.12 7119.98
threshold=2.6928036555510917 3.1458704559304942 2.135473756068516 3.2038272593500001 3.0178945157469887 1.7739105614181203 2.5174440213318503 2.1723502798641312 3.1868598978563032 1.9594421453529078 3.1140126319261161 3.0909815160997809 2.3031348783569108 2.2907084908076967 2.2793273352349135 3.1537494883258912 2.1495094099314076 2.7756469160226107 3.1209198613801887 1.7712305117209501 3.1561775034381498 3.1492097285216576 2.424330305613998 2.5037325230230447 3.0903583751347079 2.560729943704978 1.7458874199075167 2.5292418825987815 3.0908657449859867 1.8260038259872899
decision_type=2 2 2 2 2 2 2 2 2 2 2 2 2 2 2 2 2 2 2 2 2 2 2 2 2 2 2 2 2 2
left_child=2 4 5 8 9 14 12 -5 13 -2 19 16 27 -3 23 18 25 -8 -11 -6 21 24 -16 26 -10 -7 -1 -4 29 -12
right_child=1 3 6 7 10 11 17 -9 20 15 28 -13 -14 -15 22 -17 -18 -19 -20 -21 -22 -23 -24 -25 -26 -27 -28 -29 -30 -31
leaf_value=-0.0058075664231238243 0.1297024084690678 1.9944532322883604 0.10151255273329453 2.5808899269104004 0.15926174824728684 0.035407674660409567 0.22528175390501382 4.1439649200439455 2.0125965947690219 0.38259345380654736 1.6449782221657889 0.89265276820763295 0.19344991823888824 1.1749906228637694 0.18553232087540517 0.94093924830941589 0.12248725043946518 0.34038214461333088 0.75983859143014676 0.64637423190092835 2.3712866432189941 2.1932510989052911 0.019245130146825287 0.047370577185997402 1.3474750788315482 0.11127914312201774 0.011523787253155789 0.18294306962206189 0.85861657907133504 0.99397280785772535
leaf_weight=1092140 339 21 8913 20 34 21037 3018 20 23 2479 21 23 2077 125 498 34 1438 882 59 734 25 28 608 2658 46 1181 20122 949 184 54
leaf_count=1092140 339 21 8913 20 34 21037 3018 20 23 2479 21 23 2077 125 498 34 1438 882 59 734 25 28 608 2658 46 1181 20122 949 184 54
internal_value=0 0.552878 -0.00203153 1.79293 0.455891 -0.00421848 0.155332 3.36243 1.55867 0.36731 0.70697 0.0453127 0.123979 1.29286 -0.0052694 0.398628 0.0444889 0.251312 0.391363 0.624809 1.87678 1.74933 0.0941195 -0.00536799 1.56918 0.0394406 -0.00549402 0.109348 0.950597 1.17625
internal_weight=0 4246 1.15554e+06 308 3938 1.1397e+06 15839 40 268 2911 1027 23679 11939 146 1.11603e+06 2572 23656 3900 2538 768 122 97 1106 1.11492e+06 69 22218 1.11226e+06 9862 259 75
internal_count=1159790 4246 1155544 308 3938 1139705 15839 40 268 2911 1027 23679 11939 146 1116026 2572 23656 3900 2538 768 122 97 1106 1114920 69 22218 1112262 9862 259 75
is_linear=0
shrinkage=0.03


Tree=8
num_leaves=31
num_cat=0
split_feature=27 31 59 31 15 59 59 48 59 31 31 59 50 26 59 27 35 50 27 26 21 30 50 29 26 50 22 59 62 24
split_gain=1.36283e+06 609263 311483 137334 118423 54123.6 32628.8 30537.2 24872.7 23720.6 21309.2 17280.1 14759 12949.6 10720.2 10667.7 9406.02 8732.85 8543.77 8495.12 8210.48 6400.45 6360.69 6287.76 6239.07 6235.24 5876.92 5748.81 5216.38 5187.68
threshold=2.5557746584264551 3.1458704559304942 1.9651265688154118 2.9924530114066923 3.2554978946713615 2.3485133552090818 1.7569298107166955 2.2111364869107888 1.6539756057230057 3.1140126319261161 3.1868598978563032 2.9673156192244474 3.0445150061678619 3.0450399997170798 2.5992571811379155 1.8709668614188779 3.1561775034381498 2.2377752608591162 2.8365580397856349 1.0326249989513223 2.3381638439926724 1.8465360068640242 3.1183214625726441 3.0950562855453438 1.7849214812861649 2.0155843474457593 1.0000000180025095e-35 2.4677492733905102 1.9340509389175258 2.9704947327460998
decision_type=2 2 2 2 2 2 2 2 2 2 2 2 2 2 2 2 2 2 2 2 2 2 2 2 2 2 2 2 2 2
left_child=2 3 8 6 10 12 24 -6 17 20 13 18 15 -3 -7 -4 23 28 21 -19 -5 -8 -23 -12 -2 -10 -11 -22 -1 -15
right_child=1 4 5 9 7 14 11 -9 25 26 16 -13 -14 29 -16 -17 -18 19 -20 -21 27 22 -24 -25 -26 -27 -28 -29 -30 -31
leaf_value=-0.0056933185789629212 0.36495675444602965 1.8910850393585861 0.058629594530402548 0.63992750413217714 2.4622606613159181 0.15983188242618762 0.64039897620677944 4.0350002059936516 0.019834548860323993 1.328657397202083 1.9642932097976273 0.47370494250746942 0.73254156427998696 1.3595781292634852 0.25190825674907269 0.1077787093768053 2.3269666957855222 0.18431357160803269 0.39221569118028038 0.018272623288047754 0.14173073066174985 0.27151230955189387 0.74289165148368241 1.4603103855678012 0.052626127158337921 0.078313617064240768 0.86854919893988247 0.51612782265277624 0.01139297090304384 0.96295914112682068
leaf_weight=1085272 65 24 10434 703 25 4776 44 20 25672 28 37 643 31 51 1494 6420 24 418 797 824 50 2833 26 56 503 1753 232 141 16323 71
leaf_count=1085272 65 24 10434 703 25 4776 44 20 25672 28 37 643 31 51 1494 6420 24 418 797 824 50 2833 26 56 503 1753 232 141 16323 71
internal_value=0 0.437495 -0.0024173 0.371394 1.73914 0.106504 0.302193 3.16126 -0.00464871 0.665889 1.49581 0.330158 0.0785543 1.25407 0.181772 0.0773514 1.79747 -0.0053505 0.305212 0.0741544 0.592539 0.281325 0.275799 1.66082 0.0883682 0.0235725 0.918099 0.418118 -0.00544014 1.12876
internal_weight=0 6373 1.15342e+06 6065 308 23155 4911 45 1.13026e+06 1154 263 4343 16885 146 6270 16854 117 1.10284e+06 3700 1242 894 2903 2859 93 568 27425 260 191 1.1016e+06 122
internal_count=1159790 6373 1153417 6065 308 23155 4911 45 1130262 1154 263 4343 16885 146 6270 16854 117 1102837 3700 1242 894 2903 2859 93 568 27425 260 191 1101595 122
is_linear=0
shrinkage=0.03


Tree=9
num_leaves=31
num_cat=0
split_feature=27 31 59 19 31 59 59 40 59 31 31 50 50 59 50 50 27 59 59 56 47 35 15 50 18 31 27 31 26 9
split_gain=1.28329e+06 515212 373627 111626 93350.4 49735.6 48564.4 24717.3 23125.9 22249.2 20191.5 12904 12337.4 11508.2 11079.6 10667.4 9669.61 9592.23 7766.52 7608.02 7562.14 7548.77 8024.51 7096.04 6876.63 6854.03 6827.81 5935.48 5573.97 6615
threshold=2.6706253287683466 3.1458704559304942 2.0911397447794564 3.2038272593500001 3.0178945157469887 2.4859588124387688 1.7689387892921522 2.1775689544315386 1.9791819590618136 3.1868598978563032 3.1140126319261161 2.6564453350645145 2.2907084908076967 3.0894842861087097 2.5438907400113782 2.2793273352349135 2.1361123931241246 2.7579346219997718 1.7712305117209501 2.5309371590146026 2.424330305613998 3.1561775034381498 3.1492097285216576 3.1005461647686214 2.8069446774919995 2.8950740978889997 2.0076455880105226 1.590251828115212 3.0908657449859867 1.8260038259872899
decision_type=2 2 2 2 2 2 2 2 2 2 2 2 2 2 2 2 2 2 2 2 2 2 2 2 2 2 2 2 2 2
left_child=2 4 6 9 8 11 15 -5 -2 12 18 16 -3 25 26 19 -4 -7 -6 27 -17 22 24 -13 -11 -10 -8 -1 29 -12
right_child=1 3 5 7 10 17 14 -9 13 21 28 23 -14 -15 -16 20 -18 -19 -20 -21 -22 -23 -24 -25 -26 -27 -28 -29 -30 -31
leaf_value=-0.0055491920994856763 0.12266210789053281 1.8892764699459075 0.085177309492854097 2.4195279321670533 0.14495694724075933 0.20145200447513537 0.032800660944391408 3.9110225143432618 0.31958523362607538 1.823458688341338 1.5643140288761683 0.24203804592984593 1.10341583278656 0.53933555032662639 0.28106624271501512 0.17570513687272221 0.1432627004133179 0.31212176646907364 0.60875358702239324 0.049910075837776867 0.017418695845987552 2.230176761627197 2.073885223184313 0.78441571417062173 1.2167159764766693 0.43889784714944069 0.092092344353968486 0.0077201445263577785 0.80567632447118342 0.93681905852423764
leaf_weight=1080940 397 21 9189 20 34 3403 20152 20 1964 29 21 387 125 311 170 493 3586 889 734 2261 605 25 28 23 40 556 1914 31215 184 54
leaf_count=1080940 397 21 9189 20 34 3403 20152 20 1964 29 21 387 125 311 170 493 3586 889 734 2261 605 25 28 23 40 556 1914 31215 184 54
internal_value=0 0.502114 -0.00198329 1.68696 0.416348 0.135673 -0.00409783 3.16528 0.337089 1.46632 0.665469 0.106799 1.21645 0.367159 0.0398023 -0.00497291 0.101482 0.224375 0.588221 -0.005065 0.088489 1.76535 1.64554 0.272464 1.47172 0.34591 0.0379436 -0.00517676 0.89453 1.11252
internal_weight=0 4563 1.15523e+06 308 4255 17477 1.13775e+06 40 3228 268 1027 13185 146 2831 22236 1.11551e+06 12775 4292 768 1.11442e+06 1098 122 97 410 69 2520 22066 1.11216e+06 259 75
internal_count=1159790 4563 1155227 308 4255 17477 1137750 40 3228 268 1027 13185 146 2831 22236 1115514 12775 4292 768 1114416 1098 122 97 410 69 2520 22066 1112155 259 75
is_linear=0
shrinkage=0.03


Tree=10
num_leaves=31
num_cat=0
split_feature=27 31 59 31 19 59 59 59 40 31 31 59 50 26 27 56 59 27 50 26 21 27 35 15 29 27 30 26 50 18
split_gain=1.20826e+06 539112 276195 121412 105029 44363.4 28911.2 25780.9 23256.5 21574.9 20934.2 15454.4 13170.4 12085.8 10047.8 8775.88 8372.15 8344.88 7876.9 9226.18 7546.61 7144.62 7102.64 7550.27 6550.78 6178.54 5950.39 5896.65 5830.22 5800.47
threshold=2.5557746584264551 3.1458704559304942 1.9898455517337668 2.9924530114066923 3.2038272593500001 2.3798770747242739 1.7543523710438729 1.6539756057230057 2.1775689544315386 3.1037055498559676 3.1868598978563032 3.019058020909934 2.6564453350645145 3.0450399997170798 1.6861966050274559 2.5762030001793623 2.6123434328153543 2.8365580397856349 2.1347346384637409 1.1794353242208271 2.3381638439926724 1.8627963258709217 3.1561775034381498 3.1492097285216576 3.0903583751347079 1.6094986045933524 1.8465360068640242 2.1577468690720987 3.1183214625726441 2.5270702150562898
decision_type=2 2 2 2 2 2 2 2 2 2 2 2 2 2 2 2 2 2 2 2 2 2 2 2 2 2 2 2 2 2
left_child=2 3 7 6 10 12 27 18 -6 20 13 17 15 -3 -14 21 -7 26 -1 -20 -5 -4 23 24 -12 -9 -8 -2 -28 -11
right_child=1 4 5 9 8 16 11 25 -10 29 22 -13 14 -15 -16 -17 -18 -19 19 -21 -22 -23 -24 -25 -26 -27 28 -29 -30 -31
leaf_value=-0.0051557328599962102 0.26607974654934818 1.7953560408949851 0.051145549839304506 0.57808369418262184 2.3469421148300169 0.15595128065751096 0.61434091825376846 0.015334701833797988 3.7936917486190795 0.94303853926350989 1.8409603176946225 0.47601686607043642 0.93176937375749858 1.0588949928127351 0.24244704797350128 0.15351446317550832 0.24146033094707728 0.37356650766182675 0.14142066376422727 0.011103292173626465 0.34277373202145101 0.093587552275219379 2.1632714538574218 2.011668699809483 1.2208779169165569 0.046766550984735512 0.25895376784242718 0.032032859494644753 0.71016846216641938 0.71263248996608319
leaf_weight=1100502 124 24 8472 574 20 4196 44 21307 20 155 23 457 21 122 203 1197 1366 868 697 1638 156 6169 25 28 46 7649 2949 443 26 269
leaf_count=1100502 124 24 8472 574 20 4196 44 21307 20 155 23 457 21 122 203 1197 1366 868 697 1638 156 6169 25 28 46 7649 2949 443 26 269
internal_value=0 0.411939 -0.0022761 0.34976 1.63636 0.103931 0.284694 -0.00430528 3.07032 0.626657 1.42233 0.310991 0.0786445 1.17996 0.307071 0.0754138 0.176952 0.291589 -0.00503895 0.0500032 0.527798 0.0690285 1.71239 1.59618 1.42757 0.0236377 0.268019 0.0832177 0.262897 0.796861
internal_weight=0 6373 1.15342e+06 6065 308 21624 4911 1.13179e+06 40 1154 268 4344 16062 146 224 15838 5562 3887 1.10284e+06 2335 730 14641 122 97 69 28956 3019 567 2975 424
internal_count=1159790 6373 1153417 6065 308 21624 4911 1131793 40 1154 268 4344 16062 146 224 15838 5562 3887 1102837 2335 730 14641 122 97 69 28956 3019 567 2975 424
is_linear=0
shrinkage=0.03


Tree=11
num_leaves=31
num_cat=0
split_feature=27 31 59 19 31 59 31 48 31 59 31 50 50 50 59 50 47 50 59 59 59 56 56 35 15 18 62 15 26 22
split_gain=1.13801e+06 444065 347535 98821.6 76020 51634.9 42039 22356.2 19697 19177.4 18233.1 15576.3 11513.1 10087.1 9976.03 9756.33 9416.12 8696.19 8267.99 7904.72 7180.19 7012.38 6780.24 6682.87 7104.04 6221.26 5738.57 5552.59 5293.35 5246.61
threshold=2.6928036555510917 3.1458704559304942 2.135473756068516 3.2038272593500001 3.0178945157469887 1.7813924376863339 2.3031348783569108 2.1723502798641312 3.1868598978563032 1.9791819590618136 3.1140126319261161 3.0909815160997809 2.2907084908076967 3.1537494883258912 2.7084462105238245 2.1347346384637409 1.8728457725493051 2.3656741225147289 2.4146182818961939 3.1209198613801887 1.7712305117209501 2.5037325230230447 2.5074813958161886 3.1561775034381498 3.1492097285216576 2.8069446774919995 2.0581895078656234 2.2334197061870715 2.2514405131411404 1.0000000180025095e-35
decision_type=2 2 2 2 2 2 2 2 2 2 2 2 2 2 2 2 2 2 2 2 2 2 2 2 2 2 2 2 2 2
left_child=2 4 5 8 9 15 18 -5 12 28 20 17 -3 19 -8 21 -17 22 -4 -11 -6 26 -7 24 25 -10 -1 -22 -2 -12
right_child=1 3 6 7 10 11 14 -9 23 13 29 -13 -14 -15 -16 16 -18 -19 -20 -21 27 -23 -24 -25 -26 -27 -28 -29 -30 -31
leaf_value=-0.0051381958970911634 0.31083049747736213 1.7945188297544208 0.090313397732879608 2.2689718008041382 0.12674007834318807 0.032840781227827132 0.18400632793051955 3.687443106651306 1.7192992864806076 0.33954249271621262 1.2318465788023811 0.82104895964912739 1.0353650120544433 0.8679466589759377 0.28033619736997217 0.15022194146911944 0.020024542657266105 0.16794511099083301 0.15537993583838289 0.69091727353758725 1.0534769390310561 0.044227418083316761 0.0981552740675109 2.0983732612609862 1.9513185923440117 1.1421929490566254 0.015477441073178111 0.55852541565414393 0.047737177596717403 0.79701067590094232
leaf_weight=1099117 94 21 8468 20 34 20999 3862 20 29 2467 28 23 125 34 1291 668 1987 468 2218 59 21 2620 1535 25 28 40 12288 713 257 231
leaf_count=1099117 94 21 8468 20 34 20999 3862 20 29 2467 28 23 125 34 1291 668 1987 468 2218 59 21 2620 1535 25 28 40 12288 713 257 231
internal_value=0 0.490238 -0.00180136 1.58726 0.404437 -0.00374088 0.137758 2.97821 1.37966 0.326146 0.626351 0.0407285 1.14456 0.354658 0.20814 -0.00465781 0.0527823 0.0399483 0.103819 0.34775 0.552944 -0.0047947 0.03729 1.66101 1.54829 1.38474 -0.00491026 0.572686 0.118195 0.84402
internal_weight=0 4246 1.15554e+06 308 3938 1.1397e+06 15839 40 268 2911 1027 23025 146 2560 5153 1.11668e+06 2655 23002 10686 2526 768 1.11402e+06 22534 122 97 69 1.1114e+06 734 351 259
internal_count=1159790 4246 1155544 308 3938 1139705 15839 40 268 2911 1027 23025 146 2560 5153 1116680 2655 23002 10686 2526 768 1114025 22534 122 97 69 1111405 734 351 259
is_linear=0
shrinkage=0.03


Tree=12
num_leaves=31
num_cat=0
split_feature=27 31 59 31 15 59 59 48 31 31 59 59 50 26 59 31 35 59 50 31 14 61 26 56 32 26 59 26 58 26
split_gain=1.07135e+06 477019 245143 107424 93057.2 46155 25563.7 25163.5 19367 16656.8 16174.8 14160.4 12639.4 11279.6 10293.4 8329.09 7466.32 7045 7002.47 6935.38 7154.56 6738.6 6706.3 6176.73 5824.93 5598.83 6805.24 5495.85 5441.37 6641.58
threshold=2.5557746584264551 3.1458704559304942 1.9359986300856129 2.9924530114066923 3.2554978946713615 2.3100527917198663 1.7543523710438729 2.2111364869107888 3.1037055498559676 3.1868598978563032 1.0000000180025095e-35 2.9673156192244474 3.0445150061678619 3.0450399997170798 2.5627685417579058 2.1079537200601828 3.1561775034381498 2.4507100612421016 2.3113697069462549 2.7230974043212322 1.7199458468135815 2.4193907692570567 1.049865878107628 2.5309371590146026 1.7031582848023412 2.7778385151643441 3.0894842861087097 1.5606015590433604 1.8279141178023302 2.8418361480787171
decision_type=2 2 2 2 2 2 2 2 2 2 2 2 2 2 2 2 2 2 2 2 2 2 2 2 2 2 2 2 2 2
left_child=2 3 10 6 9 12 27 -6 17 13 18 19 15 -3 -7 23 24 -5 -1 -8 21 -21 -20 -4 -11 -19 -27 -2 -10 -30
right_child=1 4 5 8 7 14 11 -9 28 16 -12 -13 -14 -15 -16 -17 -18 25 22 20 -22 -23 -24 -25 -26 26 -28 -29 29 -31
leaf_value=-0.0048128824671415755 0.38243155170460136 1.7047407627105713 0.050255729766367545 0.24117273527175878 2.1657710563659669 0.1327711793278066 0.23528338336335847 3.5934405541419983 0.29172498204491354 1.781663958044613 0.019244530832581472 0.42288197560406771 0.67000641138322881 0.99326703745810718 0.21300443225945409 0.1163261341824445 2.0624030327796934 0.73182265547605652 0.19224955192115456 0.43266879474999859 0.29576745423386325 1.0182248559594154 0.014693795778424031 0.12341150674726366 1.2886687485646393 0.3947490688680193 0.60874183088052458 0.050026877250820827 1.1482885933839357 0.73630083682739034
leaf_weight=1101822 49 24 14154 86 25 5275 2140 20 22 34 25882 643 31 122 1979 2347 24 104 313 153 1388 20 493 1121 59 296 244 518 39 363
leaf_count=1101822 49 24 14154 86 25 5275 2140 20 22 34 25882 643 31 122 1979 2347 24 104 313 153 1388 20 493 1121 59 296 244 518 39 363
internal_value=0 0.387899 -0.00214327 0.329409 1.53965 0.0909526 0.268206 2.80029 0.589868 1.32395 -0.00419796 0.292935 0.0647738 1.11022 0.15466 0.0637091 1.59065 0.496204 -0.00474822 0.270358 0.318442 0.500363 0.0836453 0.0556245 1.4689 0.530261 0.491442 0.0787532 0.751128 0.77627
internal_weight=0 6373 1.15342e+06 6065 308 24907 4911 45 1154 263 1.12851e+06 4344 17653 146 7254 17622 117 730 1.10263e+06 3701 1561 173 806 15275 93 644 540 567 424 402
internal_count=1159790 6373 1153417 6065 308 24907 4911 45 1154 263 1128510 4344 17653 146 7254 17622 117 730 1102628 3701 1561 173 806 15275 93 644 540 567 424 402
is_linear=0
shrinkage=0.03


Tree=13
num_leaves=31
num_cat=0
split_feature=59 31 59 15 27 50 27 31 59 27 11 26 59 50 26 59 26 9 31 32 50 63 26 30 62 59 50 50 56 26
split_gain=1.00954e+06 507167 165328 111862 91932.5 44951.1 36822.4 33820.5 18186.5 14798.3 14738.8 14730.9 13157.8 14227.5 12897.5 11990.1 11843.3 10368.6 9532.31 9110.6 8440.88 8334.14 7440.82 7223.41 9528.97 5960.95 5619.89 5514.41 5205.05 5087.05
threshold=2.4507100612421016 3.1140126319261161 1.8741697217913746 3.2221841718675486 2.8365580397856349 3.1416573922789053 2.3153033884942782 3.1868598978563032 2.7756469160226107 2.2325946618879207 2.9674517357021375 1.7288634807397889 2.1774852318605382 3.0909815160997809 3.0450399997170798 3.0894842861087097 2.7778385151643441 1.737912818882428 2.7230974043212322 1.7031582848023412 1.3668538317356371 0.97726184525501114 2.9277028261905182 2.4393021154614849 2.7907522118812613 2.9191326884241531 2.393371441093167 3.1183214625726441 2.5762030001793623 2.3214815787756957
decision_type=2 2 2 2 2 2 2 2 2 2 2 2 2 2 2 2 2 2 2 2 2 2 2 2 2 2 2 2 2 2
left_child=2 4 9 7 8 10 12 14 -2 20 -5 -11 13 28 17 16 -6 -3 29 -9 -1 -21 -17 24 -20 -16 -22 -10 -4 -8
right_child=1 3 6 5 15 -7 18 19 27 11 -12 -13 -14 -15 25 22 -18 -19 23 21 26 -23 -24 -25 -26 -27 -28 -29 -30 -31
leaf_value=-0.0050004045775084716 0.18233912939515062 1.7846271377563476 0.040241491203521988 1.2585782405308314 0.56831592120376284 3.5203791236877442 0.20810610087402578 1.9551807994227255 0.29474158097474129 0.24365814215629733 2.3697109560533005 0.036565821242696583 0.093922504068450777 0.80770831314000213 0.38511964045464991 1.1337835339137485 0.35271801672509456 0.99375638433404867 0.37841308962893544 1.1400171051385266 0.0055775693752045013 1.8346141934394835 0.55685740870237355 0.20791168033460697 1.0760879105329513 0.8767714844396558 0.11293013048139126 0.77322361317547883 0.11416090644904243 0.11554245156991494
leaf_weight=1058378 4878 25 15657 21 306 21 902 31 1479 340 22 3405 7177 22 24 21 915 37 148 53 62175 22 480 254 20 295 442 22 907 1311
leaf_count=1058378 4878 25 15657 21 306 21 902 31 1479 340 22 3405 7177 22 24 21 915 37 148 53 62175 22 480 254 20 295 442 22 907 1311
internal_value=0 0.322849 -0.00242654 1.20356 0.262946 2.38268 0.071785 1.0486 0.210438 -0.00416831 1.82706 0.0553673 0.0599864 0.0453017 0.916733 0.457458 0.40675 1.31266 0.178188 1.52258 -0.00436721 1.34377 0.58104 0.308854 0.46147 0.839782 0.00633535 0.301755 0.0442891 0.153271
internal_weight=0 8652 1.15114e+06 551 8101 64 26398 487 6379 1.12474e+06 43 3745 23763 16586 381 1722 1221 62 2635 106 1.121e+06 75 501 422 168 319 62617 1501 16564 2213
internal_count=1159790 8652 1151138 551 8101 64 26398 487 6379 1124740 43 3745 23763 16586 381 1722 1221 62 2635 106 1120995 75 501 422 168 319 62617 1501 16564 2213
is_linear=0
shrinkage=0.03


Tree=14
num_leaves=31
num_cat=0
split_feature=27 31 59 31 19 59 59 59 40 31 31 59 50 50 50 26 59 31 21 50 35 15 31 29 26 18 15 56 18 15
split_gain=951413 408722 239349 85767.7 83158.3 32642.3 29337.1 20684.7 19536.1 16939.4 15973 11057.5 10702.9 10216.1 7618.33 8249.75 7525.78 6902.78 6458.14 6159.79 5970.8 6135.31 5857.51 5752.42 5663.51 5606.89 5463.75 5410.01 5341.6 7041.37
threshold=2.5989615955215681 3.1458704559304942 2.0609670865246206 2.9924530114066923 3.2038272593500001 2.4146182818961939 1.7268794067222915 1.7543523710438729 2.1775689544315386 3.1037055498559676 3.1868598978563032 3.0894842861087097 2.2907084908076967 3.1005461647686214 2.067750488447937 1.2193466252505003 2.6464168728789237 2.1175801828963929 2.3381638439926724 2.1707120614911553 3.1561775034381498 3.1492097285216576 2.8565526635089973 3.0903583751347079 1.8050271798937612 1.8993969652085265 2.2334197061870715 2.5911606682940058 2.5270702150562898 2.7385643119251095
decision_type=2 2 2 2 2 2 2 2 2 2 2 2 2 2 2 2 2 2 2 2 2 2 2 2 2 2 2 2 2 2
left_child=2 3 6 7 10 13 14 -2 -6 18 12 22 -3 17 27 -16 -7 -4 26 -8 21 23 24 -12 -9 -24 -5 -1 29 -11
right_child=1 4 5 9 8 16 19 11 -10 28 20 -13 -14 -15 15 -17 -18 -19 -20 -21 -22 -23 25 -25 -26 -27 -28 -29 -30 -31
leaf_value=-0.0045700912719462148 0.07535952835632187 1.6755081912449428 0.06740521231374165 0.93983713443462658 2.0639537715911866 0.14793881826324731 0.025487697403911061 0.63583685878883389 3.3899427423477171 0.74412335654584361 1.6427575859816177 0.46221395120620729 0.94355448572158807 0.69888673409819602 0.11169074378411004 0.011305255590891189 0.2303702366033718 0.11882626754251825 0.29667873011481377 0.098592056123722197 1.9273152454376219 1.7819062103543963 0.52900888801574708 1.0616881078222522 0.24614214072713825 0.30947949612994002 0.49474926784525824 0.059403129485001788 0.62615383675772018 1.243683823943138
leaf_weight=1106150 465 21 10098 26 20 3826 23616 34 20 123 23 300 125 24 1009 2731 1348 3062 155 1085 25 28 125 46 2620 645 548 1191 269 32
leaf_count=1106150 465 21 10098 26 20 3826 23616 34 20 123 23 300 125 24 1009 2731 1348 3062 155 1085 25 28 125 46 2620 645 548 1191 269 32
internal_value=0 0.388348 -0.00190113 0.32708 1.45099 0.105558 -0.00363802 0.264015 2.72695 0.556205 1.26055 0.287571 1.04884 0.0804974 -0.00435692 0.0383879 0.169415 0.0793696 0.46851 0.0286988 1.51391 1.40737 0.27227 1.25538 0.251134 0.345117 0.51491 -0.00450128 0.706982 0.847258
internal_weight=0 5650 1.15414e+06 5342 308 18358 1.13578e+06 4189 40 1153 268 3724 146 13184 1.11108e+06 3740 5174 13160 729 24701 122 97 3424 69 2654 770 574 1.10734e+06 424 155
internal_count=1159790 5650 1154140 5342 308 18358 1135782 4189 40 1153 268 3724 146 13184 1111081 3740 5174 13160 729 24701 122 97 3424 69 2654 770 574 1107341 424 155
is_linear=0
shrinkage=0.03


Tree=15
num_leaves=31
num_cat=0
split_feature=27 31 59 31 31 35 59 59 50 50 11 59 30 59 59 17 32 50 59 47 56 26 50 30 26 56 56 26 27 50
split_gain=895638 399046 204453 77273 64827.5 50146.5 38664.9 20278.8 14368.8 12367.8 12350.3 11473.9 13448.8 11305.6 11128 9827.34 7601.25 7504.45 6630.58 6597.3 5917.02 5856.26 5499.44 6393.02 5352.27 4894.33 4617.97 4530.8 4507.7 4478.67
threshold=2.5557746584264551 3.1264820890483249 1.9359986300856129 3.1868598978563032 2.9618465996509511 3.2142477481195235 2.2471978454338841 1.7543523710438729 1.487819708374539 3.1005461647686214 3.0738825374953107 3.0894842861087097 2.9875635125527817 2.5627685417579058 3.019058020909934 1.8251981670490276 1.7031582848023412 2.3166946235625985 1.7399575317040388 2.424330305613998 2.5762030001793623 2.7778385151643441 3.1105283007795936 2.7425289523879943 1.8050271798937612 2.5292418825987815 2.5069288353575372 2.1577468690720987 2.7989223907527161 2.4455831653098694
decision_type=2 2 2 2 2 2 2 2 2 2 2 2 2 2 2 2 2 2 2 2 2 2 2 2 2 2 2 2 2 2
left_child=2 4 8 15 7 10 9 27 -1 20 16 18 -13 25 22 -3 -5 26 -6 -19 29 -20 24 -24 -9 -8 -10 -2 -26 -4
right_child=1 3 6 5 11 -7 13 14 17 -11 -12 12 -14 -15 -16 -17 -18 19 21 -21 -22 -23 23 -25 28 -27 -28 -29 -30 -31
leaf_value=-0.0045570686677872813 0.23291168734431267 1.4300040927240925 0.045393129614948638 1.7465176932876174 0.090966004204864684 2.9915852531433105 0.10547272993972241 0.58224567523816728 0.0087366573652899564 0.79946190029382702 2.1459442925453187 1.3172400943092677 0.57168657988382721 0.19473070524990588 0.40841217979055938 0.86267895193139377 1.2198841698105272 0.16555671430959654 0.57187380712256175 0.016292239740279008 0.12228217594397597 0.38507575194126509 0.88977378730773926 0.31436864733695985 0.21779939607024823 0.18313341999460514 0.065596775693279374 0.024536672400103675 0.29397280159516859 0.15542255888335252
leaf_weight=1079538 120 31 14097 37 52 25 6615 41 46584 20 24 23 409 1979 427 242 74 532 217 534 1034 497 25 57 2696 821 1322 432 944 341
leaf_count=1079538 120 31 14097 37 52 25 6615 41 46584 20 24 23 409 1979 427 242 74 532 217 534 1034 497 25 57 2696 821 1322 432 944 341
internal_value=0 0.354666 -0.00195964 1.23391 0.290572 1.75741 0.0830595 0.240758 -0.00383607 0.0539204 1.52885 0.487751 0.61138 0.131007 0.263276 0.9271 1.39543 0.0120576 0.418028 0.0907845 0.0529567 0.441848 0.246807 0.489797 0.241394 0.114047 0.0103058 0.0698356 0.237554 0.0479918
internal_weight=0 6373 1.15342e+06 433 5940 160 24907 4742 1.12851e+06 15492 135 1198 432 9415 4190 273 111 48972 766 1066 15472 714 3763 82 3681 7436 47906 552 3640 14438
internal_count=1159790 6373 1153417 433 5940 160 24907 4742 1128510 15492 135 1198 432 9415 4190 273 111 48972 766 1066 15472 714 3763 82 3681 7436 47906 552 3640 14438
is_linear=0
shrinkage=0.03


Tree=16
num_leaves=31
num_cat=0
split_feature=59 31 59 15 27 50 31 31 59 11 27 26 50 26 59 26 59 9 32 56 15 31 63 26 30 62 50 59 50 30
split_gain=844553 425114 138012 94524.1 76901.2 39952.1 30932.3 27413.3 15773.2 13157 12992.5 13313.8 11973.6 11728 10091.4 10728.5 9935.87 9471.13 8294.39 7595.97 7592.82 7426.91 7227.79 6784.62 6716.47 8852.12 6191.63 5586.54 5085.06 4845.94
threshold=2.4507100612421016 3.1140126319261161 1.8741697217913746 3.2221841718675486 2.8365580397856349 3.1416573922789053 2.3031348783569108 3.1868598978563032 2.7756469160226107 2.9674517357021375 2.2325946618879207 1.7288634807397889 2.5438907400113782 3.0450399997170798 3.0894842861087097 2.7778385151643441 2.1774852318605382 1.737912818882428 1.7031582848023412 2.5842346502242428 0.98175792651311367 2.7230974043212322 0.97726184525501114 2.9277028261905182 2.4393021154614849 2.7907522118812613 1.3668538317356371 3.1608830385066669 3.1183214625726441 2.237883379835647
decision_type=2 2 2 2 2 2 2 2 2 2 2 2 2 2 2 2 2 2 2 2 2 2 2 2 2 2 2 2 2 2
left_child=2 4 10 7 8 9 12 13 -2 -5 19 -12 16 17 15 -6 -4 -3 -9 26 -14 29 -20 -16 25 -23 -1 -15 -10 -8
right_child=1 3 6 5 14 -7 21 18 28 -11 11 -13 20 27 23 -17 -18 -19 22 -21 -22 24 -24 -25 -26 -27 -28 -29 -30 -31
leaf_value=-0.0046292505247683977 0.16625571350806459 1.6690793558120727 0.039591641351578041 1.1245918335233414 0.52560249239790668 3.2580899756295341 0.21678040707710558 1.7986666322523548 0.27073180672604946 2.1744056328860193 0.2309794232205433 0.03409996443257271 0.79128678262233731 0.69504244788177305 1.0595324925013951 0.32040276035874105 0.082205066928829951 0.91320945275796417 1.0255386933290733 0.062113181001288514 0.20034092519808727 0.34570381094928126 1.6723912772265348 0.50863276970386495 0.1814485680860029 1.0181442269682883 0.0051318243913865986 0.98589235800731023 0.73020916440270167 0.11498288508761839
leaf_weight=1057523 4878 25 16436 21 306 21 567 31 1479 22 340 3405 21 240 21 915 7031 37 53 1562 287 148 22 480 255 20 61910 79 22 1633
leaf_count=1057523 4878 25 16436 21 306 21 567 31 1479 22 340 3405 21 240 21 915 7031 37 53 1562 287 148 22 480 255 20 61910 79 22 1633
internal_value=0 0.295291 -0.00221942 1.10161 0.240448 2.18552 0.0655847 0.959171 0.192424 1.66171 -0.0038108 0.0519742 0.0547982 0.84045 0.418349 0.371829 0.0523591 1.218 1.38589 -0.00399717 0.240633 0.163354 1.21528 0.531724 0.278479 0.425756 -0.00408942 0.767071 0.277466 0.141219
internal_weight=0 8652 1.15114e+06 551 8101 64 26398 487 6379 43 1.12474e+06 3745 23775 381 1722 1221 23467 62 106 1.121e+06 308 2623 75 501 423 168 1.11943e+06 319 1501 2200
internal_count=1159790 8652 1151138 551 8101 64 26398 487 6379 43 1124740 3745 23775 381 1722 1221 23467 62 106 1120995 308 2623 75 501 423 168 1119433 319 1501 2200
is_linear=0
shrinkage=0.03


Tree=17
num_leaves=31
num_cat=0
split_feature=59 31 59 27 19 27 48 59 59 31 31 59 50 50 61 15 50 50 17 31 50 26 38 30 61 27 54 26 59 62
split_gain=795693 353564 182300 82019.1 69137.2 40474.7 17528.7 17345.9 13520.4 13463.5 12714.2 11597.9 11431.3 11241.3 11076.4 10486.7 9981.78 8881.63 8210.25 7838.41 7350.57 7691.43 6623.55 6314.7 7927.08 7380.57 5127.14 5099.82 5650.1 4883.3
threshold=2.5749878122954946 3.1458704559304942 1.9651265688154118 2.9911359138759903 3.2038272593500001 2.3450979281597406 2.1723502798641312 1.6539756057230057 2.8863635909315124 2.7230974043212322 3.1140126319261161 2.2253735824283987 3.0909815160997809 2.5174226418396768 2.6472567460668102 3.1393452367900667 3.0967462252574447 3.1537494883258912 2.4843476121883064 2.1345540019916709 2.3113697069462549 1.049865878107628 1.0000000180025095e-35 2.4393021154614849 2.5873357226900242 3.0956559206320176 3.0901539095793753 2.8862034707568962 3.1051657554955985 2.1437261678717401
decision_type=2 2 2 2 2 2 2 2 2 2 2 2 2 2 2 2 2 2 2 2 2 2 2 2 2 2 2 2 2 2
left_child=2 3 7 8 13 11 -6 20 22 -7 26 12 -4 14 -3 18 -17 -10 -15 -9 29 -22 -2 24 -11 -25 27 -5 -29 -1
right_child=1 4 5 10 6 9 -8 19 17 23 -12 -13 -14 15 -16 16 -18 -19 -20 -21 21 -23 -24 25 -26 -27 -28 28 -30 -31
leaf_value=-0.0043214849477219699 0.1868118604216388 1.9857536024517481 0.046878760353962254 0.62107333777702012 1.8806566672325133 0.14827839068704343 3.1366751976013183 0.0163804091834856 0.31032606760396342 0.38050482107019878 0.7188445015689906 0.09644568290690779 0.73133157963102513 1.2304226997122167 1.0542749226093291 1.0525878032684326 1.9185761292084402 0.90546652420707374 0.79694819730870858 0.090632360381200081 0.19428088476369157 0.012771575977284969 0.3027632490808973 0.21681742751805944 1.0144391765892504 0.76740943350748192 0.9458770351409912 0.36833148514251829 0.55262579729797645 0.017632870515479064
leaf_weight=1093304 2823 27 12396 146 20 2737 20 26292 1202 158 238 6970 22 64 20 25 23 23 102 1345 340 550 526 463 20 23 20 478 218 9195
leaf_count=1093304 2823 27 12396 146 20 2737 20 26292 1202 158 238 6970 22 64 20 25 23 23 102 1345 340 550 526 463 20 23 20 478 218 9195
internal_value=0 0.345305 -0.00178816 0.292153 1.34726 0.0822199 2.50867 -0.00348083 0.236218 0.177678 0.52474 0.0654748 0.0480914 1.16927 1.58938 1.077 1.46754 0.3215 0.964071 0.019994 -0.00406881 0.0821122 0.205023 0.298864 0.451733 0.242874 0.471147 0.459871 0.426056 -0.00413838
internal_weight=0 5975 1.15382e+06 5674 301 22789 40 1.13103e+06 4574 3401 1100 19388 12418 261 47 214 48 1225 166 27637 1.10339e+06 890 3349 664 178 486 862 842 696 1.1025e+06
internal_count=1159790 5975 1153815 5674 301 22789 40 1131026 4574 3401 1100 19388 12418 261 47 214 48 1225 166 27637 1103389 890 3349 664 178 486 862 842 696 1102499
is_linear=0
shrinkage=0.03


Tree=18
num_leaves=31
num_cat=0
split_feature=27 31 59 31 19 59 59 59 40 31 31 59 24 50 21 62 50 56 21 50 47 35 59 15 15 22 18 15 56 50
split_gain=750153 333478 170414 75314.5 67061.5 23461 21220 17386.6 16856.7 13616.1 12272.7 10186 9726.14 8699.63 6619.12 8456.98 6343.89 6173.51 5472.06 5351.98 7002.22 5298.05 5198.28 5086.74 5049.86 5125.85 4978.18 6294.9 4875.92 4871.99
threshold=2.5557746584264551 3.1458704559304942 2.0609670865246206 2.9924530114066923 3.2038272593500001 1.6539756057230057 2.4146182818961939 1.7543523710438729 2.1775689544315386 3.1037055498559676 3.1868598978563032 2.9673156192244474 3.0391481302580758 3.1005461647686214 1.7551724230436492 2.371191863396668 2.1707120614911553 2.5773729485898182 2.3381638439926724 2.1347346384637409 1.8728457725493051 3.1561775034381498 2.7579346219997718 2.2334197061870715 3.1492097285216576 1.6539376754787249 2.5270702150562898 2.7385643119251095 2.532312509654886 3.1105283007795936
decision_type=2 2 2 2 2 2 2 2 2 2 2 2 2 2 2 2 2 2 2 2 2 2 2 2 2 2 2 2 2 2
left_child=2 3 5 7 10 19 13 -2 -6 18 12 29 14 17 15 -3 28 -4 23 -1 -21 24 -8 -5 25 -12 27 -11 -7 -9
right_child=1 4 6 9 8 16 22 11 -10 26 21 -13 -14 -15 -16 -17 -18 -19 -20 20 -22 -23 -24 -25 -26 -27 -28 -29 -30 -31
leaf_value=-0.0040758639556886149 0.068192585496368655 1.0173187507688999 0.063569172463494916 0.86805478664544911 1.817551664829254 0.016473139652788172 0.13509035160836708 0.22012299423918502 3.0492602173089982 0.66688583298427306 1.4913118553161622 0.35504059006971295 0.68945193500132163 0.65364378148386171 0.80786794556511765 1.8416844107423509 0.089555437216584224 0.13949803852333106 0.25767695715221078 0.1324916474996817 0.011765248507455719 1.7280608379364013 0.24544067174902459 0.43859740349103826 1.578075907884964 0.92936055071651935 0.55095044131505 1.1392251643538474 0.070174129183537201 0.43889767127626755
leaf_weight=1100502 567 24 11987 26 20 30011 4289 3607 20 123 21 643 74 23 27 21 1197 1048 156 573 1762 25 422 548 28 48 269 32 1603 94
leaf_count=1100502 567 24 11987 26 20 30011 4289 3607 20 123 21 643 74 23 27 21 1197 1048 156 573 1762 25 422 548 28 48 269 32 1603 94
internal_value=0 0.324584 -0.00179343 0.275681 1.28758 -0.00323585 0.0903939 0.224434 2.43341 0.493766 1.11656 0.244828 0.930979 0.0707024 1.17921 1.40202 0.0217629 0.0696738 0.415231 -0.0039796 0.041391 1.33864 0.144975 0.45805 1.23828 1.10039 0.628981 0.764401 0.0191961 0.22568
internal_weight=0 6373 1.15342e+06 6065 308 1.13565e+06 17769 4911 40 1154 268 4344 146 13058 72 45 32811 13035 730 1.10284e+06 2335 122 4711 574 97 69 424 155 31614 3701
internal_count=1159790 6373 1153417 6065 308 1135648 17769 4911 40 1154 268 4344 146 13058 72 45 32811 13035 730 1102837 2335 122 4711 574 97 69 424 155 31614 3701
is_linear=0
shrinkage=0.03


Tree=19
num_leaves=31
num_cat=0
split_feature=27 31 59 19 31 59 31 48 59 50 31 31 50 50 27 26 50 50 59 72 59 15 56 56 56 35 13 15 38 21
split_gain=707409 274449 215076 63098.2 47424.7 33118.4 26309.8 15898 12016.4 11822.9 11547.4 11072.7 9191.46 8109.63 7239.6 8915.37 6399.77 5972.39 5958.89 5900.05 5821.25 5706.2 5593.77 5252.22 5069.17 4984.94 5102.26 8032.33 4731.58 6744.97
threshold=2.6928036555510917 3.1458704559304942 2.1402723853715995 3.2038272593500001 3.0178945157469887 1.7936115217276776 2.3031348783569108 2.1723502798641312 2.0196796019774088 2.5438907400113782 3.1868598978563032 3.1037055498559676 2.2907084908076967 3.1537494883258912 2.0973288422494956 1.6113351413512975 3.1183214625726441 2.5438907400113782 3.1209198613801887 1.0000000180025095e-35 2.7084462105238245 2.2334197061870715 2.5088503102065367 2.5792014635295835 2.5911606682940058 3.1561775034381498 3.0931947170307503 3.1393452367900667 1.0000000180025095e-35 1.7551724230436492
decision_type=2 2 2 2 2 2 2 2 2 2 2 2 2 2 2 2 2 2 2 2 2 2 2 2 2 2 2 2 2 2
left_child=2 4 5 10 8 14 17 -5 -2 23 12 21 -3 18 24 -16 20 22 28 -11 -8 -6 -4 -7 -1 26 27 -12 -10 -30
right_child=1 3 6 7 11 9 16 -9 13 19 25 -13 -14 -15 15 -17 -18 -19 -20 -21 -22 -23 -24 -25 -26 -27 -28 -29 29 -31
leaf_value=-0.0038971667564151676 0.099205658157487012 1.483790488583701 0.070582276395213819 1.7623201367855073 0.89775445699691769 0.028142104167026075 0.14415990182370564 2.9584874421358109 0.23218906522086144 0.18123284497617023 1.1260099531622492 0.6120504399891018 0.8054848913097381 0.74094090658075673 0.17302594069499885 0.019979778741868449 0.68743628229413711 0.22012465052578573 0.57239410933801682 0.58759397916658773 0.21807035515884388 0.39440518672633945 0.1429602083022701 0.097172684367038228 0.054994549489029043 1.6762190231323242 0.83188610572814936 1.8231396097796304 0.38621362336530113 0.23016329994398152
leaf_weight=1110762 377 21 9136 20 21 20664 3834 20 1431 164 51 423 125 34 365 5572 21 274 59 40 1279 583 1074 1042 1317 25 25 21 562 448
leaf_count=1110762 377 21 9136 20 21 20664 3834 20 1431 164 51 423 125 34 365 5572 21 274 59 40 1279 583 1074 1042 1317 25 25 21 562 448
internal_value=0 0.386518 -0.00142025 1.24895 0.319066 -0.0029352 0.109153 2.3604 0.257228 0.0335923 1.08306 0.494341 0.903049 0.280738 -0.00365103 0.0293889 0.164795 0.0819051 0.27448 0.260911 0.162648 0.411906 0.0781958 0.0314559 -0.00382742 1.29848 1.20113 1.32934 0.267279 0.316995
internal_weight=0 4246 1.15554e+06 308 3938 1.13993e+06 15618 40 2911 21910 268 1027 146 2534 1.11802e+06 5937 5134 10484 2500 204 5113 604 10210 21706 1.11208e+06 122 97 72 2441 1010
internal_count=1159790 4246 1155544 308 3938 1139926 15618 40 2911 21910 268 1027 146 2534 1118016 5937 5134 10484 2500 204 5113 604 10210 21706 1112079 122 97 72 2441 1010
is_linear=0
shrinkage=0.03


Tree=20
num_leaves=31
num_cat=0
split_feature=59 31 59 27 35 27 57 50 31 31 59 31 50 59 50 42 50 31 14 62 31 38 11 54 26 59 56 24 57 32
split_gain=666709 294394 152082 68897.3 58182.2 35763.1 18926.1 13170.4 12136.7 12120.4 11599.3 10864 10144.9 9619.07 8034.38 8013.88 7872.12 6910.78 5924.55 6398.67 6203.17 5861.34 5651.93 4769.5 4734.6 5075.17 4705.06 4698.11 4823.08 4672.99
threshold=2.5749878122954946 3.1458704559304942 1.9316931787977958 2.9911359138759903 3.2337601958140483 2.3054329924222676 1.9641282276585048 1.6113351413512975 3.1868598978563032 2.7230974043212322 2.8863635909315124 3.1140126319261161 2.5948734210357283 2.2253735824283987 2.3166946235625985 1.7528134216667672 3.1537494883258912 1.6468027476352525 1.7199458468135815 2.7907522118812613 3.1140126319261161 1.0000000180025095e-35 3.0253187377812392 3.0901539095793753 2.8862034707568962 3.1051657554955985 2.5792014635295835 3.0391481302580758 2.711216134213863 1.7031582848023412
decision_type=2 2 2 2 2 2 2 2 2 2 2 2 2 2 2 2 2 2 2 2 2 2 2 2 2 2 2 2 2 2
left_child=2 3 7 10 6 12 -3 26 27 -7 21 23 13 -4 -9 -16 -12 -14 19 -11 -20 -2 29 24 -5 -26 -1 28 -8 -10
right_child=1 4 5 11 -6 9 8 14 22 18 16 -13 17 -15 15 -17 -18 -19 20 -21 -22 -23 -24 -25 25 -27 -28 -29 -30 -31
leaf_value=-0.0038927158694781255 0.1702891531843973 2.0054242787361147 0.039698753729622387 0.57565852180735699 2.753367645059313 0.12997416984043308 0.79955377094207269 0.012366073581421669 1.4537413191114152 0.35665658208918061 0.28478574309095167 0.66017758027407791 0.7795385334491729 0.084114195024948477 0.16980969601119578 0.012558146435917494 0.84508371591567988 0.19853506677234783 0.19845757894166463 0.93005215206742287 0.73736514324322344 0.27936508489482303 1.7128720951080321 0.8890846259593963 0.33304500370095463 0.50771119830805223 0.051941972267968053 0.67849638551473612 1.3660257279872894 1.0365102705588707
leaf_weight=1093534 2823 20 14107 146 21 3405 31 32942 35 141 1202 238 20 6370 593 574 23 234 495 20 20 526 20 20 478 218 1360 72 24 78
leaf_count=1093534 2823 20 14107 146 21 3405 31 32942 35 141 1202 238 20 6370 593 574 23 234 495 20 20 526 20 20 478 218 1360 72 24 78
internal_value=0 0.316081 -0.00163682 0.26758 1.23036 0.071833 1.11613 -0.00325146 1.04773 0.15301 0.216314 0.480752 0.0558529 0.0535155 0.0151065 0.092464 0.295306 0.244283 0.269044 0.427886 0.219386 0.187421 1.24802 0.431212 0.420336 0.387754 -0.00382336 0.837973 1.04674 1.16574
internal_weight=0 5975 1.15382e+06 5674 301 24812 280 1.129e+06 260 4081 4574 1100 20731 20477 34109 1167 1225 254 676 161 515 3349 133 862 842 696 1.09489e+06 127 55 113
internal_count=1159790 5975 1153815 5674 301 24812 280 1129003 260 4081 4574 1100 20731 20477 34109 1167 1225 254 676 161 515 3349 133 862 842 696 1094894 127 55 113
is_linear=0
shrinkage=0.03


Tree=21
num_leaves=31
num_cat=0
split_feature=27 31 59 15 31 59 59 59 31 31 22 24 59 57 50 20 62 31 27 50 26 59 26 61 59 23 56 48 18 15
split_gain=627834 267416 156727 57178.1 56300.8 22026 20046.3 13248.6 12018.7 11362 9183.52 8947.29 7840.88 7324.7 6567.08 6484.11 7472.43 6136.95 5404.16 5391.58 6829.38 5155.73 5046.72 8398.19 6195.63 4950.62 4822.19 4774.51 4708.38 5913.04
threshold=2.5989615955215681 3.1458704559304942 2.0780529142578845 3.3386813611603068 2.9924530114066923 1.7078685743037934 2.4146182818961939 1.7543523710438729 3.1868598978563032 3.1037055498559676 1.6539376754787249 3.0391481302580758 3.0894842861087097 3.1848971088192033 2.6564453350645145 1.9046951226850031 2.371191863396668 1.7537154638040684 1.8627963258709217 2.067750488447937 1.2193466252505003 2.6464168728789237 2.291880023153507 2.6472567460668102 2.4057130411466763 2.8235980417695066 2.5625320374420637 2.5240936419214148 2.5270702150562898 2.7385643119251095
decision_type=2 2 2 2 2 2 2 2 2 2 2 2 2 2 2 2 2 2 2 2 2 2 2 2 2 2 2 2 2 2
left_child=2 4 5 8 7 19 14 -2 11 25 -10 15 22 27 26 16 -3 -16 -7 -1 -21 -8 23 -9 -24 -6 -4 -12 29 -11
right_child=1 3 6 -5 9 18 21 12 10 28 13 -13 -14 -15 17 -17 -18 -19 -20 20 -22 -23 24 -25 -26 -27 -28 -29 -30 -31
leaf_value=-0.0036920318372947857 0.063833157777365659 0.90924052291446267 0.057658167754449353 2.4428522218095843 0.41053919509076847 0.018652776503295752 0.11961806677441539 0.29877312197532746 1.6528810829729648 0.61222428768146331 0.764878714784332 0.62472521057000019 0.38073304548263548 1.5740082277763972 0.72358547222614278 0.62980360400676716 1.6150464640723334 0.17550905289177438 0.059746409034357968 0.099562304734660712 0.0077629205539533376 0.18784596319899008 0.11057183829376915 0.92745587723595746 0.22832580225327609 0.18135383137482769 0.12355503483033392 1.2734902855066152 0.49914942013092867 1.0700127061083913
leaf_weight=1105329 465 27 10835 29 631 24494 3826 214 37 123 46 74 300 22 20 20 27 228 3264 1000 2695 1348 472 21 2717 98 1101 26 269 32
leaf_count=1105329 465 27 10835 29 631 24494 3826 214 37 123 46 74 300 22 20 20 27 228 3264 1000 2695 1348 472 21 2717 98 1101 26 269 32
internal_value=0 0.315471 -0.00154436 1.17501 0.265913 -0.00291044 0.0879205 0.214817 1.04323 0.451551 1.25252 0.857983 0.233669 1.09493 0.0669114 1.09124 1.26214 0.219709 0.0234849 -0.00357109 0.0326071 0.137394 0.220784 0.354953 0.210897 0.37973 0.0637366 0.948544 0.575036 0.706735
internal_weight=0 5650 1.15414e+06 308 5342 1.13678e+06 17358 4189 279 1153 131 148 3724 94 12184 74 54 248 27758 1.10902e+06 3695 5174 3424 235 3189 729 11936 72 424 155
internal_count=1159790 5650 1154140 308 5342 1136782 17358 4189 279 1153 131 148 3724 94 12184 74 54 248 27758 1109024 3695 5174 3424 235 3189 729 11936 72 424 155
is_linear=0
shrinkage=0.03


Tree=22
num_leaves=31
num_cat=0
split_feature=27 31 59 35 31 59 27 15 59 50 50 31 59 27 26 38 22 31 56 50 50 56 35 26 56 56 61 32 54 59
split_gain=591786 228099 179477 54498.1 39805.4 29074.1 21355.7 15174.9 12915.5 10763.5 10684.9 9162.12 8531.16 6568.51 8097.49 6126.95 5803.22 5729.05 5591.52 5402.88 5209.58 4997.83 5414.91 4996.59 4859.99 4613.95 4600.84 4240.35 4092.24 4069.12
threshold=2.6928036555510917 3.1458704559304942 2.1491545067751674 3.2337601958140483 3.0923132896849674 1.7996194767851164 2.3450979281597406 3.3178760725295562 2.0753694520802886 2.5438907400113782 2.2696054544422841 3.1868598978563032 3.0894842861087097 2.0973288422494956 1.6113351413512975 1.0000000180025095e-35 1.6539376754787249 3.1140126319261161 2.5292418825987815 3.0909815160997809 3.1183214625726441 3.092650296408372 2.8069446774919995 2.2514405131411404 2.5030280375518235 2.5911606682940058 3.0931736521077986 2.0656226554926307 3.0815454136817189 2.7756469160226107
decision_type=2 2 2 2 2 2 2 2 2 2 2 2 2 2 2 2 2 2 2 2 2 2 2 2 2 2 2 2 2 2
left_child=2 4 5 7 8 13 18 10 23 24 -3 -12 15 25 -15 -10 -17 -6 -4 -11 29 22 -13 -2 -7 -1 -19 -24 -14 -8
right_child=1 3 6 -5 17 9 20 -9 12 19 11 21 28 14 -16 16 -18 26 -20 -21 -22 -23 27 -25 -26 -27 -28 -29 -30 -31
leaf_value=-0.003565397447368673 0.25771259826058757 1.5499081024756798 0.07053166256759863 2.6150213314805715 0.43070629870950777 0.025570151384010087 0.13990230868059961 1.8288639914989471 0.20567289072362854 0.19241346825001529 0.73158818112373347 0.63267885020146009 0.37742759929621278 0.16460078178755183 0.019129051502096161 0.39094511378311908 0.24828354809778053 0.56012283949862485 0.14410373859324502 0.68875317172570649 0.62653460911342074 1.4774879081726073 1.4616460311412811 0.026573862490989267 0.079871296671440523 0.052302930144263605 0.94436198875308031 0.95955637710850417 0.81788011550903317 0.2142264992265559
leaf_weight=1111376 117 26 9548 21 453 19883 3779 20 1319 192 125 26 374 367 5587 410 686 227 1030 22 21 25 24 300 1603 1332 32 41 20 804
leaf_count=1111376 117 26 9548 21 453 19883 3779 20 1319 192 125 26 374 367 5587 410 686 227 1030 22 21 25 24 300 1603 1332 32 41 20 804
internal_value=0 0.353523 -0.001299 1.13976 0.292029 -0.00266319 0.101169 1.03182 0.24722 0.03173 0.972113 0.909779 0.270348 -0.00333036 0.0280958 0.249231 0.301651 0.495053 0.0776955 0.243439 0.155101 1.10179 0.998582 0.0914257 0.0296214 -0.00349852 0.607596 1.14494 0.399786 0.152941
internal_weight=0 4246 1.15554e+06 308 3938 1.14036e+06 15182 287 3226 21700 267 241 2809 1.11866e+06 5954 2415 1096 712 10578 214 4604 116 91 417 21486 1.11271e+06 259 65 394 4583
internal_count=1159790 4246 1155544 308 3938 1140362 15182 287 3226 21700 267 241 2809 1118662 5954 2415 1096 712 10578 214 4604 116 91 417 21486 1112708 259 65 394 4583
is_linear=0
shrinkage=0.03


Tree=23
num_leaves=31
num_cat=0
split_feature=59 31 59 27 35 27 57 27 26 50 31 31 50 31 59 59 50 19 14 61 31 11 38 14 50 54 26 59 61 24
split_gain=558247 245215 126990 58053.4 50074.6 31509.7 16799.9 10980.1 12719.7 10717.8 10405.9 9846.16 9230.52 9120.14 8474.14 7817.78 6336.84 6223.52 5558.59 5955.07 5258.31 5194.88 5000.19 4649.68 4424.73 4378.72 4483.19 4575.22 4361.19 3984.08
threshold=2.5749878122954946 3.1458704559304942 1.9026908078222169 2.9911359138759903 3.2337601958140483 2.2814388062217295 1.9641282276585048 2.2325946618879207 1.7288634807397889 3.1416573922789053 2.7230974043212322 3.1868598978563032 2.5438907400113782 3.1140126319261161 2.9191326884241531 2.2253735824283987 1.4092587776543135 0.97101835509027423 1.7199458468135815 2.494196989329645 3.1037055498559676 3.0253187377812392 1.0000000180025095e-35 2.7644513569334359 2.5948734210357283 3.0901539095793753 2.8862034707568962 3.1051657554955985 3.0931736521077986 3.0391481302580758
decision_type=2 2 2 2 2 2 2 2 2 2 2 2 2 2 2 2 2 2 2 2 2 2 2 2 2 2 2 2 2 2
left_child=2 3 7 9 6 12 -3 16 -9 14 -7 29 15 25 22 -4 -1 -14 19 -12 -20 23 -2 -13 -18 26 -5 -28 -15 -8
right_child=1 4 5 13 -6 10 11 8 -10 -11 18 21 17 28 -16 -17 24 -19 20 -21 -22 -23 -24 -25 -26 -27 27 -29 -30 -31
leaf_value=-0.0037290135943503721 0.15783870628740673 1.8555396716594696 0.034922170857862589 0.53597502824250753 2.5365706940208161 0.11599443305027599 0.95656107486378061 0.21880776006420599 0.030151315506732088 0.65352477908134454 0.32444634780502146 1.4158089657783508 0.70412762982504706 0.55720241748759047 0.27602244092314038 0.075046689415546819 0.0060236863106769966 0.17084372433335798 0.17174981176363011 0.85564720037308606 0.57454070722143491 1.5793033018112181 0.25502349277546177 0.95219068261710083 0.15753538359149263 0.83396780204772947 0.30118304291650438 0.46702311686419562 0.94979303031132145 0.61745210144668816
leaf_weight=1065525 3070 20 15836 146 21 3848 55 354 3519 46 139 25 21 209 894 6036 57499 317 494 22 31 20 564 88 174 20 478 218 29 72
leaf_count=1065525 3070 20 15836 146 21 3848 55 354 3519 46 139 25 21 209 894 6036 57499 317 494 22 31 20 564 88 174 20 478 218 29 72
internal_value=0 0.28923 -0.00149777 0.244965 1.12366 0.0631124 1.01769 -0.00303089 0.0473949 0.197906 0.135184 0.953236 0.0483995 0.440643 0.193278 0.0459953 -0.00320477 0.203977 0.242824 0.397033 0.195534 1.13364 0.172922 1.05476 0.0064808 0.395253 0.384832 0.353127 0.605039 0.76431
internal_weight=0 5975 1.15382e+06 5674 301 26744 280 1.12707e+06 3873 4574 4534 260 22210 1100 4528 21872 1.1232e+06 338 686 161 525 133 3634 113 57673 862 842 696 238 127
internal_count=1159790 5975 1153815 5674 301 26744 280 1127071 3873 4574 4534 260 22210 1100 4528 21872 1123198 338 686 161 525 133 3634 113 57673 862 842 696 238 127
is_linear=0
shrinkage=0.03


Tree=24
num_leaves=31
num_cat=0
split_feature=59 31 59 27 15 31 31 30 59 59 26 26 27 26 22 50 56 30 27 61 15 56 27 15 50 23 56 59 50 49
split_gain=525741 264151 85451.7 61563.7 55236.9 19693 15771.8 14114.7 10160.8 9913.63 10307.1 9959.82 9099.94 10198.3 8922.97 8625.25 7061.36 6424.33 6069.59 8408.87 5736.51 5489.13 5229.51 4801.63 4613.25 5595.57 4418.37 4095.1 3988.86 3953.3
threshold=2.4507100612421016 3.1264820890483249 1.867931225297446 2.8365580397856349 3.3178760725295562 2.2991979693489095 3.1868598978563032 2.884184293412225 2.7756469160226107 3.0894842861087097 2.9277028261905182 2.7778385151643441 2.2146633464452607 1.4147059101785047 1.6539376754787249 2.5438907400113782 2.5701859792955148 2.3464357975801517 2.5989615955215681 2.5873357226900242 0.98175792651311367 2.5842346502242428 1.8225960043019023 3.1492097285216576 1.9681680410474691 1.2592749029064525 2.5761464129323728 3.1051657554955985 3.1183214625726441 2.9039721031125243
decision_type=2 2 2 2 2 2 2 2 2 2 2 2 2 2 2 2 2 2 2 2 2 2 2 2 2 2 2 2 2 2
left_child=2 3 12 8 6 15 7 -3 26 11 -11 29 21 -14 -8 16 22 18 -7 -20 -17 24 -4 -16 -1 -26 -2 -9 -10 -5
right_child=1 4 5 9 -6 17 14 27 28 10 -12 -13 13 -15 23 20 -18 -19 19 -21 -22 -23 -24 -25 25 -27 -28 -29 -30 -31
leaf_value=-0.0033929231171031431 0.11969841313093781 1.3644657214943852 0.025097476916091151 0.40829227200134349 2.123690245765097 0.14664752593907623 1.5273872805930473 0.46905403375625609 0.21350127506933153 1.08712871724909 0.42516837999463719 0.25238080192619206 0.26016296596590388 0.031540382549945928 0.80588990763614043 0.6672890283302827 0.10069367756038868 0.090408659571019762 0.25870574010979097 0.85062611076980832 0.1645060099088832 0.053515171623604481 0.055358012238874009 1.252304139963218 0.075206393694260867 0.0065867140598947944 0.20777890363976975 0.73852816895125017 0.6204510429772464 0.73845277230381157
leaf_weight=1112953 4296 28 14165 277 34 832 37 75 1479 22 561 953 184 3848 57 22 1634 1628 216 24 285 1535 8067 35 1421 4324 582 157 22 37
leaf_count=1112953 4296 28 14165 277 34 832 37 75 1479 22 561 953 184 3848 57 22 1634 1628 216 24 285 1535 8067 35 1421 4324 582 157 22 37
internal_value=0 0.232982 -0.0017511 0.1954 0.964109 0.051117 0.862758 0.728204 0.15121 0.34777 0.450148 0.300662 -0.0030148 0.0419736 1.13395 0.0425341 0.0405016 0.12796 0.184987 0.317898 0.200536 -0.00317672 0.0360777 0.975721 -0.00325451 0.0235595 0.130207 0.651414 0.219466 0.447197
internal_weight=0 8652 1.15114e+06 8229 423 26873 389 260 6379 1850 583 1267 1.12426e+06 4032 129 24173 23866 2700 1072 240 307 1.12023e+06 22232 92 1.1187e+06 5745 4878 232 1501 314
internal_count=1159790 8652 1151138 8229 423 26873 389 260 6379 1850 583 1267 1124265 4032 129 24173 23866 2700 1072 240 307 1120233 22232 92 1118698 5745 4878 232 1501 314
is_linear=0
shrinkage=0.03


Tree=25
num_leaves=31
num_cat=0
split_feature=31 31 59 15 27 50 59 22 31 59 29 17 50 50 32 59 26 59 63 44 30 56 56 26 59 57 23 50 26 26
split_gain=495992 219054 110796 45450.1 38293.7 33883.9 18416.1 12811.5 12154.5 11861.6 8791 8141.48 7173.61 7094.79 6938.52 6648.19 12527.1 6627.07 6198.28 5035.74 5006.87 4997.94 4932.57 4636.06 4559.43 4557.82 4154.1 3953.28 5848.9 3718.25
threshold=2.5343408466515167 3.1264820890483249 1.9898455517337668 3.2221841718675486 2.9911359138759903 3.1416573922789053 2.3485133552090818 2.234973120977235 3.1868598978563032 1.0000000180025095e-35 3.1093102209336112 1.8251981670490276 3.1105283007795936 3.1005461647686214 1.7031582848023412 3.0894842861087097 3.0450399997170798 2.4057130411466763 0.97726184525501114 2.9854423508955668 1.8465360068640242 2.5773729485898182 2.5597660575512085 2.8862034707568962 2.3596291960764852 1.9641282276585048 3.1207199392339073 2.1810064182102633 1.1794353242208271 2.8418361480787171
decision_type=2 2 2 2 2 2 2 2 2 2 2 2 2 2 2 2 2 2 2 2 2 2 2 2 2 2 2 2 2 2
left_child=2 4 9 8 7 10 13 12 11 27 -5 -3 20 21 -10 23 -17 -9 -16 29 -2 -4 -8 26 -25 -13 -6 -1 -29 -14
right_child=1 3 6 5 15 -7 22 17 14 -11 -12 25 19 -15 18 16 -18 -19 -20 -21 -22 -23 -24 24 -26 -27 -28 28 -30 -31
leaf_value=-0.0033316380668933689 0.41022148173415302 1.1272329986768383 0.042547761056278631 0.77765360400080674 0.4423466165312207 2.6290670892170493 0.0995298744021514 0.057063750363681991 1.4293070600878808 0.01613964998502666 1.6078912555087694 0.17658635687828064 0.64151764780282972 0.57461329017644336 0.72001994497371158 1.0763700776440757 0.42066039994322935 0.19697606745307278 1.3190356479991565 0.77070753002988879 0.19370067998949611 0.10889592777754939 0.18283831123989153 -0.1430153347313404 0.27487738260375261 0.6505437767079898 0.037467639255523676 0.11953046984380677 0.0035853565490270908 0.23210268062561057
leaf_weight=1100764 99 31 14209 24 260 21 5548 957 31 29117 22 20 26 23 53 28 413 447 22 29 3303 1101 723 25 391 210 25 581 1201 86
leaf_count=1100764 99 31 14209 24 260 21 5548 957 31 29117 22 20 26 23 53 28 413 447 22 29 3303 1101 723 25 391 210 25 581 1201 86
internal_value=0 0.260862 -0.00147546 0.912042 0.214448 1.63056 0.0658237 0.178301 0.780868 -0.00276024 1.17472 0.670843 0.208692 0.0481101 1.05178 0.371033 0.462293 0.101608 0.895731 0.418375 0.200002 0.0473191 0.109135 0.313621 0.249764 0.60933 0.406831 -0.00325936 0.0413879 0.327145
internal_weight=0 6523 1.15327e+06 434 6089 67 21604 4947 367 1.13166e+06 46 261 3543 15333 106 1142 441 1404 75 141 3402 15310 6271 701 416 230 285 1.10255e+06 1782 112
internal_count=1159790 6523 1153267 434 6089 67 21604 4947 367 1131663 46 261 3543 15333 106 1142 441 1404 75 141 3402 15310 6271 701 416 230 285 1102546 1782 112
is_linear=0
shrinkage=0.03


Tree=26
num_leaves=31
num_cat=0
split_feature=59 31 59 27 35 27 57 50 27 26 31 50 31 31 59 59 56 18 26 62 44 50 50 50 23 56 22 54 26 59
split_gain=467804 205141 105698 48539.8 43863.7 26511.1 15304.4 9368.59 9349.02 11156.1 8499.34 8082.11 7792.51 7725.8 7434.62 7369.21 5904.91 5716.6 5502.41 5497.31 4806.74 9656.6 6169.98 4716.32 5459.3 4534.85 4139.53 4092.55 4036.05 3931.39
threshold=2.5749878122954946 3.1458704559304942 1.9026908078222169 2.9911359138759903 3.2337601958140483 2.3054329924222676 1.9641282276585048 3.1416573922789053 2.2325946618879207 1.7288634807397889 2.8950740978889997 2.6219390867040993 3.1868598978563032 3.1140126319261161 2.2253735824283987 2.9191326884241531 2.5037325230230447 0.99566774125624546 2.308900998040706 3.0961983013886951 3.1007246533471355 3.0967462252574447 2.558440481810146 1.9324595292454838 1.2592749029064525 2.5822334101343603 1.0000000180025095e-35 3.0901539095793753 2.8862034707568962 3.1051657554955985
decision_type=2 2 2 2 2 2 2 2 2 2 2 2 2 2 2 2 2 2 2 2 2 2 2 2 2 2 2 2 2 2
left_child=2 3 8 7 6 11 -3 15 16 -10 18 14 -8 27 -4 25 23 -13 19 -7 21 22 -14 -1 -25 -2 -15 28 -5 -30
right_child=1 4 5 13 -6 10 12 -9 9 -11 -12 17 20 26 -16 -17 -18 -19 -20 -21 -22 -23 -24 24 -26 -27 -28 -29 29 -31
leaf_value=-0.003199654549465367 0.14519670574320112 1.7284793071746827 0.032014615858338827 0.49476337806972326 2.3503607558352608 0.16355168546359319 0.69920221547222161 0.60722442661938458 0.20429259221653565 0.027611188039401508 0.28566172805562301 0.70605409884452819 1.3603185419440269 0.89715549026216779 0.070316387801176508 0.25408325063302212 0.038659924035793672 0.17536518257023032 0.095074034401068611 0.53649198266299991 0.62265743932940742 1.5037760588929459 0.74348614841699601 0.067331151412083248 0.0063020228031477861 0.2460794876854307 0.50882940706717117 0.78556699562072752 0.27312237515589649 0.42685175936156455
leaf_weight=1113017 3175 20 15979 146 21 922 127 46 354 3519 284 20 20 28 6383 894 3064 211 2908 37 22 37 54 1749 5368 459 210 20 478 218
leaf_count=1113017 3175 20 15979 146 21 922 127 46 354 3519 284 20 20 28 6383 894 3064 211 2908 37 22 37 54 1749 5368 459 210 20 478 218
internal_value=0 0.264766 -0.00137109 0.224279 1.02797 0.0575741 0.92879 0.181249 -0.00276978 0.0437602 0.127258 0.0447711 0.867275 0.403207 0.0429475 0.176921 -0.00293023 0.221312 0.115625 0.17794 1.02777 1.10806 0.910198 -0.00304399 0.0212999 0.157939 0.554515 0.36143 0.351356 0.321273
internal_weight=0 5975 1.15382e+06 5674 301 26744 280 4574 1.12707e+06 3873 4151 22593 260 1100 22362 4528 1.1232e+06 231 3867 959 133 111 74 1.12013e+06 7117 3634 238 862 842 696
internal_count=1159790 5975 1153815 5674 301 26744 280 4574 1127071 3873 4151 22593 260 1100 22362 4528 1123198 231 3867 959 133 111 74 1120134 7117 3634 238 862 842 696
is_linear=0
shrinkage=0.03


Tree=27
num_leaves=31
num_cat=0
split_feature=27 31 59 15 31 59 31 59 35 22 15 50 59 26 50 61 50 50 26 56 50 50 26 31 30 50 56 56 59 56
split_gain=441298 168366 133023 42524.6 30090.3 22650.2 15105.8 9770.27 8943.96 20010.5 8842.69 8515.29 6388.81 5925.74 5855.05 5005.66 4902.13 4890.66 5487.96 4465.13 4389.1 4130.35 4117.18 4066.16 4195.52 4055.06 3955.71 3892.17 3828.43 3982.58
threshold=2.6928036555510917 3.1458704559304942 2.1577876028915699 3.3386813611603068 3.0923132896849674 1.7739105614181203 2.3031348783569108 2.0753694520802886 3.1180086652364962 1.6539376754787249 3.1425995277590011 2.5438907400113782 3.0894842861087097 2.7251789262384665 3.1049445143890746 1.8896528611085663 3.1183214625726441 1.6767441660156359 1.1794353242208271 2.5764983852521479 3.0967462252574447 2.5344819235825002 2.2514405131411404 3.1140126319261161 3.1027126479068166 2.3166946235625985 2.5801148061451449 2.5088503102065367 3.019058020909934 2.5083773871870103
decision_type=2 2 2 2 2 2 2 2 2 2 2 2 2 2 2 2 2 2 2 2 2 2 2 2 2 2 2 2 2 2
left_child=2 4 5 8 7 17 21 22 10 -10 -3 19 13 14 -9 -11 26 -1 25 -7 -13 27 -2 -6 28 -19 -8 -4 29 -25
right_child=1 3 6 -5 23 11 16 12 9 15 -12 20 -14 -15 -16 -17 -18 18 -20 -21 -22 -23 -24 24 -26 -27 -28 -29 -30 -31
leaf_value=-0.0031944898489017818 0.2289336001108854 0.66592677046464865 0.056297930137841248 2.0741508491696985 0.37475856834270105 0.021470040959434285 0.11914260624967651 0.26526694243831495 1.9037947664528407 1.237507277727127 1.2044328685240311 0.16865448631757102 0.34561923739155237 0.18225795623355606 0.67337667476047169 0.65859902473030285 0.5877195690359388 0.035216904946370121 0.0048250140583636645 0.079894197550295254 0.63435077038407317 0.17811739424569048 0.019119007042609156 0.42165494705127043 0.43939045388444226 0.14273920913242685 0.20451093547005395 0.1187397766498771 1.0480179888861521 0.93222097992897035
leaf_weight=1093480 117 163 8402 29 453 23288 4500 767 22 20 33 204 394 1615 33 41 21 2916 19276 1240 20 289 300 44 174 354 548 1006 21 20
leaf_count=1093480 117 163 8402 29 453 23288 4500 767 22 20 33 204 394 1615 33 41 21 2916 19276 1240 20 289 300 44 174 354 548 1006 21 20
internal_value=0 0.305282 -0.00112175 0.980776 0.25245 -0.00227978 0.0883448 0.213491 0.867127 1.12815 0.756594 0.0261052 0.233607 0.215332 0.282101 0.848405 0.130313 -0.00290932 0.0109212 0.0244236 0.210235 0.0664065 0.0779878 0.428968 0.523782 0.0468569 0.12841 0.0629749 0.696537 0.581207
internal_weight=0 4246 1.15554e+06 308 3938 1.14078e+06 14766 3226 279 83 196 24752 2809 2415 800 61 5069 1.11603e+06 22546 24528 224 9697 417 712 259 3270 5048 9408 85 64
internal_count=1159790 4246 1155544 308 3938 1140778 14766 3226 279 83 196 24752 2809 2415 800 61 5069 1116026 22546 24528 224 9697 417 712 259 3270 5048 9408 85 64
is_linear=0
shrinkage=0.03


Tree=28
num_leaves=31
num_cat=0
split_feature=59 31 59 31 35 31 57 31 31 26 50 31 50 53 31 56 56 56 14 62 50 11 14 59 50 31 61 54 24 57
split_gain=416321 181472 93400.9 43378.7 40013.2 23298.5 14087.7 9516.75 8578.13 8801.7 8464.61 8049.81 7307.67 8490.68 6925.29 5555.35 5450.7 5199.86 5003.46 5456.71 4812.8 4527.8 4501.24 4395.55 4223.59 4208.19 4038.85 3866.24 3586.38 4617.45
threshold=2.5749878122954946 3.1458704559304942 1.9026908078222169 2.9125232552994902 3.2337601958140483 2.1607046238724545 1.9641282276585048 2.7230974043212322 2.1345540019916709 1.5438617645476074 2.3833571371689528 3.1140126319261161 3.1105283007795936 2.9952345235773943 3.1868598978563032 2.5772814075920638 2.5911606682940058 2.5030280375518235 1.7199458468135815 2.7907522118812613 3.0967462252574447 3.0253187377812392 2.7644513569334359 2.8483901672245566 2.3747130152383567 3.1140126319261161 3.0931736521077986 3.0901539095793753 3.0391481302580758 2.711216134213863
decision_type=2 2 2 2 2 2 2 2 2 2 2 2 2 2 2 2 2 2 2 2 2 2 2 2 2 2 2 2 2 2
left_child=2 3 8 12 6 10 -3 -7 16 -10 17 27 15 -14 28 23 24 -4 19 -9 -12 22 -16 -2 -1 -20 -13 -5 29 -8
right_child=1 4 5 11 -6 7 14 18 9 -11 20 26 13 -15 21 -17 -18 -19 25 -21 -22 -23 -24 -25 -26 -27 -28 -29 -30 -31
leaf_value=-0.0029189215229527693 0.12617867336328029 1.6401158580780029 0.030365330375019314 0.32103479303178167 2.2306136522974285 0.091053242252117791 0.59594944815481865 0.28968486223132051 0.18048246990889374 0.023922735144383811 0.1372045227669324 0.47625797344547693 0.25091799869619569 0.92185212314128873 1.2467462900161743 0.24575435308825891 0.05221986693251647 0.085758898243119955 0.14746261904711869 0.81919611293077466 0.5903027707880194 1.3812153975963593 0.79058831131932406 0.19747758420008532 0.090902956584015746 0.59114425684511662 0.85406190448793862 0.74217476999759668 0.51607126896580058 1.1502141964435577
leaf_weight=1118805 2587 20 18041 1030 21 5813 31 141 342 5874 515 209 58 24 25 604 1618 1666 506 20 22 20 88 1113 432 20 29 20 72 24
leaf_count=1118805 2587 20 18041 1030 21 5813 31 141 342 5874 515 209 58 24 25 604 1618 1666 506 20 22 20 88 1113 432 20 29 20 72 24
internal_value=0 0.249773 -0.00129344 0.211693 0.967597 0.0541169 0.872871 0.103532 -0.00260826 0.0325365 0.0382505 0.364763 0.166742 0.447289 0.813852 0.161397 -0.00280317 0.0350482 0.209124 0.355463 0.155767 0.965148 0.891508 0.147626 -0.00288271 0.164333 0.522293 0.329057 0.655407 0.83781
internal_weight=0 5975 1.15382e+06 5674 301 26744 280 6500 1.12707e+06 6216 20244 1288 4386 82 260 4304 1.12086e+06 19707 687 161 537 133 113 3700 1.11924e+06 526 238 1050 127 55
internal_count=1159790 5975 1153815 5674 301 26744 280 6500 1127071 6216 20244 1288 4386 82 260 4304 1120855 19707 687 161 537 133 113 3700 1119237 526 238 1050 127 55
is_linear=0
shrinkage=0.03


Tree=29
num_leaves=31
num_cat=0
split_feature=31 31 59 15 27 59 31 59 22 30 22 50 50 59 59 26 62 30 57 59 48 26 59 50 56 13 56 8 91 56
split_gain=392900 171650 86968.4 36961.5 30056.6 13354.6 13062 11363.8 10590.8 8381.53 7843.91 5825.84 5633.98 5599.07 5570.26 11802.7 4769.69 4698.19 4668.06 4662.88 4393.9 4366.47 4471.81 4154.75 4002.05 3553.11 3503.71 3270 3258.29 3229.34
threshold=2.5343408466515167 3.1264820890483249 2.0609670865246206 3.3178760725295562 2.9911359138759903 1.0000000180025095e-35 3.1868598978563032 2.3798770747242739 2.234973120977235 2.884184293412225 1.6539376754787249 3.1105283007795936 3.1005461647686214 2.7084462105238245 3.0894842861087097 3.0450399997170798 2.2405055429408747 1.8465360068640242 3.1848971088192033 3.0973052596964687 2.5240936419214148 2.8030919344408058 2.585732922157256 2.1707120614911553 2.560729943704978 2.0100291852637429 2.5773729485898182 1.9847591488830674 1.0000000180025095e-35 2.532312509654886
decision_type=2 2 2 2 2 2 2 2 2 2 2 2 2 2 2 2 2 2 2 2 2 2 2 2 2 2 2 2 2 2
left_child=2 4 5 6 8 -1 9 12 11 -3 -8 17 26 -10 21 -16 -13 28 20 -11 -12 27 -23 29 -9 -21 -4 -6 -2 -7
right_child=1 3 7 -5 14 23 10 24 13 19 18 16 -14 -15 15 -17 -18 -19 -20 25 -22 22 -24 -25 -26 -27 -28 -29 -30 -31
leaf_value=-0.0029058166739352469 0.68674629107117646 1.0603123872354627 0.042726886879828375 1.7154773583605483 0.46535734548380497 0.012198139364465763 1.3409969470952006 0.090906055844677106 0.06747187596568488 0.3219448213350205 0.52815384578704827 0.29074208994751399 0.51744761342587675 0.25350277463956317 1.0094070385183607 0.37293757916651393 0.73418881808718039 0.17276093179217078 1.2166922918387821 0.97059549435325287 1.0180255890809573 -0.0091231101467495867 0.26204898573587798 0.071338041423808868 0.17048969206042461 0.57015395781993861 0.10210657728347283 0.21633129066099291 0.28514262278974056 0.055882319938835218
leaf_weight=1102546 24 32 11191 37 152 30170 37 4921 1239 63 45 114 23 165 28 413 27 3303 21 23 26 63 417 1197 643 150 972 69 75 1604
leaf_count=1102546 24 32 11191 37 152 30170 37 4921 1239 63 45 114 23 165 28 413 27 3303 21 23 26 63 417 1197 643 150 972 69 75 1604
internal_value=0 0.232174 -0.0013132 0.808606 0.191088 -0.00234321 0.724086 0.0645791 0.159064 0.604699 0.972116 0.186696 0.0483592 0.0893345 0.329814 0.413348 0.375657 0.178864 0.823762 0.542921 0.707543 0.277262 0.226458 0.0164704 0.100103 0.623392 0.0474722 0.387607 0.382501 0.0144034
internal_weight=0 6523 1.15327e+06 434 6089 1.13552e+06 397 17750 4947 268 129 3543 12186 1404 1142 441 141 3402 92 236 71 701 480 32971 5564 173 12163 221 99 31774
internal_count=1159790 6523 1153267 434 6089 1135517 397 17750 4947 268 129 3543 12186 1404 1142 441 141 3402 92 236 71 701 480 32971 5564 173 12163 221 99 31774
is_linear=0
shrinkage=0.03


Tree=30
num_leaves=31
num_cat=0
split_feature=59 31 59 31 35 31 57 27 50 31 27 26 59 31 30 62 56 56 44 50 50 54 50 61 31 38 24 57 50 50
split_gain=370034 163281 78682.3 40831.8 36974.7 21276 10935.3 8402.29 8272.48 7088.2 7002.21 8174.64 6810.48 5996.54 5916.4 5040.57 4621.56 4508.6 4482.34 8697.77 7219.39 4063.84 3931.14 3900.34 3829.09 3311.5 3276.17 4482.41 3221.43 3157.71
threshold=2.55296829301933 3.1458704559304942 1.8764684692729341 2.9125232552994902 3.2337601958140483 2.4153675224236033 1.9215567725929996 1.8943128620413163 2.9692080280324045 3.1140126319261161 2.2146633464452607 1.7288634807397889 2.9432390596961326 3.1868598978563032 2.378494505049034 3.0961983013886951 2.5037325230230447 2.5786615699811031 3.1007246533471355 3.0967462252574447 2.5510981068467582 3.0901539095793753 2.7546691939874308 3.0931736521077986 3.0614176787463347 1.0000000180025095e-35 3.0689937244786392 2.6550790696821562 1.2434194928103954 2.2542248368791484
decision_type=2 2 2 2 2 2 2 2 2 2 2 2 2 2 2 2 2 2 2 2 2 2 2 2 2 2 2 2 2 2
left_child=2 3 10 12 6 7 -3 8 29 21 16 -12 17 26 15 -7 22 25 19 20 -15 -5 28 -11 -16 -2 27 -8 -1 -4
right_child=1 4 5 9 -6 14 13 -9 -10 23 11 -13 -14 18 24 -17 -18 -19 -20 -21 -22 -23 -24 -25 -26 -27 -28 -29 -30 -31
leaf_value=-0.0032264507061054229 0.11469516304930634 1.4930406966581939 0.024073900893765671 0.30092676284549857 2.1217344784736629 0.18921918638415569 0.47911262381535313 0.061984321376507466 0.60821813301606609 0.44480599913408458 0.17123554495948592 0.023332293516746438 0.23998344127394311 1.2848512122631073 0.093187418121309804 0.59291234567247586 0.035061485068188326 0.22002947883111126 0.51405431725762107 1.3588389562513377 0.61926278489243913 0.72242176328386576 0.2000727087218141 0.81586063992360536 0.32306236237958624 0.19882832697104111 0.47360219163264133 0.99913391692297793 0.0028519272487769411 0.11332409510868664
leaf_weight=1032934 3069 20 15835 1047 21 694 26 9865 22 211 370 3695 695 20 1593 29 2917 530 22 37 55 21 86 29 68 488 67 35 84924 365
leaf_count=1032934 3069 20 15835 1047 21 694 26 9865 22 211 370 3695 695 20 1593 29 2917 530 22 37 55 21 86 29 68 488 67 35 84924 365
internal_value=0 0.227609 -0.00126158 0.193791 0.90732 0.0479912 0.816885 0.0401514 0.0268743 0.34232 -0.00250813 0.0367946 0.153164 0.76527 0.133779 0.205412 -0.00265067 0.138401 0.905543 0.982442 0.796753 0.309215 -0.00274907 0.489642 0.102598 0.126238 0.618422 0.777485 -0.00276467 0.0260848
internal_weight=0 6393 1.1534e+06 6090 303 28471 282 26087 16222 1308 1.12493e+06 4065 4782 262 2384 723 1.12086e+06 4087 134 112 75 1068 1.11794e+06 240 1661 3557 128 61 1.11786e+06 16200
internal_count=1159790 6393 1153397 6090 303 28471 282 26087 16222 1308 1124926 4065 4782 262 2384 723 1120861 4087 134 112 75 1068 1117944 240 1661 3557 128 61 1117858 16200
is_linear=0
shrinkage=0.03


Tree=31
num_leaves=31
num_cat=0
split_feature=27 31 59 15 31 49 59 22 49 31 59 30 17 50 50 50 24 18 59 49 56 57 56 26 56 26 56 9 53 50
split_gain=349091 160164 67406.8 33407.1 30925.2 28675.9 13592 11140.3 9594.41 8315.72 7137.61 7548.29 6908.96 6544.07 6533.93 6322.93 6126.65 5780.25 5231.12 5210.11 5327.67 4547.09 3998.33 3918.98 3393.25 3382.45 3252.32 3403.86 3249.03 2964.97
threshold=2.4807273226463473 3.1264820890483249 1.9129922045397794 3.2221841718675486 2.8950740978889997 3.0998561755227541 2.2471978454338841 2.234973120977235 2.2683375240141372 3.1868598978563032 3.0894842861087097 2.9875635125527817 1.8251981670490276 3.1005461647686214 3.1183214625726441 1.4678703800082011 2.9024714581748432 1.8993969652085265 1.7399575317040388 2.7109843027656306 2.538791398357108 2.0229748964645249 2.5701859792955148 0.87189053468977407 2.5808324762255239 1.8147125765269887 2.5773729485898182 3.092931638357808 2.9952345235773943 2.0624596594011213
decision_type=2 2 2 2 2 2 2 2 2 2 2 2 2 2 2 2 2 2 2 2 2 2 2 2 2 2 2 2 2 2
left_child=2 4 15 9 7 8 13 14 -5 12 17 -12 -3 24 25 -1 -11 -6 -19 -18 -21 -14 -8 29 -4 -2 27 -27 -16 -17
right_child=1 3 6 5 10 -7 22 -9 -10 16 11 -13 21 -15 28 23 19 18 -20 20 -22 -23 -24 -25 -26 26 -28 -29 -30 -31
leaf_value=-0.0029213667719756903 0.3049376547946171 0.97894493046171605 0.027244856640335258 1.4506325839247023 0.39741323052725408 2.3299894044399263 0.070616954425773301 0.062196407591526594 0.58848214759276463 1.1789894880746539 0.81601381897926328 0.34636820002035662 0.069584048911929125 0.57354894483089447 0.27372834861278533 0.025184813785173926 0.29657814502716062 -0.018019234608444901 0.23368435588907449 0.59415969067149688 1.23127612386431 0.54308164895008626 0.13826263648918696 0.0056194139894196332 0.085097524335892655 0.13640193375293588 0.21459633057336447 0.50262708780558218 0.7784596538543701 0.095699635404620009
leaf_weight=1075494 132 31 15902 21 181 20 7766 1423 26 38 33 462 20 20 24 2853 20 81 900 27 21 209 875 47626 968 3307 604 23 22 661
leaf_count=1075494 132 31 15902 21 181 20 7766 1423 26 38 33 462 20 20 24 2853 20 81 900 27 21 209 875 47626 968 3307 604 23 22 661
internal_value=0 0.20232 -0.00133895 0.762676 0.168583 1.37856 0.046864 0.134546 0.973698 0.649933 0.28228 0.377678 0.558627 0.0312074 0.159583 -0.00243129 0.873889 0.241642 0.212901 0.703392 0.872898 0.501728 0.0774669 0.00787524 0.0305644 0.155561 0.150549 0.138931 0.515122 0.038449
internal_weight=0 7625 1.15216e+06 433 7192 67 25531 5535 47 366 1657 495 260 16890 4112 1.12663e+06 106 1162 981 68 48 229 8641 51140 16870 4066 3934 3330 46 3514
internal_count=1159790 7625 1152165 433 7192 67 25531 5535 47 366 1657 495 260 16890 4112 1126634 106 1162 981 68 48 229 8641 51140 16870 4066 3934 3330 46 3514
is_linear=0
shrinkage=0.03


Tree=32
num_leaves=31
num_cat=0
split_feature=59 31 59 27 35 27 57 31 50 50 50 47 59 31 31 62 14 61 50 56 44 50 50 38 26 56 44 26 55 42
split_gain=329587 143136 73288.4 34267.6 33264.5 20658.3 12139.4 7823 7492.7 7447.63 6216.24 6539.54 5603.78 5342.51 5150.08 4954.67 4552.45 4997.94 4446.34 4326.48 4224.23 8039.75 5313.32 3892.79 3839.51 3593.24 3576.89 3575.43 4228.39 5768.08
threshold=2.5749878122954946 3.1458704559304942 1.867931225297446 2.9911359138759903 3.2337601958140483 2.1361123931241246 1.9641282276585048 2.7230974043212322 3.1416573922789053 2.4091515936998915 1.9324595292454838 1.6660414396888421 2.9191326884241531 3.1140126319261161 3.1868598978563032 2.2724551306559646 1.7199458468135815 2.494196989329645 3.1005461647686214 2.5030280375518235 3.1007246533471355 3.0967462252574447 2.558440481810146 1.0000000180025095e-35 3.0908657449859867 2.5911606682940058 2.1455226605244611 2.9277028261905182 2.8498787576174291 1.0907306042106846
decision_type=2 2 2 2 2 2 2 2 2 2 2 2 2 2 2 2 2 2 2 2 2 2 2 2 2 2 2 2 2 2
left_child=2 3 10 8 6 9 -3 -7 12 19 15 -12 23 27 -8 25 17 -9 -11 -4 21 22 -16 -2 26 -1 -15 -5 -29 -30
right_child=1 4 5 13 -6 7 14 16 -10 18 11 -13 -14 24 20 -17 -18 -19 -20 -21 -22 -23 -24 -25 -26 -27 -28 28 29 -31
leaf_value=-0.0027825970177172508 0.11853036259945955 1.4855976798534392 0.024902297409160227 0.42129909312337355 2.011339420591082 0.079574564275037382 0.58195772133298274 0.25857639616179012 0.53321118983885518 0.13003384085744618 0.076431107132137105 0.010059365528374806 0.21567937387716049 0.48775245584547522 1.1615040228366853 0.023357842618585655 0.14318961864173432 0.74498237501491205 0.58717513577375202 0.074412224977500052 0.46929701799696139 1.285409492652964 0.58909286114283732 0.20428061234170292 0.39540105558390726 0.045534154030433288 0.96669667466827058 0.24970642735564724 0.84892458860690778 0.23842767871916293
leaf_weight=1108063 3070 20 20214 184 21 6443 127 140 46 450 1679 6541 894 36 20 6595 537 22 20 1724 22 37 54 564 179 1387 23 622 26 30
leaf_count=1108063 3070 20 20214 184 21 6443 127 140 46 450 1679 6541 894 36 20 6595 537 22 20 1724 22 37 54 564 179 1387 23 622 26 30
internal_value=0 0.222237 -0.00115085 0.188417 0.859749 0.0454857 0.77338 0.0899163 0.152262 0.0313245 -0.00237663 0.0236163 0.148392 0.338756 0.718594 -0.00256808 0.185241 0.324632 0.149487 0.028793 0.849066 0.924336 0.743799 0.131839 0.464579 -0.00272219 0.67446 0.304015 0.272186 0.521873
internal_weight=0 5975 1.15382e+06 5674 301 29550 280 7142 4574 22408 1.12426e+06 8220 4528 1100 260 1.11604e+06 699 162 470 21938 133 111 74 3634 238 1.10945e+06 59 862 678 56
internal_count=1159790 5975 1153815 5674 301 29550 280 7142 4574 22408 1124265 8220 4528 1100 260 1116045 699 162 470 21938 133 111 74 3634 238 1109450 59 862 678 56
is_linear=0
shrinkage=0.03


Tree=33
num_leaves=31
num_cat=0
split_feature=31 31 59 15 27 59 31 22 59 30 59 14 35 50 41 30 21 26 13 32 59 31 50 50 31 60 46 59 28 25
split_gain=310671 134531 68539.8 30418.5 23874.6 11712.5 10051.8 9060.37 8380.77 7581.3 7400.86 7650.6 7323.01 5747.45 4714.59 4450.66 4360.43 4885.4 4328.14 5243.66 4281.68 4019.65 3862.83 3829.16 4578.43 3587.48 5213.93 3569.37 3537.37 3645.77
threshold=2.5343408466515167 3.1264820890483249 2.0780529142578845 3.3178760725295562 2.88842344816018 1.0000000180025095e-35 3.1868598978563032 2.234973120977235 2.4146182818961939 2.884184293412225 3.1051657554955985 2.2044576458708205 3.1705487231209037 3.1183214625726441 3.1251812740522666 1.8465360068640242 2.2365399607126393 2.8418361480787171 3.0931947170307503 1.7031582848023412 3.0894842861087097 3.1037055498559676 2.3009163280965139 2.6564453350645145 1.7537154638040684 2.3333645512965324 1.4877765073202991 3.1608830385066669 2.7300526846565862 2.7627454742267328
decision_type=2 2 2 2 2 2 2 2 2 2 2 2 2 2 2 2 2 2 2 2 2 2 2 2 2 2 2 2 2 2
left_child=2 4 5 6 7 -1 9 13 23 -3 14 -12 18 15 16 -2 17 21 19 -8 -11 28 -7 -4 -25 -19 -27 -21 -6 -30
right_child=1 3 8 -5 10 22 12 -9 -10 20 11 -13 -14 -15 -16 -17 -18 25 -20 27 -22 -23 -24 24 -26 26 -28 -29 29 -31
